## LambdaMART
## No. of trees = 1000
## No. of leaves = 10
## No. of threshold candidates = 256
## Learning rate = 0.1
## Stop early = 100

<ensemble>
	<tree id="1" weight="0.1">
		<split>
			<feature> 134 </feature>
			<threshold> 0.0 </threshold>
			<split pos="left">
				<feature> 108 </feature>
				<threshold> 12.228022 </threshold>
				<split pos="left">
					<feature> 130 </feature>
					<threshold> 355.60156 </threshold>
					<split pos="left">
						<feature> 18 </feature>
						<threshold> 16.284803 </threshold>
						<split pos="left">
							<feature> 26 </feature>
							<threshold> 88.10547 </threshold>
							<split pos="left">
								<feature> 65 </feature>
								<threshold> 0.021901498 </threshold>
								<split pos="left">
									<output> -0.7316329 </output>
								</split>
								<split pos="right">
									<output> -0.23843648 </output>
								</split>
							</split>
							<split pos="right">
								<output> 0.9202228 </output>
							</split>
						</split>
						<split pos="right">
							<output> -0.26212713 </output>
						</split>
					</split>
					<split pos="right">
						<output> -0.18731949 </output>
					</split>
				</split>
				<split pos="right">
					<feature> 3 </feature>
					<threshold> 2.0 </threshold>
					<split pos="left">
						<feature> 133 </feature>
						<threshold> 19.0 </threshold>
						<split pos="left">
							<feature> 127 </feature>
							<threshold> 34.17578 </threshold>
							<split pos="left">
								<output> 0.4253452 </output>
							</split>
							<split pos="right">
								<output> 0.103920706 </output>
							</split>
						</split>
						<split pos="right">
							<output> -0.03296679 </output>
						</split>
					</split>
					<split pos="right">
						<output> 0.37969127 </output>
					</split>
				</split>
			</split>
			<split pos="right">
				<output> 1.1689869 </output>
			</split>
		</split>
	</tree>
	<tree id="2" weight="0.1">
		<split>
			<feature> 134 </feature>
			<threshold> 0.0 </threshold>
			<split pos="left">
				<feature> 108 </feature>
				<threshold> 12.228022 </threshold>
				<split pos="left">
					<output> -0.9417802 </output>
				</split>
				<split pos="right">
					<feature> 18 </feature>
					<threshold> 24.01248 </threshold>
					<split pos="left">
						<output> -0.31784284 </output>
					</split>
					<split pos="right">
						<output> 0.30336183 </output>
					</split>
				</split>
			</split>
			<split pos="right">
				<feature> 130 </feature>
				<threshold> 63233.586 </threshold>
				<split pos="left">
					<feature> 136 </feature>
					<threshold> 0.0 </threshold>
					<split pos="left">
						<output> 0.79814565 </output>
					</split>
					<split pos="right">
						<feature> 117 </feature>
						<threshold> -19.679552 </threshold>
						<split pos="left">
							<output> 1.2527694 </output>
						</split>
						<split pos="right">
							<feature> 17 </feature>
							<threshold> 7.7087865 </threshold>
							<split pos="left">
								<output> 1.1376044 </output>
							</split>
							<split pos="right">
								<feature> 35 </feature>
								<threshold> 35.242188 </threshold>
								<split pos="left">
									<output> 0.97825307 </output>
								</split>
								<split pos="right">
									<output> 1.1331104 </output>
								</split>
							</split>
						</split>
					</split>
				</split>
				<split pos="right">
					<feature> 127 </feature>
					<threshold> 16.070312 </threshold>
					<split pos="left">
						<output> 1.5119008 </output>
					</split>
					<split pos="right">
						<output> 1.2759982 </output>
					</split>
				</split>
			</split>
		</split>
	</tree>
	<tree id="3" weight="0.1">
		<split>
			<feature> 134 </feature>
			<threshold> 0.0 </threshold>
			<split pos="left">
				<feature> 108 </feature>
				<threshold> 13.33966 </threshold>
				<split pos="left">
					<output> -0.8217342 </output>
				</split>
				<split pos="right">
					<output> -0.17022853 </output>
				</split>
			</split>
			<split pos="right">
				<feature> 130 </feature>
				<threshold> 63233.586 </threshold>
				<split pos="left">
					<feature> 136 </feature>
					<threshold> 0.0 </threshold>
					<split pos="left">
						<output> 0.70979095 </output>
					</split>
					<split pos="right">
						<feature> 117 </feature>
						<threshold> -19.679552 </threshold>
						<split pos="left">
							<output> 1.1225989 </output>
						</split>
						<split pos="right">
							<feature> 35 </feature>
							<threshold> 35.242188 </threshold>
							<split pos="left">
								<output> 0.8969975 </output>
							</split>
							<split pos="right">
								<output> 0.9982505 </output>
							</split>
						</split>
					</split>
				</split>
				<split pos="right">
					<feature> 127 </feature>
					<threshold> 16.070312 </threshold>
					<split pos="left">
						<feature> 54 </feature>
						<threshold> 0.2 </threshold>
						<split pos="left">
							<output> 1.1627429 </output>
						</split>
						<split pos="right">
							<output> 1.5205418 </output>
						</split>
					</split>
					<split pos="right">
						<feature> 108 </feature>
						<threshold> 26.679325 </threshold>
						<split pos="left">
							<output> 1.1437136 </output>
						</split>
						<split pos="right">
							<output> 1.6330371 </output>
						</split>
					</split>
				</split>
			</split>
		</split>
	</tree>
	<tree id="4" weight="0.1">
		<split>
			<feature> 134 </feature>
			<threshold> 0.0 </threshold>
			<split pos="left">
				<feature> 108 </feature>
				<threshold> 13.33966 </threshold>
				<split pos="left">
					<output> -0.77729744 </output>
				</split>
				<split pos="right">
					<feature> 18 </feature>
					<threshold> 22.08056 </threshold>
					<split pos="left">
						<output> -0.32011718 </output>
					</split>
					<split pos="right">
						<output> 0.23861134 </output>
					</split>
				</split>
			</split>
			<split pos="right">
				<feature> 130 </feature>
				<threshold> 63233.586 </threshold>
				<split pos="left">
					<feature> 136 </feature>
					<threshold> 0.0 </threshold>
					<split pos="left">
						<output> 0.6053037 </output>
					</split>
					<split pos="right">
						<feature> 117 </feature>
						<threshold> -19.679552 </threshold>
						<split pos="left">
							<output> 0.99809265 </output>
						</split>
						<split pos="right">
							<output> 0.80703884 </output>
						</split>
					</split>
				</split>
				<split pos="right">
					<feature> 127 </feature>
					<threshold> 16.070312 </threshold>
					<split pos="left">
						<feature> 54 </feature>
						<threshold> 0.2 </threshold>
						<split pos="left">
							<output> 1.0323988 </output>
						</split>
						<split pos="right">
							<output> 1.383491 </output>
						</split>
					</split>
					<split pos="right">
						<feature> 108 </feature>
						<threshold> 26.679325 </threshold>
						<split pos="left">
							<output> 1.0103647 </output>
						</split>
						<split pos="right">
							<output> 1.4282528 </output>
						</split>
					</split>
				</split>
			</split>
		</split>
	</tree>
	<tree id="5" weight="0.1">
		<split>
			<feature> 134 </feature>
			<threshold> 0.0 </threshold>
			<split pos="left">
				<feature> 108 </feature>
				<threshold> 13.33966 </threshold>
				<split pos="left">
					<output> -0.68287885 </output>
				</split>
				<split pos="right">
					<feature> 18 </feature>
					<threshold> 22.08056 </threshold>
					<split pos="left">
						<output> -0.2722948 </output>
					</split>
					<split pos="right">
						<output> 0.20737162 </output>
					</split>
				</split>
			</split>
			<split pos="right">
				<feature> 130 </feature>
				<threshold> 63233.586 </threshold>
				<split pos="left">
					<feature> 136 </feature>
					<threshold> 0.0 </threshold>
					<split pos="left">
						<output> 0.51340836 </output>
					</split>
					<split pos="right">
						<feature> 18 </feature>
						<threshold> 16.284803 </threshold>
						<split pos="left">
							<output> 0.65357053 </output>
						</split>
						<split pos="right">
							<output> 0.89253587 </output>
						</split>
					</split>
				</split>
				<split pos="right">
					<feature> 127 </feature>
					<threshold> 16.070312 </threshold>
					<split pos="left">
						<feature> 54 </feature>
						<threshold> 0.2 </threshold>
						<split pos="left">
							<output> 0.91950166 </output>
						</split>
						<split pos="right">
							<output> 1.2690451 </output>
						</split>
					</split>
					<split pos="right">
						<feature> 108 </feature>
						<threshold> 26.679325 </threshold>
						<split pos="left">
							<output> 0.89602953 </output>
						</split>
						<split pos="right">
							<output> 1.3254886 </output>
						</split>
					</split>
				</split>
			</split>
		</split>
	</tree>
	<tree id="6" weight="0.1">
		<split>
			<feature> 134 </feature>
			<threshold> 0.0 </threshold>
			<split pos="left">
				<feature> 108 </feature>
				<threshold> 16.674574 </threshold>
				<split pos="left">
					<feature> 60 </feature>
					<threshold> 0.012515141 </threshold>
					<split pos="left">
						<output> -0.7391026 </output>
					</split>
					<split pos="right">
						<output> -0.3911843 </output>
					</split>
				</split>
				<split pos="right">
					<output> 0.0054842783 </output>
				</split>
			</split>
			<split pos="right">
				<feature> 130 </feature>
				<threshold> 63233.586 </threshold>
				<split pos="left">
					<feature> 136 </feature>
					<threshold> 0.0 </threshold>
					<split pos="left">
						<output> 0.43558478 </output>
					</split>
					<split pos="right">
						<feature> 18 </feature>
						<threshold> 16.284803 </threshold>
						<split pos="left">
							<output> 0.5620712 </output>
						</split>
						<split pos="right">
							<output> 0.80312896 </output>
						</split>
					</split>
				</split>
				<split pos="right">
					<feature> 127 </feature>
					<threshold> 16.070312 </threshold>
					<split pos="left">
						<feature> 54 </feature>
						<threshold> 0.2 </threshold>
						<split pos="left">
							<output> 0.8240906 </output>
						</split>
						<split pos="right">
							<output> 1.178377 </output>
						</split>
					</split>
					<split pos="right">
						<feature> 18 </feature>
						<threshold> 14.352884 </threshold>
						<split pos="left">
							<output> 0.68254936 </output>
						</split>
						<split pos="right">
							<output> 1.0234696 </output>
						</split>
					</split>
				</split>
			</split>
		</split>
	</tree>
	<tree id="7" weight="0.1">
		<split>
			<feature> 134 </feature>
			<threshold> 0.0 </threshold>
			<split pos="left">
				<feature> 108 </feature>
				<threshold> 16.674574 </threshold>
				<split pos="left">
					<output> -0.5284879 </output>
				</split>
				<split pos="right">
					<feature> 18 </feature>
					<threshold> 24.01248 </threshold>
					<split pos="left">
						<output> -0.02690738 </output>
					</split>
					<split pos="right">
						<output> 0.33815745 </output>
					</split>
				</split>
			</split>
			<split pos="right">
				<feature> 130 </feature>
				<threshold> 63233.586 </threshold>
				<split pos="left">
					<feature> 136 </feature>
					<threshold> 0.0 </threshold>
					<split pos="left">
						<output> 0.376608 </output>
					</split>
					<split pos="right">
						<feature> 18 </feature>
						<threshold> 16.284803 </threshold>
						<split pos="left">
							<output> 0.4908721 </output>
						</split>
						<split pos="right">
							<output> 0.72928375 </output>
						</split>
					</split>
				</split>
				<split pos="right">
					<feature> 127 </feature>
					<threshold> 16.070312 </threshold>
					<split pos="left">
						<feature> 54 </feature>
						<threshold> 0.2 </threshold>
						<split pos="left">
							<output> 0.7462292 </output>
						</split>
						<split pos="right">
							<output> 1.1072737 </output>
						</split>
					</split>
					<split pos="right">
						<feature> 110 </feature>
						<threshold> 20.158375 </threshold>
						<split pos="left">
							<output> 0.60488784 </output>
						</split>
						<split pos="right">
							<output> 0.9830492 </output>
						</split>
					</split>
				</split>
			</split>
		</split>
	</tree>
	<tree id="8" weight="0.1">
		<split>
			<feature> 134 </feature>
			<threshold> 0.0 </threshold>
			<split pos="left">
				<feature> 108 </feature>
				<threshold> 16.674574 </threshold>
				<split pos="left">
					<output> -0.46931347 </output>
				</split>
				<split pos="right">
					<feature> 14 </feature>
					<threshold> 4.0 </threshold>
					<split pos="left">
						<output> 0.51210886 </output>
					</split>
					<split pos="right">
						<output> 0.029944845 </output>
					</split>
				</split>
			</split>
			<split pos="right">
				<feature> 130 </feature>
				<threshold> 63233.586 </threshold>
				<split pos="left">
					<feature> 136 </feature>
					<threshold> 0.0 </threshold>
					<split pos="left">
						<output> 0.31744 </output>
					</split>
					<split pos="right">
						<feature> 19 </feature>
						<threshold> 15.030833 </threshold>
						<split pos="left">
							<output> 0.35434967 </output>
						</split>
						<split pos="right">
							<output> 0.6259796 </output>
						</split>
					</split>
				</split>
				<split pos="right">
					<feature> 14 </feature>
					<threshold> 4.0 </threshold>
					<split pos="left">
						<feature> 109 </feature>
						<threshold> 17.203537 </threshold>
						<split pos="left">
							<feature> 53 </feature>
							<threshold> 0.05859375 </threshold>
							<split pos="left">
								<output> 0.5932138 </output>
							</split>
							<split pos="right">
								<output> 0.9050137 </output>
							</split>
						</split>
						<split pos="right">
							<output> 1.2544769 </output>
						</split>
					</split>
					<split pos="right">
						<output> 0.5449625 </output>
					</split>
				</split>
			</split>
		</split>
	</tree>
	<tree id="9" weight="0.1">
		<split>
			<feature> 134 </feature>
			<threshold> 0.0 </threshold>
			<split pos="left">
				<feature> 108 </feature>
				<threshold> 16.674574 </threshold>
				<split pos="left">
					<output> -0.43524554 </output>
				</split>
				<split pos="right">
					<feature> 135 </feature>
					<threshold> 65382.0 </threshold>
					<split pos="left">
						<feature> 14 </feature>
						<threshold> 4.0 </threshold>
						<split pos="left">
							<output> 0.5359236 </output>
						</split>
						<split pos="right">
							<output> -0.03286564 </output>
						</split>
					</split>
					<split pos="right">
						<output> 1.7576506 </output>
					</split>
				</split>
			</split>
			<split pos="right">
				<feature> 130 </feature>
				<threshold> 63744.79 </threshold>
				<split pos="left">
					<feature> 19 </feature>
					<threshold> 18.857117 </threshold>
					<split pos="left">
						<feature> 35 </feature>
						<threshold> 35.242188 </threshold>
						<split pos="left">
							<output> 0.29068795 </output>
						</split>
						<split pos="right">
							<output> 0.4777457 </output>
						</split>
					</split>
					<split pos="right">
						<output> 0.6070483 </output>
					</split>
				</split>
				<split pos="right">
					<feature> 14 </feature>
					<threshold> 4.0 </threshold>
					<split pos="left">
						<feature> 109 </feature>
						<threshold> 14.947339 </threshold>
						<split pos="left">
							<output> 0.7232014 </output>
						</split>
						<split pos="right">
							<output> 1.1010367 </output>
						</split>
					</split>
					<split pos="right">
						<output> 0.50535315 </output>
					</split>
				</split>
			</split>
		</split>
	</tree>
	<tree id="10" weight="0.1">
		<split>
			<feature> 134 </feature>
			<threshold> 0.0 </threshold>
			<split pos="left">
				<feature> 3 </feature>
				<threshold> 2.0 </threshold>
				<split pos="left">
					<feature> 65 </feature>
					<threshold> 0.0062575703 </threshold>
					<split pos="left">
						<output> -0.63299847 </output>
					</split>
					<split pos="right">
						<feature> 127 </feature>
						<threshold> 28.140625 </threshold>
						<split pos="left">
							<output> 0.07905944 </output>
						</split>
						<split pos="right">
							<output> -0.28491405 </output>
						</split>
					</split>
				</split>
				<split pos="right">
					<output> 0.26661 </output>
				</split>
			</split>
			<split pos="right">
				<feature> 130 </feature>
				<threshold> 64511.594 </threshold>
				<split pos="left">
					<feature> 108 </feature>
					<threshold> 23.344408 </threshold>
					<split pos="left">
						<feature> 136 </feature>
						<threshold> 0.0 </threshold>
						<split pos="left">
							<output> 0.055489786 </output>
						</split>
						<split pos="right">
							<feature> 127 </feature>
							<threshold> 22.105469 </threshold>
							<split pos="left">
								<output> 0.49377897 </output>
							</split>
							<split pos="right">
								<output> 0.27930462 </output>
							</split>
						</split>
					</split>
					<split pos="right">
						<output> 0.64444864 </output>
					</split>
				</split>
				<split pos="right">
					<feature> 14 </feature>
					<threshold> 4.0 </threshold>
					<split pos="left">
						<output> 0.7492509 </output>
					</split>
					<split pos="right">
						<output> 0.5020344 </output>
					</split>
				</split>
			</split>
		</split>
	</tree>
	<tree id="11" weight="0.1">
		<split>
			<feature> 134 </feature>
			<threshold> 0.0 </threshold>
			<split pos="left">
				<feature> 3 </feature>
				<threshold> 2.0 </threshold>
				<split pos="left">
					<feature> 65 </feature>
					<threshold> 0.0062575703 </threshold>
					<split pos="left">
						<output> -0.6365164 </output>
					</split>
					<split pos="right">
						<feature> 127 </feature>
						<threshold> 28.140625 </threshold>
						<split pos="left">
							<feature> 16 </feature>
							<threshold> 29.716902 </threshold>
							<split pos="left">
								<output> 0.09220221 </output>
							</split>
							<split pos="right">
								<output> 1.3907764 </output>
							</split>
						</split>
						<split pos="right">
							<output> -0.29145077 </output>
						</split>
					</split>
				</split>
				<split pos="right">
					<output> 0.2739957 </output>
				</split>
			</split>
			<split pos="right">
				<feature> 130 </feature>
				<threshold> 64511.594 </threshold>
				<split pos="left">
					<feature> 108 </feature>
					<threshold> 23.344408 </threshold>
					<split pos="left">
						<feature> 127 </feature>
						<threshold> 22.105469 </threshold>
						<split pos="left">
							<output> 0.41757718 </output>
						</split>
						<split pos="right">
							<output> 0.20937862 </output>
						</split>
					</split>
					<split pos="right">
						<output> 0.58162016 </output>
					</split>
				</split>
				<split pos="right">
					<feature> 14 </feature>
					<threshold> 4.0 </threshold>
					<split pos="left">
						<output> 0.6938193 </output>
					</split>
					<split pos="right">
						<output> 0.43653694 </output>
					</split>
				</split>
			</split>
		</split>
	</tree>
	<tree id="12" weight="0.1">
		<split>
			<feature> 134 </feature>
			<threshold> 0.0 </threshold>
			<split pos="left">
				<feature> 3 </feature>
				<threshold> 2.0 </threshold>
				<split pos="left">
					<feature> 65 </feature>
					<threshold> 0.0062575703 </threshold>
					<split pos="left">
						<output> -0.59166837 </output>
					</split>
					<split pos="right">
						<feature> 127 </feature>
						<threshold> 28.140625 </threshold>
						<split pos="left">
							<feature> 108 </feature>
							<threshold> 18.897852 </threshold>
							<split pos="left">
								<output> -3.7023745E-4 </output>
							</split>
							<split pos="right">
								<output> 0.4040898 </output>
							</split>
						</split>
						<split pos="right">
							<output> -0.25731003 </output>
						</split>
					</split>
				</split>
				<split pos="right">
					<output> 0.25280148 </output>
				</split>
			</split>
			<split pos="right">
				<feature> 130 </feature>
				<threshold> 64511.594 </threshold>
				<split pos="left">
					<feature> 108 </feature>
					<threshold> 23.344408 </threshold>
					<split pos="left">
						<feature> 127 </feature>
						<threshold> 22.105469 </threshold>
						<split pos="left">
							<output> 0.3715134 </output>
						</split>
						<split pos="right">
							<output> 0.1731968 </output>
						</split>
					</split>
					<split pos="right">
						<output> 0.51775527 </output>
					</split>
				</split>
				<split pos="right">
					<feature> 110 </feature>
					<threshold> 20.158375 </threshold>
					<split pos="left">
						<output> 0.42491218 </output>
					</split>
					<split pos="right">
						<output> 0.8595738 </output>
					</split>
				</split>
			</split>
		</split>
	</tree>
	<tree id="13" weight="0.1">
		<split>
			<feature> 134 </feature>
			<threshold> 0.0 </threshold>
			<split pos="left">
				<feature> 3 </feature>
				<threshold> 2.0 </threshold>
				<split pos="left">
					<feature> 115 </feature>
					<threshold> -8.260539 </threshold>
					<split pos="left">
						<output> -0.37000906 </output>
					</split>
					<split pos="right">
						<feature> 14 </feature>
						<threshold> 3.0 </threshold>
						<split pos="left">
							<output> 0.5831964 </output>
						</split>
						<split pos="right">
							<feature> 127 </feature>
							<threshold> 28.140625 </threshold>
							<split pos="left">
								<output> 0.1151348 </output>
							</split>
							<split pos="right">
								<output> -0.17634189 </output>
							</split>
						</split>
					</split>
				</split>
				<split pos="right">
					<output> 0.23656873 </output>
				</split>
			</split>
			<split pos="right">
				<feature> 130 </feature>
				<threshold> 64511.594 </threshold>
				<split pos="left">
					<feature> 108 </feature>
					<threshold> 22.232769 </threshold>
					<split pos="left">
						<feature> 127 </feature>
						<threshold> 22.105469 </threshold>
						<split pos="left">
							<output> 0.30057397 </output>
						</split>
						<split pos="right">
							<output> 0.13032083 </output>
						</split>
					</split>
					<split pos="right">
						<output> 0.46357593 </output>
					</split>
				</split>
				<split pos="right">
					<feature> 110 </feature>
					<threshold> 20.158375 </threshold>
					<split pos="left">
						<output> 0.3797148 </output>
					</split>
					<split pos="right">
						<output> 0.8029009 </output>
					</split>
				</split>
			</split>
		</split>
	</tree>
	<tree id="14" weight="0.1">
		<split>
			<feature> 134 </feature>
			<threshold> 0.0 </threshold>
			<split pos="left">
				<feature> 108 </feature>
				<threshold> 18.897852 </threshold>
				<split pos="left">
					<feature> 60 </feature>
					<threshold> 0.012515141 </threshold>
					<split pos="left">
						<output> -0.5208232 </output>
					</split>
					<split pos="right">
						<feature> 14 </feature>
						<threshold> 3.0 </threshold>
						<split pos="left">
							<output> 0.45197466 </output>
						</split>
						<split pos="right">
							<feature> 112 </feature>
							<threshold> -1.3221734 </threshold>
							<split pos="left">
								<output> -0.16036662 </output>
							</split>
							<split pos="right">
								<output> 0.49836057 </output>
							</split>
						</split>
					</split>
				</split>
				<split pos="right">
					<feature> 135 </feature>
					<threshold> 65382.0 </threshold>
					<split pos="left">
						<output> 0.17335738 </output>
					</split>
					<split pos="right">
						<output> 1.5429796 </output>
					</split>
				</split>
			</split>
			<split pos="right">
				<feature> 130 </feature>
				<threshold> 64511.594 </threshold>
				<split pos="left">
					<feature> 18 </feature>
					<threshold> 12.420964 </threshold>
					<split pos="left">
						<output> -0.025742486 </output>
					</split>
					<split pos="right">
						<feature> 127 </feature>
						<threshold> 22.105469 </threshold>
						<split pos="left">
							<output> 0.56942403 </output>
						</split>
						<split pos="right">
							<output> 0.22329865 </output>
						</split>
					</split>
				</split>
				<split pos="right">
					<output> 0.4775893 </output>
				</split>
			</split>
		</split>
	</tree>
	<tree id="15" weight="0.1">
		<split>
			<feature> 134 </feature>
			<threshold> 0.0 </threshold>
			<split pos="left">
				<feature> 108 </feature>
				<threshold> 18.897852 </threshold>
				<split pos="left">
					<feature> 115 </feature>
					<threshold> -8.260539 </threshold>
					<split pos="left">
						<output> -0.36446115 </output>
					</split>
					<split pos="right">
						<output> -0.041094866 </output>
					</split>
				</split>
				<split pos="right">
					<feature> 135 </feature>
					<threshold> 65382.0 </threshold>
					<split pos="left">
						<feature> 14 </feature>
						<threshold> 4.0 </threshold>
						<split pos="left">
							<output> 0.510703 </output>
						</split>
						<split pos="right">
							<output> 0.06762708 </output>
						</split>
					</split>
					<split pos="right">
						<output> 1.4651344 </output>
					</split>
				</split>
			</split>
			<split pos="right">
				<feature> 130 </feature>
				<threshold> 59655.164 </threshold>
				<split pos="left">
					<feature> 108 </feature>
					<threshold> 22.232769 </threshold>
					<split pos="left">
						<output> 0.09768754 </output>
					</split>
					<split pos="right">
						<output> 0.36693576 </output>
					</split>
				</split>
				<split pos="right">
					<feature> 110 </feature>
					<threshold> 22.892632 </threshold>
					<split pos="left">
						<feature> 134 </feature>
						<threshold> 52908.69 </threshold>
						<split pos="left">
							<output> 0.22979936 </output>
						</split>
						<split pos="right">
							<output> 0.9511209 </output>
						</split>
					</split>
					<split pos="right">
						<output> 0.78316015 </output>
					</split>
				</split>
			</split>
		</split>
	</tree>
	<tree id="16" weight="0.1">
		<split>
			<feature> 134 </feature>
			<threshold> 0.0 </threshold>
			<split pos="left">
				<feature> 14 </feature>
				<threshold> 3.0 </threshold>
				<split pos="left">
					<output> 0.43569118 </output>
				</split>
				<split pos="right">
					<feature> 3 </feature>
					<threshold> 2.0 </threshold>
					<split pos="left">
						<feature> 65 </feature>
						<threshold> 0.0062575703 </threshold>
						<split pos="left">
							<output> -0.5088842 </output>
						</split>
						<split pos="right">
							<feature> 130 </feature>
							<threshold> 50197.906 </threshold>
							<split pos="left">
								<output> -0.14789174 </output>
							</split>
							<split pos="right">
								<output> 0.17797175 </output>
							</split>
						</split>
					</split>
					<split pos="right">
						<output> 0.19164234 </output>
					</split>
				</split>
			</split>
			<split pos="right">
				<feature> 130 </feature>
				<threshold> 59655.164 </threshold>
				<split pos="left">
					<feature> 108 </feature>
					<threshold> 22.232769 </threshold>
					<split pos="left">
						<output> 0.07390225 </output>
					</split>
					<split pos="right">
						<output> 0.33719945 </output>
					</split>
				</split>
				<split pos="right">
					<feature> 110 </feature>
					<threshold> 22.892632 </threshold>
					<split pos="left">
						<feature> 134 </feature>
						<threshold> 52908.69 </threshold>
						<split pos="left">
							<output> 0.20413665 </output>
						</split>
						<split pos="right">
							<output> 0.9009808 </output>
						</split>
					</split>
					<split pos="right">
						<output> 0.73021173 </output>
					</split>
				</split>
			</split>
		</split>
	</tree>
	<tree id="17" weight="0.1">
		<split>
			<feature> 134 </feature>
			<threshold> 0.0 </threshold>
			<split pos="left">
				<feature> 14 </feature>
				<threshold> 3.0 </threshold>
				<split pos="left">
					<output> 0.38241613 </output>
				</split>
				<split pos="right">
					<feature> 108 </feature>
					<threshold> 18.897852 </threshold>
					<split pos="left">
						<feature> 124 </feature>
						<threshold> -14.842079 </threshold>
						<split pos="left">
							<output> -0.35427904 </output>
						</split>
						<split pos="right">
							<output> -0.06435255 </output>
						</split>
					</split>
					<split pos="right">
						<feature> 135 </feature>
						<threshold> 65382.0 </threshold>
						<split pos="left">
							<feature> 14 </feature>
							<threshold> 4.0 </threshold>
							<split pos="left">
								<output> 0.42513698 </output>
							</split>
							<split pos="right">
								<output> 0.06064076 </output>
							</split>
						</split>
						<split pos="right">
							<output> 1.393804 </output>
						</split>
					</split>
				</split>
			</split>
			<split pos="right">
				<feature> 130 </feature>
				<threshold> 57865.953 </threshold>
				<split pos="left">
					<feature> 19 </feature>
					<threshold> 20.770258 </threshold>
					<split pos="left">
						<output> 0.02807243 </output>
					</split>
					<split pos="right">
						<output> 0.36009333 </output>
					</split>
				</split>
				<split pos="right">
					<feature> 14 </feature>
					<threshold> 4.0 </threshold>
					<split pos="left">
						<output> 0.4752794 </output>
					</split>
					<split pos="right">
						<output> 0.15254779 </output>
					</split>
				</split>
			</split>
		</split>
	</tree>
	<tree id="18" weight="0.1">
		<split>
			<feature> 134 </feature>
			<threshold> 0.0 </threshold>
			<split pos="left">
				<feature> 14 </feature>
				<threshold> 3.0 </threshold>
				<split pos="left">
					<output> 0.3457078 </output>
				</split>
				<split pos="right">
					<feature> 65 </feature>
					<threshold> 0.009386355 </threshold>
					<split pos="left">
						<output> -0.36591327 </output>
					</split>
					<split pos="right">
						<feature> 3 </feature>
						<threshold> 3.0 </threshold>
						<split pos="left">
							<feature> 130 </feature>
							<threshold> 49175.5 </threshold>
							<split pos="left">
								<feature> 109 </feature>
								<threshold> 14.665314 </threshold>
								<split pos="left">
									<output> -0.11672208 </output>
								</split>
								<split pos="right">
									<output> 0.13259366 </output>
								</split>
							</split>
							<split pos="right">
								<output> 0.27888182 </output>
							</split>
						</split>
						<split pos="right">
							<output> 0.41679916 </output>
						</split>
					</split>
				</split>
			</split>
			<split pos="right">
				<feature> 14 </feature>
				<threshold> 4.0 </threshold>
				<split pos="left">
					<feature> 108 </feature>
					<threshold> 25.567686 </threshold>
					<split pos="left">
						<feature> 130 </feature>
						<threshold> 58377.156 </threshold>
						<split pos="left">
							<output> 0.12939636 </output>
						</split>
						<split pos="right">
							<output> 0.3898965 </output>
						</split>
					</split>
					<split pos="right">
						<output> 0.81809294 </output>
					</split>
				</split>
				<split pos="right">
					<output> 0.07938191 </output>
				</split>
			</split>
		</split>
	</tree>
	<tree id="19" weight="0.1">
		<split>
			<feature> 134 </feature>
			<threshold> 0.0 </threshold>
			<split pos="left">
				<feature> 108 </feature>
				<threshold> 18.897852 </threshold>
				<split pos="left">
					<feature> 123 </feature>
					<threshold> -9.668865 </threshold>
					<split pos="left">
						<output> -0.3282418 </output>
					</split>
					<split pos="right">
						<output> -0.006520356 </output>
					</split>
				</split>
				<split pos="right">
					<feature> 135 </feature>
					<threshold> 65382.0 </threshold>
					<split pos="left">
						<feature> 14 </feature>
						<threshold> 4.0 </threshold>
						<split pos="left">
							<output> 0.39670008 </output>
						</split>
						<split pos="right">
							<output> 0.09449162 </output>
						</split>
					</split>
					<split pos="right">
						<output> 1.3363032 </output>
					</split>
				</split>
			</split>
			<split pos="right">
				<feature> 127 </feature>
				<threshold> 22.105469 </threshold>
				<split pos="left">
					<feature> 110 </feature>
					<threshold> 25.626888 </threshold>
					<split pos="left">
						<feature> 134 </feature>
						<threshold> 52908.69 </threshold>
						<split pos="left">
							<feature> 108 </feature>
							<threshold> 24.456047 </threshold>
							<split pos="left">
								<output> 0.121681966 </output>
							</split>
							<split pos="right">
								<output> 0.9721853 </output>
							</split>
						</split>
						<split pos="right">
							<output> 0.858137 </output>
						</split>
					</split>
					<split pos="right">
						<output> 0.6310756 </output>
					</split>
				</split>
				<split pos="right">
					<output> 0.07224055 </output>
				</split>
			</split>
		</split>
	</tree>
	<tree id="20" weight="0.1">
		<split>
			<feature> 134 </feature>
			<threshold> 52908.69 </threshold>
			<split pos="left">
				<feature> 134 </feature>
				<threshold> 0.0 </threshold>
				<split pos="left">
					<feature> 3 </feature>
					<threshold> 2.0 </threshold>
					<split pos="left">
						<feature> 115 </feature>
						<threshold> -9.011515 </threshold>
						<split pos="left">
							<output> -0.2851986 </output>
						</split>
						<split pos="right">
							<feature> 14 </feature>
							<threshold> 3.0 </threshold>
							<split pos="left">
								<output> 0.24732484 </output>
							</split>
							<split pos="right">
								<output> 3.968222E-4 </output>
							</split>
						</split>
					</split>
					<split pos="right">
						<output> 0.20974334 </output>
					</split>
				</split>
				<split pos="right">
					<feature> 14 </feature>
					<threshold> 4.0 </threshold>
					<split pos="left">
						<feature> 108 </feature>
						<threshold> 25.567686 </threshold>
						<split pos="left">
							<feature> 109 </feature>
							<threshold> 17.203537 </threshold>
							<split pos="left">
								<feature> 129 </feature>
								<threshold> 2.0 </threshold>
								<split pos="left">
									<output> 0.036259327 </output>
								</split>
								<split pos="right">
									<output> 0.35011423 </output>
								</split>
							</split>
							<split pos="right">
								<output> 0.7826732 </output>
							</split>
						</split>
						<split pos="right">
							<output> 0.72658294 </output>
						</split>
					</split>
					<split pos="right">
						<output> 0.05130865 </output>
					</split>
				</split>
			</split>
			<split pos="right">
				<output> 0.74231154 </output>
			</split>
		</split>
	</tree>
	<tree id="21" weight="0.1">
		<split>
			<feature> 134 </feature>
			<threshold> 52908.69 </threshold>
			<split pos="left">
				<feature> 134 </feature>
				<threshold> 0.0 </threshold>
				<split pos="left">
					<feature> 65 </feature>
					<threshold> 0.009386355 </threshold>
					<split pos="left">
						<output> -0.33353126 </output>
					</split>
					<split pos="right">
						<feature> 3 </feature>
						<threshold> 3.0 </threshold>
						<split pos="left">
							<feature> 14 </feature>
							<threshold> 3.0 </threshold>
							<split pos="left">
								<output> 0.3160616 </output>
							</split>
							<split pos="right">
								<feature> 130 </feature>
								<threshold> 49175.5 </threshold>
								<split pos="left">
									<feature> 109 </feature>
									<threshold> 16.921513 </threshold>
									<split pos="left">
										<output> -0.09262251 </output>
									</split>
									<split pos="right">
										<output> 0.20421724 </output>
									</split>
								</split>
								<split pos="right">
									<output> 0.29482552 </output>
								</split>
							</split>
						</split>
						<split pos="right">
							<output> 0.4080077 </output>
						</split>
					</split>
				</split>
				<split pos="right">
					<feature> 127 </feature>
					<threshold> 16.070312 </threshold>
					<split pos="left">
						<output> 0.31598142 </output>
					</split>
					<split pos="right">
						<feature> 3 </feature>
						<threshold> 1.0 </threshold>
						<split pos="left">
							<output> -0.08375601 </output>
						</split>
						<split pos="right">
							<output> 0.20613842 </output>
						</split>
					</split>
				</split>
			</split>
			<split pos="right">
				<output> 0.70988214 </output>
			</split>
		</split>
	</tree>
	<tree id="22" weight="0.1">
		<split>
			<feature> 134 </feature>
			<threshold> 52908.69 </threshold>
			<split pos="left">
				<feature> 134 </feature>
				<threshold> 0.0 </threshold>
				<split pos="left">
					<feature> 65 </feature>
					<threshold> 0.009386355 </threshold>
					<split pos="left">
						<output> -0.32044637 </output>
					</split>
					<split pos="right">
						<feature> 3 </feature>
						<threshold> 3.0 </threshold>
						<split pos="left">
							<feature> 14 </feature>
							<threshold> 4.0 </threshold>
							<split pos="left">
								<output> 0.23219602 </output>
							</split>
							<split pos="right">
								<output> -0.03318865 </output>
							</split>
						</split>
						<split pos="right">
							<output> 0.38413352 </output>
						</split>
					</split>
				</split>
				<split pos="right">
					<feature> 127 </feature>
					<threshold> 16.070312 </threshold>
					<split pos="left">
						<output> 0.28606075 </output>
					</split>
					<split pos="right">
						<feature> 119 </feature>
						<threshold> -33.68347 </threshold>
						<split pos="left">
							<output> 0.5872014 </output>
						</split>
						<split pos="right">
							<feature> 73 </feature>
							<threshold> 9.792187 </threshold>
							<split pos="left">
								<output> -0.1592529 </output>
							</split>
							<split pos="right">
								<feature> 130 </feature>
								<threshold> 55565.54 </threshold>
								<split pos="left">
									<output> 0.04233095 </output>
								</split>
								<split pos="right">
									<output> 0.31166452 </output>
								</split>
							</split>
						</split>
					</split>
				</split>
			</split>
			<split pos="right">
				<output> 0.66757596 </output>
			</split>
		</split>
	</tree>
	<tree id="23" weight="0.1">
		<split>
			<feature> 134 </feature>
			<threshold> 52908.69 </threshold>
			<split pos="left">
				<feature> 134 </feature>
				<threshold> 0.0 </threshold>
				<split pos="left">
					<feature> 109 </feature>
					<threshold> 16.921513 </threshold>
					<split pos="left">
						<feature> 14 </feature>
						<threshold> 4.0 </threshold>
						<split pos="left">
							<feature> 108 </feature>
							<threshold> 24.456047 </threshold>
							<split pos="left">
								<output> 0.1044326 </output>
							</split>
							<split pos="right">
								<output> 0.6245304 </output>
							</split>
						</split>
						<split pos="right">
							<feature> 123 </feature>
							<threshold> -11.151039 </threshold>
							<split pos="left">
								<output> -0.29413784 </output>
							</split>
							<split pos="right">
								<output> -0.032279868 </output>
							</split>
						</split>
					</split>
					<split pos="right">
						<output> 0.28989407 </output>
					</split>
				</split>
				<split pos="right">
					<feature> 64 </feature>
					<threshold> 0.22437932 </threshold>
					<split pos="left">
						<feature> 119 </feature>
						<threshold> -16.590347 </threshold>
						<split pos="left">
							<feature> 130 </feature>
							<threshold> 47130.688 </threshold>
							<split pos="left">
								<output> 0.09619641 </output>
							</split>
							<split pos="right">
								<output> 0.35505193 </output>
							</split>
						</split>
						<split pos="right">
							<output> -0.101557285 </output>
						</split>
					</split>
					<split pos="right">
						<output> 0.3773922 </output>
					</split>
				</split>
			</split>
			<split pos="right">
				<output> 0.62236506 </output>
			</split>
		</split>
	</tree>
	<tree id="24" weight="0.1">
		<split>
			<feature> 134 </feature>
			<threshold> 52908.69 </threshold>
			<split pos="left">
				<feature> 109 </feature>
				<threshold> 17.203537 </threshold>
				<split pos="left">
					<feature> 14 </feature>
					<threshold> 4.0 </threshold>
					<split pos="left">
						<feature> 108 </feature>
						<threshold> 24.456047 </threshold>
						<split pos="left">
							<feature> 86 </feature>
							<threshold> -57.63849 </threshold>
							<split pos="left">
								<output> 1.4588462 </output>
							</split>
							<split pos="right">
								<feature> 3 </feature>
								<threshold> 1.0 </threshold>
								<split pos="left">
									<output> -0.01179621 </output>
								</split>
								<split pos="right">
									<output> 0.22558652 </output>
								</split>
							</split>
						</split>
						<split pos="right">
							<output> 0.5560404 </output>
						</split>
					</split>
					<split pos="right">
						<feature> 22 </feature>
						<threshold> 169.0 </threshold>
						<split pos="left">
							<feature> 22 </feature>
							<threshold> 1.0 </threshold>
							<split pos="left">
								<feature> 74 </feature>
								<threshold> 4.713807 </threshold>
								<split pos="left">
									<output> -0.27288875 </output>
								</split>
								<split pos="right">
									<output> -0.034961745 </output>
								</split>
							</split>
							<split pos="right">
								<output> 0.23758069 </output>
							</split>
						</split>
						<split pos="right">
							<output> -4.165827 </output>
						</split>
					</split>
				</split>
				<split pos="right">
					<output> 0.31372184 </output>
				</split>
			</split>
			<split pos="right">
				<output> 0.5764646 </output>
			</split>
		</split>
	</tree>
	<tree id="25" weight="0.1">
		<split>
			<feature> 134 </feature>
			<threshold> 52908.69 </threshold>
			<split pos="left">
				<feature> 109 </feature>
				<threshold> 17.203537 </threshold>
				<split pos="left">
					<feature> 108 </feature>
					<threshold> 25.567686 </threshold>
					<split pos="left">
						<feature> 60 </feature>
						<threshold> 0.018772712 </threshold>
						<split pos="left">
							<output> -0.25982183 </output>
						</split>
						<split pos="right">
							<feature> 130 </feature>
							<threshold> 64767.195 </threshold>
							<split pos="left">
								<feature> 14 </feature>
								<threshold> 3.0 </threshold>
								<split pos="left">
									<output> 0.22653595 </output>
								</split>
								<split pos="right">
									<feature> 135 </feature>
									<threshold> 10897.0 </threshold>
									<split pos="left">
										<feature> 37 </feature>
										<threshold> 49.5 </threshold>
										<split pos="left">
											<feature> 22 </feature>
											<threshold> 1.0 </threshold>
											<split pos="left">
												<output> -0.05636484 </output>
											</split>
											<split pos="right">
												<output> 0.21417947 </output>
											</split>
										</split>
										<split pos="right">
											<output> -3.1169136 </output>
										</split>
									</split>
									<split pos="right">
										<output> 0.94670504 </output>
									</split>
								</split>
							</split>
							<split pos="right">
								<output> 0.25141728 </output>
							</split>
						</split>
					</split>
					<split pos="right">
						<output> 0.27120814 </output>
					</split>
				</split>
				<split pos="right">
					<output> 0.28452402 </output>
				</split>
			</split>
			<split pos="right">
				<output> 0.53574914 </output>
			</split>
		</split>
	</tree>
	<tree id="26" weight="0.1">
		<split>
			<feature> 49 </feature>
			<threshold> 0.24289778 </threshold>
			<split pos="left">
				<feature> 134 </feature>
				<threshold> 52908.69 </threshold>
				<split pos="left">
					<feature> 3 </feature>
					<threshold> 1.0 </threshold>
					<split pos="left">
						<feature> 135 </feature>
						<threshold> 1732623.0 </threshold>
						<split pos="left">
							<feature> 15 </feature>
							<threshold> 54.9375 </threshold>
							<split pos="left">
								<output> 0.23793676 </output>
							</split>
							<split pos="right">
								<feature> 65 </feature>
								<threshold> 0.0031287852 </threshold>
								<split pos="left">
									<output> -0.5228384 </output>
								</split>
								<split pos="right">
									<feature> 112 </feature>
									<threshold> -1.3221734 </threshold>
									<split pos="left">
										<feature> 134 </feature>
										<threshold> 0.0 </threshold>
										<split pos="left">
											<output> -0.16726857 </output>
										</split>
										<split pos="right">
											<output> -0.0977335 </output>
										</split>
									</split>
									<split pos="right">
										<output> 0.24195805 </output>
									</split>
								</split>
							</split>
						</split>
						<split pos="right">
							<output> 1.1421403 </output>
						</split>
					</split>
					<split pos="right">
						<feature> 14 </feature>
						<threshold> 4.0 </threshold>
						<split pos="left">
							<output> 0.28312188 </output>
						</split>
						<split pos="right">
							<output> 0.0042769546 </output>
						</split>
					</split>
				</split>
				<split pos="right">
					<output> 0.5506084 </output>
				</split>
			</split>
			<split pos="right">
				<output> 0.23992686 </output>
			</split>
		</split>
	</tree>
	<tree id="27" weight="0.1">
		<split>
			<feature> 109 </feature>
			<threshold> 17.767586 </threshold>
			<split pos="left">
				<feature> 135 </feature>
				<threshold> 10897.0 </threshold>
				<split pos="left">
					<feature> 14 </feature>
					<threshold> 4.0 </threshold>
					<split pos="left">
						<feature> 108 </feature>
						<threshold> 24.456047 </threshold>
						<split pos="left">
							<feature> 86 </feature>
							<threshold> -57.63849 </threshold>
							<split pos="left">
								<output> 1.2880125 </output>
							</split>
							<split pos="right">
								<feature> 133 </feature>
								<threshold> 6.0 </threshold>
								<split pos="left">
									<output> 0.23035015 </output>
								</split>
								<split pos="right">
									<feature> 126 </feature>
									<threshold> 1.0 </threshold>
									<split pos="left">
										<output> -0.1127765 </output>
									</split>
									<split pos="right">
										<output> 0.4163539 </output>
									</split>
								</split>
							</split>
						</split>
						<split pos="right">
							<output> 0.45172545 </output>
						</split>
					</split>
					<split pos="right">
						<feature> 22 </feature>
						<threshold> 1.0 </threshold>
						<split pos="left">
							<feature> 74 </feature>
							<threshold> 4.713807 </threshold>
							<split pos="left">
								<output> -0.2599274 </output>
							</split>
							<split pos="right">
								<output> -0.02928754 </output>
							</split>
						</split>
						<split pos="right">
							<output> 0.22692002 </output>
						</split>
					</split>
				</split>
				<split pos="right">
					<output> 0.4612466 </output>
				</split>
			</split>
			<split pos="right">
				<output> 0.26416445 </output>
			</split>
		</split>
	</tree>
	<tree id="28" weight="0.1">
		<split>
			<feature> 49 </feature>
			<threshold> 0.24289778 </threshold>
			<split pos="left">
				<feature> 3 </feature>
				<threshold> 1.0 </threshold>
				<split pos="left">
					<feature> 135 </feature>
					<threshold> 1732623.0 </threshold>
					<split pos="left">
						<feature> 15 </feature>
						<threshold> 2331.25 </threshold>
						<split pos="left">
							<feature> 134 </feature>
							<threshold> 0.0 </threshold>
							<split pos="left">
								<output> -0.12316673 </output>
							</split>
							<split pos="right">
								<output> -0.09017859 </output>
							</split>
						</split>
						<split pos="right">
							<output> -0.7371985 </output>
						</split>
					</split>
					<split pos="right">
						<output> 1.1169554 </output>
					</split>
				</split>
				<split pos="right">
					<feature> 135 </feature>
					<threshold> 10897.0 </threshold>
					<split pos="left">
						<feature> 14 </feature>
						<threshold> 4.0 </threshold>
						<split pos="left">
							<feature> 90 </feature>
							<threshold> -59.15496 </threshold>
							<split pos="left">
								<output> 1.3118309 </output>
							</split>
							<split pos="right">
								<output> 0.2429978 </output>
							</split>
						</split>
						<split pos="right">
							<output> 0.006539822 </output>
						</split>
					</split>
					<split pos="right">
						<output> 0.71508944 </output>
					</split>
				</split>
			</split>
			<split pos="right">
				<feature> 130 </feature>
				<threshold> 55054.336 </threshold>
				<split pos="left">
					<output> 0.12585248 </output>
				</split>
				<split pos="right">
					<output> 0.4258088 </output>
				</split>
			</split>
		</split>
	</tree>
	<tree id="29" weight="0.1">
		<split>
			<feature> 109 </feature>
			<threshold> 18.04961 </threshold>
			<split pos="left">
				<feature> 134 </feature>
				<threshold> 52908.69 </threshold>
				<split pos="left">
					<feature> 130 </feature>
					<threshold> 57099.15 </threshold>
					<split pos="left">
						<feature> 60 </feature>
						<threshold> 0.015643926 </threshold>
						<split pos="left">
							<output> -0.27698043 </output>
						</split>
						<split pos="right">
							<feature> 14 </feature>
							<threshold> 3.0 </threshold>
							<split pos="left">
								<output> 0.22115137 </output>
							</split>
							<split pos="right">
								<feature> 112 </feature>
								<threshold> -1.3221734 </threshold>
								<split pos="left">
									<feature> 2 </feature>
									<threshold> 1.0 </threshold>
									<split pos="left">
										<feature> 134 </feature>
										<threshold> 0.0 </threshold>
										<split pos="left">
											<output> -0.061140276 </output>
										</split>
										<split pos="right">
											<output> -0.087210745 </output>
										</split>
									</split>
									<split pos="right">
										<output> 0.20719568 </output>
									</split>
								</split>
								<split pos="right">
									<output> 0.3359912 </output>
								</split>
							</split>
						</split>
					</split>
					<split pos="right">
						<feature> 108 </feature>
						<threshold> 25.567686 </threshold>
						<split pos="left">
							<output> 0.11978059 </output>
						</split>
						<split pos="right">
							<output> 0.7165884 </output>
						</split>
					</split>
				</split>
				<split pos="right">
					<output> 0.39809424 </output>
				</split>
			</split>
			<split pos="right">
				<output> 0.23224023 </output>
			</split>
		</split>
	</tree>
	<tree id="30" weight="0.1">
		<split>
			<feature> 130 </feature>
			<threshold> 56076.742 </threshold>
			<split pos="left">
				<feature> 3 </feature>
				<threshold> 3.0 </threshold>
				<split pos="left">
					<feature> 129 </feature>
					<threshold> 5.0 </threshold>
					<split pos="left">
						<feature> 134 </feature>
						<threshold> 0.0 </threshold>
						<split pos="left">
							<feature> 11 </feature>
							<threshold> 1216.4844 </threshold>
							<split pos="left">
								<output> -0.06680625 </output>
							</split>
							<split pos="right">
								<output> -0.41041043 </output>
							</split>
						</split>
						<split pos="right">
							<output> -0.10901845 </output>
						</split>
					</split>
					<split pos="right">
						<output> 0.1356357 </output>
					</split>
				</split>
				<split pos="right">
					<output> 0.31956518 </output>
				</split>
			</split>
			<split pos="right">
				<feature> 109 </feature>
				<threshold> 18.613659 </threshold>
				<split pos="left">
					<feature> 108 </feature>
					<threshold> 25.567686 </threshold>
					<split pos="left">
						<feature> 134 </feature>
						<threshold> 52908.69 </threshold>
						<split pos="left">
							<feature> 108 </feature>
							<threshold> 14.451298 </threshold>
							<split pos="left">
								<output> 0.038021848 </output>
							</split>
							<split pos="right">
								<output> 0.29379869 </output>
							</split>
						</split>
						<split pos="right">
							<output> 0.4283304 </output>
						</split>
					</split>
					<split pos="right">
						<output> 0.5979769 </output>
					</split>
				</split>
				<split pos="right">
					<output> 0.8428693 </output>
				</split>
			</split>
		</split>
	</tree>
	<tree id="31" weight="0.1">
		<split>
			<feature> 109 </feature>
			<threshold> 18.331635 </threshold>
			<split pos="left">
				<feature> 14 </feature>
				<threshold> 4.0 </threshold>
				<split pos="left">
					<feature> 108 </feature>
					<threshold> 24.456047 </threshold>
					<split pos="left">
						<feature> 86 </feature>
						<threshold> -57.63849 </threshold>
						<split pos="left">
							<output> 1.2019699 </output>
						</split>
						<split pos="right">
							<feature> 134 </feature>
							<threshold> 52908.69 </threshold>
							<split pos="left">
								<feature> 126 </feature>
								<threshold> 1.0 </threshold>
								<split pos="left">
									<feature> 129 </feature>
									<threshold> 0.0 </threshold>
									<split pos="left">
										<output> -0.10584788 </output>
									</split>
									<split pos="right">
										<output> 0.13743816 </output>
									</split>
								</split>
								<split pos="right">
									<output> 0.4659174 </output>
								</split>
							</split>
							<split pos="right">
								<output> 0.5206821 </output>
							</split>
						</split>
					</split>
					<split pos="right">
						<output> 0.4033264 </output>
					</split>
				</split>
				<split pos="right">
					<feature> 72 </feature>
					<threshold> 17.873957 </threshold>
					<split pos="left">
						<feature> 74 </feature>
						<threshold> 4.713807 </threshold>
						<split pos="left">
							<output> -0.21598658 </output>
						</split>
						<split pos="right">
							<output> -0.0015951502 </output>
						</split>
					</split>
					<split pos="right">
						<output> 0.24030909 </output>
					</split>
				</split>
			</split>
			<split pos="right">
				<output> 0.21853366 </output>
			</split>
		</split>
	</tree>
	<tree id="32" weight="0.1">
		<split>
			<feature> 3 </feature>
			<threshold> 3.0 </threshold>
			<split pos="left">
				<feature> 130 </feature>
				<threshold> 54543.133 </threshold>
				<split pos="left">
					<feature> 107 </feature>
					<threshold> 16.13231 </threshold>
					<split pos="left">
						<feature> 14 </feature>
						<threshold> 3.0 </threshold>
						<split pos="left">
							<output> 0.16915056 </output>
						</split>
						<split pos="right">
							<feature> 129 </feature>
							<threshold> 5.0 </threshold>
							<split pos="left">
								<feature> 134 </feature>
								<threshold> 0.0 </threshold>
								<split pos="left">
									<output> -0.13873042 </output>
								</split>
								<split pos="right">
									<output> -0.1647525 </output>
								</split>
							</split>
							<split pos="right">
								<output> 0.08902441 </output>
							</split>
						</split>
					</split>
					<split pos="right">
						<output> 0.2444919 </output>
					</split>
				</split>
				<split pos="right">
					<feature> 109 </feature>
					<threshold> 20.02378 </threshold>
					<split pos="left">
						<feature> 108 </feature>
						<threshold> 21.12113 </threshold>
						<split pos="left">
							<feature> 64 </feature>
							<threshold> 0.23161735 </threshold>
							<split pos="left">
								<output> 0.049172215 </output>
							</split>
							<split pos="right">
								<output> 0.35105953 </output>
							</split>
						</split>
						<split pos="right">
							<output> 0.43995124 </output>
						</split>
					</split>
					<split pos="right">
						<output> 0.84800696 </output>
					</split>
				</split>
			</split>
			<split pos="right">
				<output> 0.32665992 </output>
			</split>
		</split>
	</tree>
	<tree id="33" weight="0.1">
		<split>
			<feature> 109 </feature>
			<threshold> 18.331635 </threshold>
			<split pos="left">
				<feature> 3 </feature>
				<threshold> 1.0 </threshold>
				<split pos="left">
					<feature> 134 </feature>
					<threshold> 0.0 </threshold>
					<split pos="left">
						<feature> 115 </feature>
						<threshold> -27.78592 </threshold>
						<split pos="left">
							<output> -0.60317594 </output>
						</split>
						<split pos="right">
							<feature> 1 </feature>
							<threshold> 1.0 </threshold>
							<split pos="left">
								<output> 0.03371873 </output>
							</split>
							<split pos="right">
								<output> -0.24803318 </output>
							</split>
						</split>
					</split>
					<split pos="right">
						<feature> 111 </feature>
						<threshold> -39.187378 </threshold>
						<split pos="left">
							<output> 1.315425 </output>
						</split>
						<split pos="right">
							<output> -0.10488183 </output>
						</split>
					</split>
				</split>
				<split pos="right">
					<feature> 130 </feature>
					<threshold> 60421.97 </threshold>
					<split pos="left">
						<feature> 14 </feature>
						<threshold> 3.0 </threshold>
						<split pos="left">
							<output> 0.26456907 </output>
						</split>
						<split pos="right">
							<feature> 130 </feature>
							<threshold> 12113.273 </threshold>
							<split pos="left">
								<output> -0.04540346 </output>
							</split>
							<split pos="right">
								<output> 0.14371966 </output>
							</split>
						</split>
					</split>
					<split pos="right">
						<output> 0.3390088 </output>
					</split>
				</split>
			</split>
			<split pos="right">
				<output> 0.19850872 </output>
			</split>
		</split>
	</tree>
	<tree id="34" weight="0.1">
		<split>
			<feature> 109 </feature>
			<threshold> 21.715927 </threshold>
			<split pos="left">
				<feature> 135 </feature>
				<threshold> 10897.0 </threshold>
				<split pos="left">
					<feature> 14 </feature>
					<threshold> 4.0 </threshold>
					<split pos="left">
						<feature> 86 </feature>
						<threshold> -57.63849 </threshold>
						<split pos="left">
							<output> 1.1451911 </output>
						</split>
						<split pos="right">
							<feature> 108 </feature>
							<threshold> 26.679325 </threshold>
							<split pos="left">
								<feature> 110 </feature>
								<threshold> 20.158375 </threshold>
								<split pos="left">
									<feature> 134 </feature>
									<threshold> 0.0 </threshold>
									<split pos="left">
										<output> 0.038250465 </output>
									</split>
									<split pos="right">
										<output> -0.10691407 </output>
									</split>
								</split>
								<split pos="right">
									<output> 0.20886078 </output>
								</split>
							</split>
							<split pos="right">
								<output> 0.42790774 </output>
							</split>
						</split>
					</split>
					<split pos="right">
						<feature> 22 </feature>
						<threshold> 1.0 </threshold>
						<split pos="left">
							<feature> 134 </feature>
							<threshold> 0.0 </threshold>
							<split pos="left">
								<output> -0.11504716 </output>
							</split>
							<split pos="right">
								<output> -0.1090006 </output>
							</split>
						</split>
						<split pos="right">
							<output> 0.18266848 </output>
						</split>
					</split>
				</split>
				<split pos="right">
					<output> 0.36612624 </output>
				</split>
			</split>
			<split pos="right">
				<output> 0.26129398 </output>
			</split>
		</split>
	</tree>
	<tree id="35" weight="0.1">
		<split>
			<feature> 3 </feature>
			<threshold> 3.0 </threshold>
			<split pos="left">
				<feature> 55 </feature>
				<threshold> 0.0062575703 </threshold>
				<split pos="left">
					<feature> 15 </feature>
					<threshold> 54.9375 </threshold>
					<split pos="left">
						<output> 0.40306702 </output>
					</split>
					<split pos="right">
						<feature> 135 </feature>
						<threshold> 1427507.0 </threshold>
						<split pos="left">
							<feature> 123 </feature>
							<threshold> -9.668865 </threshold>
							<split pos="left">
								<output> -0.23907673 </output>
							</split>
							<split pos="right">
								<output> -0.00629397 </output>
							</split>
						</split>
						<split pos="right">
							<output> 1.0888077 </output>
						</split>
					</split>
				</split>
				<split pos="right">
					<feature> 135 </feature>
					<threshold> 10897.0 </threshold>
					<split pos="left">
						<feature> 133 </feature>
						<threshold> 10.0 </threshold>
						<split pos="left">
							<feature> 127 </feature>
							<threshold> 16.070312 </threshold>
							<split pos="left">
								<output> 0.35031682 </output>
							</split>
							<split pos="right">
								<feature> 72 </feature>
								<threshold> 17.873957 </threshold>
								<split pos="left">
									<output> 0.09150519 </output>
								</split>
								<split pos="right">
									<output> 0.41714773 </output>
								</split>
							</split>
						</split>
						<split pos="right">
							<output> -0.07675924 </output>
						</split>
					</split>
					<split pos="right">
						<output> 0.5272149 </output>
					</split>
				</split>
			</split>
			<split pos="right">
				<output> 0.29662845 </output>
			</split>
		</split>
	</tree>
	<tree id="36" weight="0.1">
		<split>
			<feature> 107 </feature>
			<threshold> 12.675388 </threshold>
			<split pos="left">
				<feature> 14 </feature>
				<threshold> 4.0 </threshold>
				<split pos="left">
					<feature> 90 </feature>
					<threshold> -59.15496 </threshold>
					<split pos="left">
						<output> 1.094727 </output>
					</split>
					<split pos="right">
						<feature> 108 </feature>
						<threshold> 34.460793 </threshold>
						<split pos="left">
							<feature> 84 </feature>
							<threshold> 11.923712 </threshold>
							<split pos="left">
								<feature> 134 </feature>
								<threshold> 52908.69 </threshold>
								<split pos="left">
									<feature> 108 </feature>
									<threshold> 22.232769 </threshold>
									<split pos="left">
										<feature> 126 </feature>
										<threshold> 1.0 </threshold>
										<split pos="left">
											<output> -0.016556118 </output>
										</split>
										<split pos="right">
											<output> 0.3970773 </output>
										</split>
									</split>
									<split pos="right">
										<output> 0.23085909 </output>
									</split>
								</split>
								<split pos="right">
									<output> 0.45902392 </output>
								</split>
							</split>
							<split pos="right">
								<output> 0.48812202 </output>
							</split>
						</split>
						<split pos="right">
							<output> 0.79689765 </output>
						</split>
					</split>
				</split>
				<split pos="right">
					<feature> 74 </feature>
					<threshold> 4.713807 </threshold>
					<split pos="left">
						<output> -0.19169147 </output>
					</split>
					<split pos="right">
						<output> 0.017649703 </output>
					</split>
				</split>
			</split>
			<split pos="right">
				<output> 0.20348041 </output>
			</split>
		</split>
	</tree>
	<tree id="37" weight="0.1">
		<split>
			<feature> 22 </feature>
			<threshold> 2.0 </threshold>
			<split pos="left">
				<feature> 14 </feature>
				<threshold> 4.0 </threshold>
				<split pos="left">
					<feature> 90 </feature>
					<threshold> -59.15496 </threshold>
					<split pos="left">
						<output> 1.0339946 </output>
					</split>
					<split pos="right">
						<feature> 108 </feature>
						<threshold> 34.460793 </threshold>
						<split pos="left">
							<feature> 84 </feature>
							<threshold> 11.923712 </threshold>
							<split pos="left">
								<feature> 133 </feature>
								<threshold> 7.0 </threshold>
								<split pos="left">
									<feature> 108 </feature>
									<threshold> 24.456047 </threshold>
									<split pos="left">
										<output> 0.15675272 </output>
									</split>
									<split pos="right">
										<output> 0.6206695 </output>
									</split>
								</split>
								<split pos="right">
									<output> -0.045294274 </output>
								</split>
							</split>
							<split pos="right">
								<output> 0.44473937 </output>
							</split>
						</split>
						<split pos="right">
							<output> 0.7266518 </output>
						</split>
					</split>
				</split>
				<split pos="right">
					<feature> 129 </feature>
					<threshold> 10.0 </threshold>
					<split pos="left">
						<feature> 134 </feature>
						<threshold> 0.0 </threshold>
						<split pos="left">
							<output> -0.10578401 </output>
						</split>
						<split pos="right">
							<output> -0.10139975 </output>
						</split>
					</split>
					<split pos="right">
						<output> 0.1584499 </output>
					</split>
				</split>
			</split>
			<split pos="right">
				<output> 0.23886056 </output>
			</split>
		</split>
	</tree>
	<tree id="38" weight="0.1">
		<split>
			<feature> 3 </feature>
			<threshold> 3.0 </threshold>
			<split pos="left">
				<feature> 130 </feature>
				<threshold> 50964.71 </threshold>
				<split pos="left">
					<feature> 47 </feature>
					<threshold> 0.703125 </threshold>
					<split pos="left">
						<feature> 134 </feature>
						<threshold> 0.0 </threshold>
						<split pos="left">
							<feature> 115 </feature>
							<threshold> -27.034943 </threshold>
							<split pos="left">
								<output> -0.42844987 </output>
							</split>
							<split pos="right">
								<feature> 129 </feature>
								<threshold> 16.0 </threshold>
								<split pos="left">
									<output> -0.06293762 </output>
								</split>
								<split pos="right">
									<output> 0.25668922 </output>
								</split>
							</split>
						</split>
						<split pos="right">
							<output> -0.09512037 </output>
						</split>
					</split>
					<split pos="right">
						<output> 0.24144532 </output>
					</split>
				</split>
				<split pos="right">
					<feature> 109 </feature>
					<threshold> 20.02378 </threshold>
					<split pos="left">
						<feature> 108 </feature>
						<threshold> 21.12113 </threshold>
						<split pos="left">
							<feature> 64 </feature>
							<threshold> 0.23161735 </threshold>
							<split pos="left">
								<output> 0.040001627 </output>
							</split>
							<split pos="right">
								<output> 0.2786751 </output>
							</split>
						</split>
						<split pos="right">
							<output> 0.36037022 </output>
						</split>
					</split>
					<split pos="right">
						<output> 0.741987 </output>
					</split>
				</split>
			</split>
			<split pos="right">
				<output> 0.2739998 </output>
			</split>
		</split>
	</tree>
	<tree id="39" weight="0.1">
		<split>
			<feature> 55 </feature>
			<threshold> 0.0062575703 </threshold>
			<split pos="left">
				<feature> 11 </feature>
				<threshold> 105.78125 </threshold>
				<split pos="left">
					<output> 0.26319793 </output>
				</split>
				<split pos="right">
					<feature> 135 </feature>
					<threshold> 1427507.0 </threshold>
					<split pos="left">
						<feature> 63 </feature>
						<threshold> 0.01953125 </threshold>
						<split pos="left">
							<output> -0.34698933 </output>
						</split>
						<split pos="right">
							<output> -0.044546925 </output>
						</split>
					</split>
					<split pos="right">
						<output> 1.072372 </output>
					</split>
				</split>
			</split>
			<split pos="right">
				<feature> 135 </feature>
				<threshold> 10897.0 </threshold>
				<split pos="left">
					<feature> 129 </feature>
					<threshold> 9.0 </threshold>
					<split pos="left">
						<feature> 134 </feature>
						<threshold> 105817.38 </threshold>
						<split pos="left">
							<feature> 130 </feature>
							<threshold> 64511.594 </threshold>
							<split pos="left">
								<feature> 119 </feature>
								<threshold> -21.617737 </threshold>
								<split pos="left">
									<output> 0.12924533 </output>
								</split>
								<split pos="right">
									<output> -0.049317032 </output>
								</split>
							</split>
							<split pos="right">
								<output> 0.2348575 </output>
							</split>
						</split>
						<split pos="right">
							<output> -1.933925 </output>
						</split>
					</split>
					<split pos="right">
						<output> 0.31872886 </output>
					</split>
				</split>
				<split pos="right">
					<output> 0.48275876 </output>
				</split>
			</split>
		</split>
	</tree>
	<tree id="40" weight="0.1">
		<split>
			<feature> 133 </feature>
			<threshold> 11.0 </threshold>
			<split pos="left">
				<feature> 109 </feature>
				<threshold> 17.203537 </threshold>
				<split pos="left">
					<feature> 14 </feature>
					<threshold> 4.0 </threshold>
					<split pos="left">
						<feature> 86 </feature>
						<threshold> -57.63849 </threshold>
						<split pos="left">
							<output> 1.0628412 </output>
						</split>
						<split pos="right">
							<feature> 108 </feature>
							<threshold> 22.232769 </threshold>
							<split pos="left">
								<feature> 134 </feature>
								<threshold> 52908.69 </threshold>
								<split pos="left">
									<feature> 52 </feature>
									<threshold> 0.66796875 </threshold>
									<split pos="left">
										<feature> 73 </feature>
										<threshold> 9.792187 </threshold>
										<split pos="left">
											<output> -0.03511559 </output>
										</split>
										<split pos="right">
											<output> 0.2225156 </output>
										</split>
									</split>
									<split pos="right">
										<output> -4.9790955 </output>
									</split>
								</split>
								<split pos="right">
									<output> 0.5843054 </output>
								</split>
							</split>
							<split pos="right">
								<output> 0.47851238 </output>
							</split>
						</split>
					</split>
					<split pos="right">
						<output> -0.017064651 </output>
					</split>
				</split>
				<split pos="right">
					<output> 0.29853016 </output>
				</split>
			</split>
			<split pos="right">
				<feature> 134 </feature>
				<threshold> 0.0 </threshold>
				<split pos="left">
					<output> -0.097835906 </output>
				</split>
				<split pos="right">
					<output> -0.13983577 </output>
				</split>
			</split>
		</split>
	</tree>
	<tree id="41" weight="0.1">
		<split>
			<feature> 3 </feature>
			<threshold> 3.0 </threshold>
			<split pos="left">
				<feature> 130 </feature>
				<threshold> 46875.086 </threshold>
				<split pos="left">
					<feature> 47 </feature>
					<threshold> 0.515625 </threshold>
					<split pos="left">
						<feature> 134 </feature>
						<threshold> 0.0 </threshold>
						<split pos="left">
							<feature> 123 </feature>
							<threshold> -8.186691 </threshold>
							<split pos="left">
								<output> -0.17301877 </output>
							</split>
							<split pos="right">
								<output> 0.009696722 </output>
							</split>
						</split>
						<split pos="right">
							<output> -0.0984053 </output>
						</split>
					</split>
					<split pos="right">
						<output> 0.18278585 </output>
					</split>
				</split>
				<split pos="right">
					<feature> 109 </feature>
					<threshold> 18.613659 </threshold>
					<split pos="left">
						<feature> 108 </feature>
						<threshold> 20.009491 </threshold>
						<split pos="left">
							<feature> 109 </feature>
							<threshold> 14.947339 </threshold>
							<split pos="left">
								<feature> 37 </feature>
								<threshold> 53.5 </threshold>
								<split pos="left">
									<output> 0.019115767 </output>
								</split>
								<split pos="right">
									<output> 1.1524678 </output>
								</split>
							</split>
							<split pos="right">
								<output> 0.390263 </output>
							</split>
						</split>
						<split pos="right">
							<output> 0.31333733 </output>
						</split>
					</split>
					<split pos="right">
						<output> 0.6090603 </output>
					</split>
				</split>
			</split>
			<split pos="right">
				<output> 0.25708932 </output>
			</split>
		</split>
	</tree>
	<tree id="42" weight="0.1">
		<split>
			<feature> 129 </feature>
			<threshold> 9.0 </threshold>
			<split pos="left">
				<feature> 11 </feature>
				<threshold> 687.5781 </threshold>
				<split pos="left">
					<feature> 86 </feature>
					<threshold> -57.63849 </threshold>
					<split pos="left">
						<output> 1.0257603 </output>
					</split>
					<split pos="right">
						<feature> 130 </feature>
						<threshold> 42529.86 </threshold>
						<split pos="left">
							<feature> 134 </feature>
							<threshold> 0.0 </threshold>
							<split pos="left">
								<feature> 127 </feature>
								<threshold> 28.140625 </threshold>
								<split pos="left">
									<output> 0.07718294 </output>
								</split>
								<split pos="right">
									<output> -0.07760283 </output>
								</split>
							</split>
							<split pos="right">
								<output> -0.09893753 </output>
							</split>
						</split>
						<split pos="right">
							<feature> 108 </feature>
							<threshold> 20.009491 </threshold>
							<split pos="left">
								<feature> 109 </feature>
								<threshold> 22.279976 </threshold>
								<split pos="left">
									<feature> 54 </feature>
									<threshold> 0.3 </threshold>
									<split pos="left">
										<output> 0.074299686 </output>
									</split>
									<split pos="right">
										<output> 0.93169314 </output>
									</split>
								</split>
								<split pos="right">
									<output> 0.95973045 </output>
								</split>
							</split>
							<split pos="right">
								<output> 0.3980466 </output>
							</split>
						</split>
					</split>
				</split>
				<split pos="right">
					<output> -0.17991088 </output>
				</split>
			</split>
			<split pos="right">
				<output> 0.1796711 </output>
			</split>
		</split>
	</tree>
	<tree id="43" weight="0.1">
		<split>
			<feature> 55 </feature>
			<threshold> 0.0062575703 </threshold>
			<split pos="left">
				<feature> 15 </feature>
				<threshold> 54.9375 </threshold>
				<split pos="left">
					<output> 0.30270347 </output>
				</split>
				<split pos="right">
					<feature> 123 </feature>
					<threshold> -9.668865 </threshold>
					<split pos="left">
						<feature> 65 </feature>
						<threshold> 0.0031287852 </threshold>
						<split pos="left">
							<output> -0.64569765 </output>
						</split>
						<split pos="right">
							<output> -0.11499953 </output>
						</split>
					</split>
					<split pos="right">
						<output> 0.020234946 </output>
					</split>
				</split>
			</split>
			<split pos="right">
				<feature> 135 </feature>
				<threshold> 10897.0 </threshold>
				<split pos="left">
					<feature> 129 </feature>
					<threshold> 2.0 </threshold>
					<split pos="left">
						<feature> 134 </feature>
						<threshold> 0.0 </threshold>
						<split pos="left">
							<output> 0.022627955 </output>
						</split>
						<split pos="right">
							<feature> 106 </feature>
							<threshold> 14.745589 </threshold>
							<split pos="left">
								<output> -0.34872583 </output>
							</split>
							<split pos="right">
								<output> -0.007849968 </output>
							</split>
						</split>
					</split>
					<split pos="right">
						<feature> 126 </feature>
						<threshold> 1.0 </threshold>
						<split pos="left">
							<output> 0.40707076 </output>
						</split>
						<split pos="right">
							<output> 0.13214791 </output>
						</split>
					</split>
				</split>
				<split pos="right">
					<output> 0.42135373 </output>
				</split>
			</split>
		</split>
	</tree>
	<tree id="44" weight="0.1">
		<split>
			<feature> 133 </feature>
			<threshold> 11.0 </threshold>
			<split pos="left">
				<feature> 109 </feature>
				<threshold> 20.869854 </threshold>
				<split pos="left">
					<feature> 14 </feature>
					<threshold> 4.0 </threshold>
					<split pos="left">
						<feature> 48 </feature>
						<threshold> 0.7236328 </threshold>
						<split pos="left">
							<feature> 110 </feature>
							<threshold> 22.892632 </threshold>
							<split pos="left">
								<feature> 134 </feature>
								<threshold> 52908.69 </threshold>
								<split pos="left">
									<feature> 126 </feature>
									<threshold> 1.0 </threshold>
									<split pos="left">
										<output> -0.04501499 </output>
									</split>
									<split pos="right">
										<output> 0.41611058 </output>
									</split>
								</split>
								<split pos="right">
									<output> 0.5418588 </output>
								</split>
							</split>
							<split pos="right">
								<output> 0.31032124 </output>
							</split>
						</split>
						<split pos="right">
							<output> 0.52659124 </output>
						</split>
					</split>
					<split pos="right">
						<feature> 107 </feature>
						<threshold> 12.675388 </threshold>
						<split pos="left">
							<output> -0.040007092 </output>
						</split>
						<split pos="right">
							<output> 0.26749465 </output>
						</split>
					</split>
				</split>
				<split pos="right">
					<output> 0.35931373 </output>
				</split>
			</split>
			<split pos="right">
				<feature> 134 </feature>
				<threshold> 0.0 </threshold>
				<split pos="left">
					<output> -0.093044646 </output>
				</split>
				<split pos="right">
					<output> -0.13371408 </output>
				</split>
			</split>
		</split>
	</tree>
	<tree id="45" weight="0.1">
		<split>
			<feature> 130 </feature>
			<threshold> 23359.742 </threshold>
			<split pos="left">
				<feature> 47 </feature>
				<threshold> 0.57421875 </threshold>
				<split pos="left">
					<feature> 134 </feature>
					<threshold> 0.0 </threshold>
					<split pos="left">
						<feature> 125 </feature>
						<threshold> -32.225952 </threshold>
						<split pos="left">
							<output> -0.47072288 </output>
						</split>
						<split pos="right">
							<feature> 129 </feature>
							<threshold> 16.0 </threshold>
							<split pos="left">
								<output> -0.076611035 </output>
							</split>
							<split pos="right">
								<output> 0.20342837 </output>
							</split>
						</split>
					</split>
					<split pos="right">
						<output> -0.11139063 </output>
					</split>
				</split>
				<split pos="right">
					<output> 0.18861076 </output>
				</split>
			</split>
			<split pos="right">
				<feature> 109 </feature>
				<threshold> 18.613659 </threshold>
				<split pos="left">
					<feature> 108 </feature>
					<threshold> 26.679325 </threshold>
					<split pos="left">
						<feature> 22 </feature>
						<threshold> 169.0 </threshold>
						<split pos="left">
							<feature> 3 </feature>
							<threshold> 1.0 </threshold>
							<split pos="left">
								<output> -0.022567544 </output>
							</split>
							<split pos="right">
								<output> 0.15267286 </output>
							</split>
						</split>
						<split pos="right">
							<output> -3.151539 </output>
						</split>
					</split>
					<split pos="right">
						<output> 0.45090047 </output>
					</split>
				</split>
				<split pos="right">
					<output> 0.4588233 </output>
				</split>
			</split>
		</split>
	</tree>
	<tree id="46" weight="0.1">
		<split>
			<feature> 55 </feature>
			<threshold> 0.0062575703 </threshold>
			<split pos="left">
				<feature> 11 </feature>
				<threshold> 105.78125 </threshold>
				<split pos="left">
					<output> 0.19832891 </output>
				</split>
				<split pos="right">
					<feature> 135 </feature>
					<threshold> 1427507.0 </threshold>
					<split pos="left">
						<feature> 134 </feature>
						<threshold> 52908.69 </threshold>
						<split pos="left">
							<feature> 123 </feature>
							<threshold> -9.668865 </threshold>
							<split pos="left">
								<output> -0.19754387 </output>
							</split>
							<split pos="right">
								<output> 0.014670563 </output>
							</split>
						</split>
						<split pos="right">
							<output> 0.6354932 </output>
						</split>
					</split>
					<split pos="right">
						<output> 1.0541035 </output>
					</split>
				</split>
			</split>
			<split pos="right">
				<feature> 135 </feature>
				<threshold> 10897.0 </threshold>
				<split pos="left">
					<feature> 133 </feature>
					<threshold> 5.0 </threshold>
					<split pos="left">
						<feature> 127 </feature>
						<threshold> 16.070312 </threshold>
						<split pos="left">
							<output> 0.36510107 </output>
						</split>
						<split pos="right">
							<output> 0.15342183 </output>
						</split>
					</split>
					<split pos="right">
						<feature> 134 </feature>
						<threshold> 0.0 </threshold>
						<split pos="left">
							<output> 0.013657294 </output>
						</split>
						<split pos="right">
							<output> -0.09774219 </output>
						</split>
					</split>
				</split>
				<split pos="right">
					<output> 0.3940952 </output>
				</split>
			</split>
		</split>
	</tree>
	<tree id="47" weight="0.1">
		<split>
			<feature> 22 </feature>
			<threshold> 4.0 </threshold>
			<split pos="left">
				<feature> 127 </feature>
				<threshold> 28.140625 </threshold>
				<split pos="left">
					<feature> 108 </feature>
					<threshold> 34.460793 </threshold>
					<split pos="left">
						<feature> 129 </feature>
						<threshold> 0.0 </threshold>
						<split pos="left">
							<feature> 86 </feature>
							<threshold> -57.63849 </threshold>
							<split pos="left">
								<output> 0.837919 </output>
							</split>
							<split pos="right">
								<feature> 134 </feature>
								<threshold> 0.0 </threshold>
								<split pos="left">
									<output> -0.0060425014 </output>
								</split>
								<split pos="right">
									<output> -0.09865168 </output>
								</split>
							</split>
						</split>
						<split pos="right">
							<feature> 109 </feature>
							<threshold> 17.203537 </threshold>
							<split pos="left">
								<feature> 108 </feature>
								<threshold> 10.0047455 </threshold>
								<split pos="left">
									<output> 0.021275096 </output>
								</split>
								<split pos="right">
									<output> 0.24588227 </output>
								</split>
							</split>
							<split pos="right">
								<output> 0.589862 </output>
							</split>
						</split>
					</split>
					<split pos="right">
						<output> 0.65954363 </output>
					</split>
				</split>
				<split pos="right">
					<feature> 134 </feature>
					<threshold> 0.0 </threshold>
					<split pos="left">
						<output> -0.051503945 </output>
					</split>
					<split pos="right">
						<output> -0.11314787 </output>
					</split>
				</split>
			</split>
			<split pos="right">
				<output> 0.29906225 </output>
			</split>
		</split>
	</tree>
	<tree id="48" weight="0.1">
		<split>
			<feature> 27 </feature>
			<threshold> 56.0 </threshold>
			<split pos="left">
				<feature> 2 </feature>
				<threshold> 2.0 </threshold>
				<split pos="left">
					<feature> 127 </feature>
					<threshold> 28.140625 </threshold>
					<split pos="left">
						<feature> 129 </feature>
						<threshold> 2.0 </threshold>
						<split pos="left">
							<feature> 108 </feature>
							<threshold> 34.460793 </threshold>
							<split pos="left">
								<feature> 86 </feature>
								<threshold> -57.63849 </threshold>
								<split pos="left">
									<output> 0.75747675 </output>
								</split>
								<split pos="right">
									<feature> 115 </feature>
									<threshold> -2.2527342 </threshold>
									<split pos="left">
										<feature> 11 </feature>
										<threshold> 52.890625 </threshold>
										<split pos="left">
											<output> 0.30084 </output>
										</split>
										<split pos="right">
											<output> -0.02662039 </output>
										</split>
									</split>
									<split pos="right">
										<output> -0.37561613 </output>
									</split>
								</split>
							</split>
							<split pos="right">
								<output> 0.52819693 </output>
							</split>
						</split>
						<split pos="right">
							<output> 0.23665254 </output>
						</split>
					</split>
					<split pos="right">
						<feature> 134 </feature>
						<threshold> 0.0 </threshold>
						<split pos="left">
							<output> -0.051673096 </output>
						</split>
						<split pos="right">
							<output> -0.10085691 </output>
						</split>
					</split>
				</split>
				<split pos="right">
					<output> 0.24641678 </output>
				</split>
			</split>
			<split pos="right">
				<output> 1.1869589 </output>
			</split>
		</split>
	</tree>
	<tree id="49" weight="0.1">
		<split>
			<feature> 49 </feature>
			<threshold> 0.15980117 </threshold>
			<split pos="left">
				<feature> 3 </feature>
				<threshold> 1.0 </threshold>
				<split pos="left">
					<feature> 134 </feature>
					<threshold> 0.0 </threshold>
					<split pos="left">
						<feature> 115 </feature>
						<threshold> -30.789825 </threshold>
						<split pos="left">
							<output> -0.6313353 </output>
						</split>
						<split pos="right">
							<output> -0.083316095 </output>
						</split>
					</split>
					<split pos="right">
						<output> -0.12956347 </output>
					</split>
				</split>
				<split pos="right">
					<feature> 130 </feature>
					<threshold> 60421.97 </threshold>
					<split pos="left">
						<feature> 14 </feature>
						<threshold> 3.0 </threshold>
						<split pos="left">
							<output> 0.18650264 </output>
						</split>
						<split pos="right">
							<output> 0.010218744 </output>
						</split>
					</split>
					<split pos="right">
						<output> 0.24927509 </output>
					</split>
				</split>
			</split>
			<split pos="right">
				<feature> 129 </feature>
				<threshold> 9.0 </threshold>
				<split pos="left">
					<feature> 130 </feature>
					<threshold> 64767.195 </threshold>
					<split pos="left">
						<feature> 63 </feature>
						<threshold> 0.296875 </threshold>
						<split pos="left">
							<output> 0.058137875 </output>
						</split>
						<split pos="right">
							<output> -0.18363938 </output>
						</split>
					</split>
					<split pos="right">
						<output> 0.26678774 </output>
					</split>
				</split>
				<split pos="right">
					<output> 0.33441138 </output>
				</split>
			</split>
		</split>
	</tree>
	<tree id="50" weight="0.1">
		<split>
			<feature> 2 </feature>
			<threshold> 3.0 </threshold>
			<split pos="left">
				<feature> 55 </feature>
				<threshold> 0.0062575703 </threshold>
				<split pos="left">
					<feature> 15 </feature>
					<threshold> 160.8125 </threshold>
					<split pos="left">
						<output> 0.14409263 </output>
					</split>
					<split pos="right">
						<feature> 135 </feature>
						<threshold> 1427507.0 </threshold>
						<split pos="left">
							<feature> 65 </feature>
							<threshold> 0.0031287852 </threshold>
							<split pos="left">
								<output> -0.36486176 </output>
							</split>
							<split pos="right">
								<output> -0.05611169 </output>
							</split>
						</split>
						<split pos="right">
							<output> 1.0389262 </output>
						</split>
					</split>
				</split>
				<split pos="right">
					<feature> 135 </feature>
					<threshold> 10897.0 </threshold>
					<split pos="left">
						<feature> 129 </feature>
						<threshold> 9.0 </threshold>
						<split pos="left">
							<feature> 119 </feature>
							<threshold> -21.114998 </threshold>
							<split pos="left">
								<output> 0.12306455 </output>
							</split>
							<split pos="right">
								<feature> 134 </feature>
								<threshold> 0.0 </threshold>
								<split pos="left">
									<output> 0.011186993 </output>
								</split>
								<split pos="right">
									<output> -0.10101172 </output>
								</split>
							</split>
						</split>
						<split pos="right">
							<output> 0.22989379 </output>
						</split>
					</split>
					<split pos="right">
						<output> 0.36974382 </output>
					</split>
				</split>
			</split>
			<split pos="right">
				<output> 0.4532282 </output>
			</split>
		</split>
	</tree>
	<tree id="51" weight="0.1">
		<split>
			<feature> 2 </feature>
			<threshold> 3.0 </threshold>
			<split pos="left">
				<feature> 130 </feature>
				<threshold> 14924.891 </threshold>
				<split pos="left">
					<feature> 47 </feature>
					<threshold> 0.78515625 </threshold>
					<split pos="left">
						<feature> 134 </feature>
						<threshold> 0.0 </threshold>
						<split pos="left">
							<output> -0.076379724 </output>
						</split>
						<split pos="right">
							<output> -0.098291196 </output>
						</split>
					</split>
					<split pos="right">
						<output> 0.18655775 </output>
					</split>
				</split>
				<split pos="right">
					<feature> 109 </feature>
					<threshold> 19.741756 </threshold>
					<split pos="left">
						<feature> 108 </feature>
						<threshold> 26.679325 </threshold>
						<split pos="left">
							<feature> 27 </feature>
							<threshold> 56.0 </threshold>
							<split pos="left">
								<feature> 65 </feature>
								<threshold> 0.025030283 </threshold>
								<split pos="left">
									<output> -0.049325656 </output>
								</split>
								<split pos="right">
									<feature> 135 </feature>
									<threshold> 10897.0 </threshold>
									<split pos="left">
										<output> 0.10878348 </output>
									</split>
									<split pos="right">
										<output> 0.419113 </output>
									</split>
								</split>
							</split>
							<split pos="right">
								<output> 1.1631051 </output>
							</split>
						</split>
						<split pos="right">
							<output> 0.35993978 </output>
						</split>
					</split>
					<split pos="right">
						<output> 0.4332551 </output>
					</split>
				</split>
			</split>
			<split pos="right">
				<output> 0.42050073 </output>
			</split>
		</split>
	</tree>
	<tree id="52" weight="0.1">
		<split>
			<feature> 27 </feature>
			<threshold> 56.0 </threshold>
			<split pos="left">
				<feature> 129 </feature>
				<threshold> 24.0 </threshold>
				<split pos="left">
					<feature> 127 </feature>
					<threshold> 22.105469 </threshold>
					<split pos="left">
						<feature> 110 </feature>
						<threshold> 25.626888 </threshold>
						<split pos="left">
							<feature> 86 </feature>
							<threshold> -57.63849 </threshold>
							<split pos="left">
								<output> 0.84361565 </output>
							</split>
							<split pos="right">
								<feature> 108 </feature>
								<threshold> 22.232769 </threshold>
								<split pos="left">
									<feature> 16 </feature>
									<threshold> 29.716902 </threshold>
									<split pos="left">
										<output> -0.012715801 </output>
									</split>
									<split pos="right">
										<output> 1.1148486 </output>
									</split>
								</split>
								<split pos="right">
									<output> 0.3710078 </output>
								</split>
							</split>
						</split>
						<split pos="right">
							<output> 0.27231768 </output>
						</split>
					</split>
					<split pos="right">
						<feature> 134 </feature>
						<threshold> 0.0 </threshold>
						<split pos="left">
							<feature> 2 </feature>
							<threshold> 1.0 </threshold>
							<split pos="left">
								<output> -0.06348805 </output>
							</split>
							<split pos="right">
								<output> 0.19346166 </output>
							</split>
						</split>
						<split pos="right">
							<output> -0.08769131 </output>
						</split>
					</split>
				</split>
				<split pos="right">
					<output> 0.28859925 </output>
				</split>
			</split>
			<split pos="right">
				<output> 1.185233 </output>
			</split>
		</split>
	</tree>
	<tree id="53" weight="0.1">
		<split>
			<feature> 133 </feature>
			<threshold> 11.0 </threshold>
			<split pos="left">
				<feature> 107 </feature>
				<threshold> 16.708466 </threshold>
				<split pos="left">
					<feature> 14 </feature>
					<threshold> 4.0 </threshold>
					<split pos="left">
						<feature> 108 </feature>
						<threshold> 22.232769 </threshold>
						<split pos="left">
							<feature> 86 </feature>
							<threshold> -57.63849 </threshold>
							<split pos="left">
								<output> 0.8658923 </output>
							</split>
							<split pos="right">
								<feature> 109 </feature>
								<threshold> 21.715927 </threshold>
								<split pos="left">
									<feature> 49 </feature>
									<threshold> 0.25568187 </threshold>
									<split pos="left">
										<feature> 134 </feature>
										<threshold> 52908.69 </threshold>
										<split pos="left">
											<output> 0.072392896 </output>
										</split>
										<split pos="right">
											<output> 0.4595148 </output>
										</split>
									</split>
									<split pos="right">
										<output> 0.69134104 </output>
									</split>
								</split>
								<split pos="right">
									<output> 0.77292025 </output>
								</split>
							</split>
						</split>
						<split pos="right">
							<output> 0.3397934 </output>
						</split>
					</split>
					<split pos="right">
						<output> -0.009245249 </output>
					</split>
				</split>
				<split pos="right">
					<output> 0.30181977 </output>
				</split>
			</split>
			<split pos="right">
				<feature> 134 </feature>
				<threshold> 0.0 </threshold>
				<split pos="left">
					<output> -0.08463158 </output>
				</split>
				<split pos="right">
					<output> -0.11625765 </output>
				</split>
			</split>
		</split>
	</tree>
	<tree id="54" weight="0.1">
		<split>
			<feature> 2 </feature>
			<threshold> 3.0 </threshold>
			<split pos="left">
				<feature> 27 </feature>
				<threshold> 56.0 </threshold>
				<split pos="left">
					<feature> 106 </feature>
					<threshold> 39.32861 </threshold>
					<split pos="left">
						<feature> 54 </feature>
						<threshold> 0.125 </threshold>
						<split pos="left">
							<feature> 134 </feature>
							<threshold> 158726.08 </threshold>
							<split pos="left">
								<feature> 134 </feature>
								<threshold> 0.0 </threshold>
								<split pos="left">
									<feature> 125 </feature>
									<threshold> -31.540298 </threshold>
									<split pos="left">
										<output> -0.47537953 </output>
									</split>
									<split pos="right">
										<feature> 11 </feature>
										<threshold> 0.0 </threshold>
										<split pos="left">
											<output> 0.75413746 </output>
										</split>
										<split pos="right">
											<feature> 55 </feature>
											<threshold> 0.012515141 </threshold>
											<split pos="left">
												<output> -0.08205457 </output>
											</split>
											<split pos="right">
												<output> 0.07134956 </output>
											</split>
										</split>
									</split>
								</split>
								<split pos="right">
									<output> -0.06138725 </output>
								</split>
							</split>
							<split pos="right">
								<output> 0.63731265 </output>
							</split>
						</split>
						<split pos="right">
							<output> 0.13741195 </output>
						</split>
					</split>
					<split pos="right">
						<output> 0.1790795 </output>
					</split>
				</split>
				<split pos="right">
					<output> 1.1731265 </output>
				</split>
			</split>
			<split pos="right">
				<output> 0.38262665 </output>
			</split>
		</split>
	</tree>
	<tree id="55" weight="0.1">
		<split>
			<feature> 129 </feature>
			<threshold> 31.0 </threshold>
			<split pos="left">
				<feature> 130 </feature>
				<threshold> 27704.969 </threshold>
				<split pos="left">
					<feature> 47 </feature>
					<threshold> 0.66796875 </threshold>
					<split pos="left">
						<feature> 134 </feature>
						<threshold> 0.0 </threshold>
						<split pos="left">
							<feature> 15 </feature>
							<threshold> 2331.25 </threshold>
							<split pos="left">
								<output> -0.052839346 </output>
							</split>
							<split pos="right">
								<output> -0.4481425 </output>
							</split>
						</split>
						<split pos="right">
							<output> -0.08562587 </output>
						</split>
					</split>
					<split pos="right">
						<output> 0.14211161 </output>
					</split>
				</split>
				<split pos="right">
					<feature> 109 </feature>
					<threshold> 18.613659 </threshold>
					<split pos="left">
						<feature> 108 </feature>
						<threshold> 30.014242 </threshold>
						<split pos="left">
							<feature> 15 </feature>
							<threshold> 531.375 </threshold>
							<split pos="left">
								<feature> 108 </feature>
								<threshold> 15.562936 </threshold>
								<split pos="left">
									<output> 0.05548804 </output>
								</split>
								<split pos="right">
									<output> 0.21184388 </output>
								</split>
							</split>
							<split pos="right">
								<output> -0.13376454 </output>
							</split>
						</split>
						<split pos="right">
							<output> 0.5615101 </output>
						</split>
					</split>
					<split pos="right">
						<output> 0.3884554 </output>
					</split>
				</split>
			</split>
			<split pos="right">
				<output> 0.34226376 </output>
			</split>
		</split>
	</tree>
	<tree id="56" weight="0.1">
		<split>
			<feature> 22 </feature>
			<threshold> 4.0 </threshold>
			<split pos="left">
				<feature> 127 </feature>
				<threshold> 34.17578 </threshold>
				<split pos="left">
					<feature> 129 </feature>
					<threshold> 2.0 </threshold>
					<split pos="left">
						<feature> 3 </feature>
						<threshold> 2.0 </threshold>
						<split pos="left">
							<feature> 134 </feature>
							<threshold> 0.0 </threshold>
							<split pos="left">
								<output> 0.0016622137 </output>
							</split>
							<split pos="right">
								<output> -0.09876639 </output>
							</split>
						</split>
						<split pos="right">
							<output> 0.181988 </output>
						</split>
					</split>
					<split pos="right">
						<feature> 64 </feature>
						<threshold> 0.22437932 </threshold>
						<split pos="left">
							<output> 0.1592578 </output>
						</split>
						<split pos="right">
							<output> 0.45603204 </output>
						</split>
					</split>
				</split>
				<split pos="right">
					<feature> 134 </feature>
					<threshold> 0.0 </threshold>
					<split pos="left">
						<feature> 135 </feature>
						<threshold> 21794.0 </threshold>
						<split pos="left">
							<feature> 74 </feature>
							<threshold> 4.713807 </threshold>
							<split pos="left">
								<output> -0.15733486 </output>
							</split>
							<split pos="right">
								<output> 0.031614333 </output>
							</split>
						</split>
						<split pos="right">
							<output> 1.0640311 </output>
						</split>
					</split>
					<split pos="right">
						<output> -0.11429565 </output>
					</split>
				</split>
			</split>
			<split pos="right">
				<output> 0.23062046 </output>
			</split>
		</split>
	</tree>
	<tree id="57" weight="0.1">
		<split>
			<feature> 129 </feature>
			<threshold> 26.0 </threshold>
			<split pos="left">
				<feature> 27 </feature>
				<threshold> 56.0 </threshold>
				<split pos="left">
					<feature> 133 </feature>
					<threshold> 53.0 </threshold>
					<split pos="left">
						<feature> 110 </feature>
						<threshold> 28.361145 </threshold>
						<split pos="left">
							<feature> 2 </feature>
							<threshold> 3.0 </threshold>
							<split pos="left">
								<feature> 11 </feature>
								<threshold> 0.0 </threshold>
								<split pos="left">
									<output> 0.550492 </output>
								</split>
								<split pos="right">
									<feature> 123 </feature>
									<threshold> -8.186691 </threshold>
									<split pos="left">
										<output> -0.17249633 </output>
									</split>
									<split pos="right">
										<feature> 135 </feature>
										<threshold> 10897.0 </threshold>
										<split pos="left">
											<feature> 134 </feature>
											<threshold> 0.0 </threshold>
											<split pos="left">
												<output> 0.057304572 </output>
											</split>
											<split pos="right">
												<output> -0.05678891 </output>
											</split>
										</split>
