## LambdaMART
## No. of trees = 1000
## No. of leaves = 10
## No. of threshold candidates = 256
## Learning rate = 0.1
## Stop early = 100

<ensemble>
	<tree id="1" weight="0.1">
		<split>
			<feature> 134 </feature>
			<threshold> 0.0 </threshold>
			<split pos="left">
				<feature> 108 </feature>
				<threshold> 13.33966 </threshold>
				<split pos="left">
					<feature> 130 </feature>
					<threshold> 355.60547 </threshold>
					<split pos="left">
						<feature> 18 </feature>
						<threshold> 16.653086 </threshold>
						<split pos="left">
							<feature> 54 </feature>
							<threshold> 0.117647 </threshold>
							<split pos="left">
								<output> -0.60921484 </output>
							</split>
							<split pos="right">
								<output> -0.097691804 </output>
							</split>
						</split>
						<split pos="right">
							<output> -0.28024018 </output>
						</split>
					</split>
					<split pos="right">
						<output> -0.13792703 </output>
					</split>
				</split>
				<split pos="right">
					<feature> 17 </feature>
					<threshold> 7.759387 </threshold>
					<split pos="left">
						<output> 1.5240706 </output>
					</split>
					<split pos="right">
						<feature> 109 </feature>
						<threshold> 17.95312 </threshold>
						<split pos="left">
							<feature> 3 </feature>
							<threshold> 2.0 </threshold>
							<split pos="left">
								<feature> 130 </feature>
								<threshold> 355.60547 </threshold>
								<split pos="left">
									<output> -0.08268799 </output>
								</split>
								<split pos="right">
									<output> 0.2615951 </output>
								</split>
							</split>
							<split pos="right">
								<output> 0.31413743 </output>
							</split>
						</split>
						<split pos="right">
							<output> 0.45436925 </output>
						</split>
					</split>
				</split>
			</split>
			<split pos="right">
				<output> 1.2003237 </output>
			</split>
		</split>
	</tree>
	<tree id="2" weight="0.1">
		<split>
			<feature> 134 </feature>
			<threshold> 0.0 </threshold>
			<split pos="left">
				<feature> 109 </feature>
				<threshold> 17.95312 </threshold>
				<split pos="left">
					<feature> 108 </feature>
					<threshold> 13.33966 </threshold>
					<split pos="left">
						<output> -0.9604993 </output>
					</split>
					<split pos="right">
						<output> -0.26863715 </output>
					</split>
				</split>
				<split pos="right">
					<output> 0.51810074 </output>
				</split>
			</split>
			<split pos="right">
				<feature> 130 </feature>
				<threshold> 62212.13 </threshold>
				<split pos="left">
					<feature> 5 </feature>
					<threshold> 2.0 </threshold>
					<split pos="left">
						<feature> 136 </feature>
						<threshold> 0.0 </threshold>
						<split pos="left">
							<output> 0.7176809 </output>
						</split>
						<split pos="right">
							<feature> 129 </feature>
							<threshold> 2.0 </threshold>
							<split pos="left">
								<output> 0.9224039 </output>
							</split>
							<split pos="right">
								<output> 1.167625 </output>
							</split>
						</split>
					</split>
					<split pos="right">
						<output> 1.1972897 </output>
					</split>
				</split>
				<split pos="right">
					<feature> 14 </feature>
					<threshold> 4.0 </threshold>
					<split pos="left">
						<feature> 110 </feature>
						<threshold> 25.626888 </threshold>
						<split pos="left">
							<output> 1.372995 </output>
						</split>
						<split pos="right">
							<output> 1.7246637 </output>
						</split>
					</split>
					<split pos="right">
						<output> 1.1710305 </output>
					</split>
				</split>
			</split>
		</split>
	</tree>
	<tree id="3" weight="0.1">
		<split>
			<feature> 134 </feature>
			<threshold> 0.0 </threshold>
			<split pos="left">
				<feature> 109 </feature>
				<threshold> 17.95312 </threshold>
				<split pos="left">
					<output> -0.6945944 </output>
				</split>
				<split pos="right">
					<output> 0.41743356 </output>
				</split>
			</split>
			<split pos="right">
				<feature> 130 </feature>
				<threshold> 62212.13 </threshold>
				<split pos="left">
					<feature> 129 </feature>
					<threshold> 2.0 </threshold>
					<split pos="left">
						<output> 0.86693245 </output>
					</split>
					<split pos="right">
						<output> 1.0252553 </output>
					</split>
				</split>
				<split pos="right">
					<feature> 14 </feature>
					<threshold> 4.0 </threshold>
					<split pos="left">
						<feature> 109 </feature>
						<threshold> 15.113054 </threshold>
						<split pos="left">
							<feature> 110 </feature>
							<threshold> 25.626888 </threshold>
							<split pos="left">
								<feature> 133 </feature>
								<threshold> 1.0 </threshold>
								<split pos="left">
									<output> 1.4160993 </output>
								</split>
								<split pos="right">
									<feature> 103 </feature>
									<threshold> 0.94921875 </threshold>
									<split pos="left">
										<output> 1.013403 </output>
									</split>
									<split pos="right">
										<output> 1.2237169 </output>
									</split>
								</split>
							</split>
							<split pos="right">
								<output> 1.4787471 </output>
							</split>
						</split>
						<split pos="right">
							<output> 1.5801893 </output>
						</split>
					</split>
					<split pos="right">
						<output> 1.0345042 </output>
					</split>
				</split>
			</split>
		</split>
	</tree>
	<tree id="4" weight="0.1">
		<split>
			<feature> 134 </feature>
			<threshold> 0.0 </threshold>
			<split pos="left">
				<feature> 109 </feature>
				<threshold> 17.95312 </threshold>
				<split pos="left">
					<output> -0.6057461 </output>
				</split>
				<split pos="right">
					<output> 0.3405736 </output>
				</split>
			</split>
			<split pos="right">
				<feature> 130 </feature>
				<threshold> 62212.13 </threshold>
				<split pos="left">
					<feature> 129 </feature>
					<threshold> 2.0 </threshold>
					<split pos="left">
						<output> 0.73830736 </output>
					</split>
					<split pos="right">
						<output> 0.89790237 </output>
					</split>
				</split>
				<split pos="right">
					<feature> 14 </feature>
					<threshold> 4.0 </threshold>
					<split pos="left">
						<feature> 109 </feature>
						<threshold> 17.1011 </threshold>
						<split pos="left">
							<feature> 133 </feature>
							<threshold> 1.0 </threshold>
							<split pos="left">
								<output> 1.2845727 </output>
							</split>
							<split pos="right">
								<feature> 110 </feature>
								<threshold> 25.626888 </threshold>
								<split pos="left">
									<feature> 103 </feature>
									<threshold> 0.94921875 </threshold>
									<split pos="left">
										<output> 0.94028574 </output>
									</split>
									<split pos="right">
										<output> 1.096742 </output>
									</split>
								</split>
								<split pos="right">
									<output> 1.3507756 </output>
								</split>
							</split>
						</split>
						<split pos="right">
							<output> 1.5146425 </output>
						</split>
					</split>
					<split pos="right">
						<output> 0.9082383 </output>
					</split>
				</split>
			</split>
		</split>
	</tree>
	<tree id="5" weight="0.1">
		<split>
			<feature> 134 </feature>
			<threshold> 0.0 </threshold>
			<split pos="left">
				<feature> 3 </feature>
				<threshold> 2.0 </threshold>
				<split pos="left">
					<feature> 69 </feature>
					<threshold> 0.062578194 </threshold>
					<split pos="left">
						<output> -0.5313798 </output>
					</split>
					<split pos="right">
						<output> 1.6802325 </output>
					</split>
				</split>
				<split pos="right">
					<output> 0.2937625 </output>
				</split>
			</split>
			<split pos="right">
				<feature> 130 </feature>
				<threshold> 62212.13 </threshold>
				<split pos="left">
					<feature> 129 </feature>
					<threshold> 2.0 </threshold>
					<split pos="left">
						<output> 0.63383836 </output>
					</split>
					<split pos="right">
						<output> 0.7805222 </output>
					</split>
				</split>
				<split pos="right">
					<feature> 14 </feature>
					<threshold> 4.0 </threshold>
					<split pos="left">
						<feature> 109 </feature>
						<threshold> 17.1011 </threshold>
						<split pos="left">
							<feature> 133 </feature>
							<threshold> 1.0 </threshold>
							<split pos="left">
								<output> 1.173862 </output>
							</split>
							<split pos="right">
								<feature> 110 </feature>
								<threshold> 25.626888 </threshold>
								<split pos="left">
									<output> 0.9251086 </output>
								</split>
								<split pos="right">
									<output> 1.2418424 </output>
								</split>
							</split>
						</split>
						<split pos="right">
							<output> 1.4072113 </output>
						</split>
					</split>
					<split pos="right">
						<output> 0.7992478 </output>
					</split>
				</split>
			</split>
		</split>
	</tree>
	<tree id="6" weight="0.1">
		<split>
			<feature> 134 </feature>
			<threshold> 0.0 </threshold>
			<split pos="left">
				<feature> 109 </feature>
				<threshold> 17.95312 </threshold>
				<split pos="left">
					<feature> 108 </feature>
					<threshold> 13.33966 </threshold>
					<split pos="left">
						<output> -0.67102116 </output>
					</split>
					<split pos="right">
						<output> -0.13738234 </output>
					</split>
				</split>
				<split pos="right">
					<output> 0.30067447 </output>
				</split>
			</split>
			<split pos="right">
				<feature> 130 </feature>
				<threshold> 62467.734 </threshold>
				<split pos="left">
					<feature> 129 </feature>
					<threshold> 2.0 </threshold>
					<split pos="left">
						<output> 0.55080825 </output>
					</split>
					<split pos="right">
						<output> 0.69458055 </output>
					</split>
				</split>
				<split pos="right">
					<feature> 14 </feature>
					<threshold> 4.0 </threshold>
					<split pos="left">
						<feature> 109 </feature>
						<threshold> 15.113054 </threshold>
						<split pos="left">
							<feature> 133 </feature>
							<threshold> 1.0 </threshold>
							<split pos="left">
								<output> 1.0596544 </output>
							</split>
							<split pos="right">
								<feature> 103 </feature>
								<threshold> 0.94921875 </threshold>
								<split pos="left">
									<output> 0.7448513 </output>
								</split>
								<split pos="right">
									<output> 0.9421581 </output>
								</split>
							</split>
						</split>
						<split pos="right">
							<output> 1.2429603 </output>
						</split>
					</split>
					<split pos="right">
						<output> 0.73458284 </output>
					</split>
				</split>
			</split>
		</split>
	</tree>
	<tree id="7" weight="0.1">
		<split>
			<feature> 134 </feature>
			<threshold> 0.0 </threshold>
			<split pos="left">
				<feature> 3 </feature>
				<threshold> 2.0 </threshold>
				<split pos="left">
					<feature> 69 </feature>
					<threshold> 0.062578194 </threshold>
					<split pos="left">
						<feature> 63 </feature>
						<threshold> 0.04296875 </threshold>
						<split pos="left">
							<output> -0.66253096 </output>
						</split>
						<split pos="right">
							<output> -0.28504288 </output>
						</split>
					</split>
					<split pos="right">
						<output> 1.4083474 </output>
					</split>
				</split>
				<split pos="right">
					<output> 0.2721205 </output>
				</split>
			</split>
			<split pos="right">
				<feature> 130 </feature>
				<threshold> 62723.34 </threshold>
				<split pos="left">
					<feature> 129 </feature>
					<threshold> 2.0 </threshold>
					<split pos="left">
						<output> 0.4761375 </output>
					</split>
					<split pos="right">
						<output> 0.6153144 </output>
					</split>
				</split>
				<split pos="right">
					<feature> 14 </feature>
					<threshold> 4.0 </threshold>
					<split pos="left">
						<feature> 109 </feature>
						<threshold> 13.977026 </threshold>
						<split pos="left">
							<feature> 106 </feature>
							<threshold> 20.208483 </threshold>
							<split pos="left">
								<output> 0.7267386 </output>
							</split>
							<split pos="right">
								<output> 1.0311538 </output>
							</split>
						</split>
						<split pos="right">
							<output> 1.1385325 </output>
						</split>
					</split>
					<split pos="right">
						<output> 0.6708808 </output>
					</split>
				</split>
			</split>
		</split>
	</tree>
	<tree id="8" weight="0.1">
		<split>
			<feature> 134 </feature>
			<threshold> 0.0 </threshold>
			<split pos="left">
				<feature> 109 </feature>
				<threshold> 17.95312 </threshold>
				<split pos="left">
					<feature> 63 </feature>
					<threshold> 0.04296875 </threshold>
					<split pos="left">
						<output> -0.67249143 </output>
					</split>
					<split pos="right">
						<feature> 20 </feature>
						<threshold> 14.426507 </threshold>
						<split pos="left">
							<output> -0.28727752 </output>
						</split>
						<split pos="right">
							<output> 0.18870793 </output>
						</split>
					</split>
				</split>
				<split pos="right">
					<output> 0.24502778 </output>
				</split>
			</split>
			<split pos="right">
				<feature> 130 </feature>
				<threshold> 62467.734 </threshold>
				<split pos="left">
					<feature> 129 </feature>
					<threshold> 2.0 </threshold>
					<split pos="left">
						<output> 0.41540784 </output>
					</split>
					<split pos="right">
						<output> 0.54514134 </output>
					</split>
				</split>
				<split pos="right">
					<feature> 14 </feature>
					<threshold> 4.0 </threshold>
					<split pos="left">
						<feature> 109 </feature>
						<threshold> 17.1011 </threshold>
						<split pos="left">
							<feature> 133 </feature>
							<threshold> 1.0 </threshold>
							<split pos="left">
								<output> 0.9475308 </output>
							</split>
							<split pos="right">
								<output> 0.7297318 </output>
							</split>
						</split>
						<split pos="right">
							<output> 1.2123898 </output>
						</split>
					</split>
					<split pos="right">
						<output> 0.5916392 </output>
					</split>
				</split>
			</split>
		</split>
	</tree>
	<tree id="9" weight="0.1">
		<split>
			<feature> 134 </feature>
			<threshold> 0.0 </threshold>
			<split pos="left">
				<feature> 3 </feature>
				<threshold> 2.0 </threshold>
				<split pos="left">
					<feature> 65 </feature>
					<threshold> 0.0062575703 </threshold>
					<split pos="left">
						<output> -0.6338046 </output>
					</split>
					<split pos="right">
						<feature> 69 </feature>
						<threshold> 0.062578194 </threshold>
						<split pos="left">
							<feature> 16 </feature>
							<threshold> 17.152155 </threshold>
							<split pos="left">
								<output> -0.282189 </output>
							</split>
							<split pos="right">
								<output> 0.15769558 </output>
							</split>
						</split>
						<split pos="right">
							<output> 1.2877591 </output>
						</split>
					</split>
				</split>
				<split pos="right">
					<output> 0.24541107 </output>
				</split>
			</split>
			<split pos="right">
				<feature> 130 </feature>
				<threshold> 62723.34 </threshold>
				<split pos="left">
					<feature> 129 </feature>
					<threshold> 2.0 </threshold>
					<split pos="left">
						<output> 0.35671496 </output>
					</split>
					<split pos="right">
						<output> 0.48305237 </output>
					</split>
				</split>
				<split pos="right">
					<feature> 14 </feature>
					<threshold> 4.0 </threshold>
					<split pos="left">
						<feature> 110 </feature>
						<threshold> 22.892632 </threshold>
						<split pos="left">
							<output> 0.63017464 </output>
						</split>
						<split pos="right">
							<output> 1.0300661 </output>
						</split>
					</split>
					<split pos="right">
						<output> 0.5352266 </output>
					</split>
				</split>
			</split>
		</split>
	</tree>
	<tree id="10" weight="0.1">
		<split>
			<feature> 134 </feature>
			<threshold> 0.0 </threshold>
			<split pos="left">
				<feature> 108 </feature>
				<threshold> 13.33966 </threshold>
				<split pos="left">
					<output> -0.4256754 </output>
				</split>
				<split pos="right">
					<feature> 4 </feature>
					<threshold> 3.0 </threshold>
					<split pos="left">
						<feature> 117 </feature>
						<threshold> -4.216857 </threshold>
						<split pos="left">
							<feature> 3 </feature>
							<threshold> 2.0 </threshold>
							<split pos="left">
								<output> -0.07178421 </output>
							</split>
							<split pos="right">
								<output> 0.20104273 </output>
							</split>
						</split>
						<split pos="right">
							<output> 0.69792986 </output>
						</split>
					</split>
					<split pos="right">
						<output> 0.60274744 </output>
					</split>
				</split>
			</split>
			<split pos="right">
				<feature> 130 </feature>
				<threshold> 62723.34 </threshold>
				<split pos="left">
					<feature> 18 </feature>
					<threshold> 16.653086 </threshold>
					<split pos="left">
						<output> 0.22325043 </output>
					</split>
					<split pos="right">
						<output> 0.56281585 </output>
					</split>
				</split>
				<split pos="right">
					<feature> 110 </feature>
					<threshold> 25.626888 </threshold>
					<split pos="left">
						<feature> 14 </feature>
						<threshold> 4.0 </threshold>
						<split pos="left">
							<output> 0.6006024 </output>
						</split>
						<split pos="right">
							<output> 0.35826465 </output>
						</split>
					</split>
					<split pos="right">
						<output> 0.97534955 </output>
					</split>
				</split>
			</split>
		</split>
	</tree>
	<tree id="11" weight="0.1">
		<split>
			<feature> 134 </feature>
			<threshold> 0.0 </threshold>
			<split pos="left">
				<feature> 4 </feature>
				<threshold> 3.0 </threshold>
				<split pos="left">
					<feature> 65 </feature>
					<threshold> 0.0062575703 </threshold>
					<split pos="left">
						<output> -0.5968406 </output>
					</split>
					<split pos="right">
						<feature> 3 </feature>
						<threshold> 2.0 </threshold>
						<split pos="left">
							<feature> 69 </feature>
							<threshold> 0.062578194 </threshold>
							<split pos="left">
								<feature> 20 </feature>
								<threshold> 19.808985 </threshold>
								<split pos="left">
									<output> -0.18705012 </output>
								</split>
								<split pos="right">
									<output> 0.21947525 </output>
								</split>
							</split>
							<split pos="right">
								<output> 1.2069126 </output>
							</split>
						</split>
						<split pos="right">
							<output> 0.18106203 </output>
						</split>
					</split>
				</split>
				<split pos="right">
					<output> 0.5729279 </output>
				</split>
			</split>
			<split pos="right">
				<feature> 130 </feature>
				<threshold> 62467.734 </threshold>
				<split pos="left">
					<feature> 18 </feature>
					<threshold> 16.653086 </threshold>
					<split pos="left">
						<output> 0.17811503 </output>
					</split>
					<split pos="right">
						<output> 0.50960463 </output>
					</split>
				</split>
				<split pos="right">
					<feature> 110 </feature>
					<threshold> 25.626888 </threshold>
					<split pos="left">
						<output> 0.4659436 </output>
					</split>
					<split pos="right">
						<output> 0.9132719 </output>
					</split>
				</split>
			</split>
		</split>
	</tree>
	<tree id="12" weight="0.1">
		<split>
			<feature> 134 </feature>
			<threshold> 0.0 </threshold>
			<split pos="left">
				<feature> 4 </feature>
				<threshold> 3.0 </threshold>
				<split pos="left">
					<feature> 65 </feature>
					<threshold> 0.0062575703 </threshold>
					<split pos="left">
						<output> -0.5625387 </output>
					</split>
					<split pos="right">
						<feature> 3 </feature>
						<threshold> 2.0 </threshold>
						<split pos="left">
							<feature> 69 </feature>
							<threshold> 0.062578194 </threshold>
							<split pos="left">
								<feature> 20 </feature>
								<threshold> 19.808985 </threshold>
								<split pos="left">
									<output> -0.16158466 </output>
								</split>
								<split pos="right">
									<output> 0.20944466 </output>
								</split>
							</split>
							<split pos="right">
								<output> 1.1485708 </output>
							</split>
						</split>
						<split pos="right">
							<output> 0.18470618 </output>
						</split>
					</split>
				</split>
				<split pos="right">
					<output> 0.52420366 </output>
				</split>
			</split>
			<split pos="right">
				<feature> 130 </feature>
				<threshold> 64512.58 </threshold>
				<split pos="left">
					<feature> 18 </feature>
					<threshold> 16.653086 </threshold>
					<split pos="left">
						<feature> 136 </feature>
						<threshold> 0.0 </threshold>
						<split pos="left">
							<output> -0.22926785 </output>
						</split>
						<split pos="right">
							<output> 0.20807059 </output>
						</split>
					</split>
					<split pos="right">
						<output> 0.48982602 </output>
					</split>
				</split>
				<split pos="right">
					<output> 0.55745965 </output>
				</split>
			</split>
		</split>
	</tree>
	<tree id="13" weight="0.1">
		<split>
			<feature> 134 </feature>
			<threshold> 0.0 </threshold>
			<split pos="left">
				<feature> 108 </feature>
				<threshold> 15.562936 </threshold>
				<split pos="left">
					<feature> 115 </feature>
					<threshold> -8.260539 </threshold>
					<split pos="left">
						<output> -0.43605328 </output>
					</split>
					<split pos="right">
						<output> -0.07127257 </output>
					</split>
				</split>
				<split pos="right">
					<feature> 4 </feature>
					<threshold> 3.0 </threshold>
					<split pos="left">
						<feature> 117 </feature>
						<threshold> -4.216857 </threshold>
						<split pos="left">
							<output> 0.08042252 </output>
						</split>
						<split pos="right">
							<output> 0.6151083 </output>
						</split>
					</split>
					<split pos="right">
						<output> 0.49071825 </output>
					</split>
				</split>
			</split>
			<split pos="right">
				<feature> 130 </feature>
				<threshold> 64768.184 </threshold>
				<split pos="left">
					<feature> 18 </feature>
					<threshold> 16.653086 </threshold>
					<split pos="left">
						<feature> 111 </feature>
						<threshold> -24.868958 </threshold>
						<split pos="left">
							<output> 1.2622889 </output>
						</split>
						<split pos="right">
							<feature> 109 </feature>
							<threshold> 15.9650755 </threshold>
							<split pos="left">
								<output> 0.06424793 </output>
							</split>
							<split pos="right">
								<output> 0.43319467 </output>
							</split>
						</split>
					</split>
					<split pos="right">
						<output> 0.45243156 </output>
					</split>
				</split>
				<split pos="right">
					<output> 0.51888555 </output>
				</split>
			</split>
		</split>
	</tree>
	<tree id="14" weight="0.1">
		<split>
			<feature> 134 </feature>
			<threshold> 0.0 </threshold>
			<split pos="left">
				<feature> 108 </feature>
				<threshold> 15.562936 </threshold>
				<split pos="left">
					<feature> 115 </feature>
					<threshold> -8.260539 </threshold>
					<split pos="left">
						<output> -0.44937432 </output>
					</split>
					<split pos="right">
						<output> -0.057414748 </output>
					</split>
				</split>
				<split pos="right">
					<feature> 4 </feature>
					<threshold> 3.0 </threshold>
					<split pos="left">
						<feature> 66 </feature>
						<threshold> 0.0 </threshold>
						<split pos="left">
							<output> -0.12161846 </output>
						</split>
						<split pos="right">
							<feature> 117 </feature>
							<threshold> -7.0282564 </threshold>
							<split pos="left">
								<output> 0.159766 </output>
							</split>
							<split pos="right">
								<output> 0.88373274 </output>
							</split>
						</split>
					</split>
					<split pos="right">
						<output> 0.43781266 </output>
					</split>
				</split>
			</split>
			<split pos="right">
				<feature> 130 </feature>
				<threshold> 64512.58 </threshold>
				<split pos="left">
					<feature> 136 </feature>
					<threshold> 0.0 </threshold>
					<split pos="left">
						<output> -0.116696164 </output>
					</split>
					<split pos="right">
						<feature> 110 </feature>
						<threshold> 25.626888 </threshold>
						<split pos="left">
							<output> 0.1593943 </output>
						</split>
						<split pos="right">
							<output> 0.49946713 </output>
						</split>
					</split>
				</split>
				<split pos="right">
					<output> 0.46435225 </output>
				</split>
			</split>
		</split>
	</tree>
	<tree id="15" weight="0.1">
		<split>
			<feature> 134 </feature>
			<threshold> 0.0 </threshold>
			<split pos="left">
				<feature> 65 </feature>
				<threshold> 0.0062575703 </threshold>
				<split pos="left">
					<output> -0.4956117 </output>
				</split>
				<split pos="right">
					<feature> 4 </feature>
					<threshold> 3.0 </threshold>
					<split pos="left">
						<feature> 108 </feature>
						<threshold> 17.786213 </threshold>
						<split pos="left">
							<feature> 69 </feature>
							<threshold> 0.062578194 </threshold>
							<split pos="left">
								<feature> 101 </feature>
								<threshold> 0.296875 </threshold>
								<split pos="left">
									<output> 0.1841579 </output>
								</split>
								<split pos="right">
									<output> -0.15851578 </output>
								</split>
							</split>
							<split pos="right">
								<output> 1.0969099 </output>
							</split>
						</split>
						<split pos="right">
							<output> 0.13583796 </output>
						</split>
					</split>
					<split pos="right">
						<output> 0.39247745 </output>
					</split>
				</split>
			</split>
			<split pos="right">
				<feature> 130 </feature>
				<threshold> 59656.074 </threshold>
				<split pos="left">
					<feature> 108 </feature>
					<threshold> 28.902603 </threshold>
					<split pos="left">
						<output> 0.12894692 </output>
					</split>
					<split pos="right">
						<output> 0.5866852 </output>
					</split>
				</split>
				<split pos="right">
					<feature> 110 </feature>
					<threshold> 22.892632 </threshold>
					<split pos="left">
						<output> 0.26783517 </output>
					</split>
					<split pos="right">
						<output> 0.7508398 </output>
					</split>
				</split>
			</split>
		</split>
	</tree>
	<tree id="16" weight="0.1">
		<split>
			<feature> 134 </feature>
			<threshold> 0.0 </threshold>
			<split pos="left">
				<feature> 108 </feature>
				<threshold> 17.786213 </threshold>
				<split pos="left">
					<feature> 115 </feature>
					<threshold> -8.260539 </threshold>
					<split pos="left">
						<output> -0.35508803 </output>
					</split>
					<split pos="right">
						<output> -0.029716237 </output>
					</split>
				</split>
				<split pos="right">
					<feature> 14 </feature>
					<threshold> 3.0 </threshold>
					<split pos="left">
						<output> 1.0200546 </output>
					</split>
					<split pos="right">
						<feature> 4 </feature>
						<threshold> 3.0 </threshold>
						<split pos="left">
							<output> 0.12150981 </output>
						</split>
						<split pos="right">
							<output> 0.3337834 </output>
						</split>
					</split>
				</split>
			</split>
			<split pos="right">
				<feature> 127 </feature>
				<threshold> 22.105469 </threshold>
				<split pos="left">
					<feature> 130 </feature>
					<threshold> 59144.863 </threshold>
					<split pos="left">
						<output> 0.32463577 </output>
					</split>
					<split pos="right">
						<feature> 110 </feature>
						<threshold> 22.892632 </threshold>
						<split pos="left">
							<output> 0.32423827 </output>
						</split>
						<split pos="right">
							<output> 0.8596507 </output>
						</split>
					</split>
				</split>
				<split pos="right">
					<feature> 119 </feature>
					<threshold> -19.606781 </threshold>
					<split pos="left">
						<output> 0.32873824 </output>
					</split>
					<split pos="right">
						<output> -0.0046336586 </output>
					</split>
				</split>
			</split>
		</split>
	</tree>
	<tree id="17" weight="0.1">
		<split>
			<feature> 134 </feature>
			<threshold> 0.0 </threshold>
			<split pos="left">
				<feature> 108 </feature>
				<threshold> 17.786213 </threshold>
				<split pos="left">
					<feature> 65 </feature>
					<threshold> 0.009386355 </threshold>
					<split pos="left">
						<output> -0.40498373 </output>
					</split>
					<split pos="right">
						<output> -0.07441205 </output>
					</split>
				</split>
				<split pos="right">
					<feature> 14 </feature>
					<threshold> 3.0 </threshold>
					<split pos="left">
						<output> 0.91600746 </output>
					</split>
					<split pos="right">
						<feature> 45 </feature>
						<threshold> 0.0 </threshold>
						<split pos="left">
							<output> -0.17281148 </output>
						</split>
						<split pos="right">
							<output> 0.1705951 </output>
						</split>
					</split>
				</split>
			</split>
			<split pos="right">
				<feature> 130 </feature>
				<threshold> 58889.258 </threshold>
				<split pos="left">
					<feature> 108 </feature>
					<threshold> 28.902603 </threshold>
					<split pos="left">
						<output> 0.080024906 </output>
					</split>
					<split pos="right">
						<output> 0.521414 </output>
					</split>
				</split>
				<split pos="right">
					<feature> 110 </feature>
					<threshold> 22.892632 </threshold>
					<split pos="left">
						<feature> 134 </feature>
						<threshold> 52908.69 </threshold>
						<split pos="left">
							<output> 0.16753346 </output>
						</split>
						<split pos="right">
							<output> 0.8284554 </output>
						</split>
					</split>
					<split pos="right">
						<output> 0.65932375 </output>
					</split>
				</split>
			</split>
		</split>
	</tree>
	<tree id="18" weight="0.1">
		<split>
			<feature> 134 </feature>
			<threshold> 0.0 </threshold>
			<split pos="left">
				<feature> 65 </feature>
				<threshold> 0.009386355 </threshold>
				<split pos="left">
					<output> -0.35497063 </output>
				</split>
				<split pos="right">
					<feature> 14 </feature>
					<threshold> 3.0 </threshold>
					<split pos="left">
						<output> 0.72927344 </output>
					</split>
					<split pos="right">
						<feature> 107 </feature>
						<threshold> 17.28462 </threshold>
						<split pos="left">
							<feature> 69 </feature>
							<threshold> 0.04710942 </threshold>
							<split pos="left">
								<feature> 4 </feature>
								<threshold> 3.0 </threshold>
								<split pos="left">
									<feature> 127 </feature>
									<threshold> 34.17578 </threshold>
									<split pos="left">
										<output> 0.1232765 </output>
									</split>
									<split pos="right">
										<output> -0.10402838 </output>
									</split>
								</split>
								<split pos="right">
									<output> 0.28558946 </output>
								</split>
							</split>
							<split pos="right">
								<output> 1.2546979 </output>
							</split>
						</split>
						<split pos="right">
							<output> 0.41057828 </output>
						</split>
					</split>
				</split>
			</split>
			<split pos="right">
				<feature> 14 </feature>
				<threshold> 4.0 </threshold>
				<split pos="left">
					<feature> 130 </feature>
					<threshold> 59144.863 </threshold>
					<split pos="left">
						<output> 0.2545156 </output>
					</split>
					<split pos="right">
						<output> 0.4180284 </output>
					</split>
				</split>
				<split pos="right">
					<output> 0.0751739 </output>
				</split>
			</split>
		</split>
	</tree>
	<tree id="19" weight="0.1">
		<split>
			<feature> 134 </feature>
			<threshold> 0.0 </threshold>
			<split pos="left">
				<feature> 108 </feature>
				<threshold> 17.786213 </threshold>
				<split pos="left">
					<feature> 123 </feature>
					<threshold> -9.668865 </threshold>
					<split pos="left">
						<output> -0.34364948 </output>
					</split>
					<split pos="right">
						<output> -0.019766854 </output>
					</split>
				</split>
				<split pos="right">
					<feature> 14 </feature>
					<threshold> 3.0 </threshold>
					<split pos="left">
						<output> 0.795603 </output>
					</split>
					<split pos="right">
						<feature> 107 </feature>
						<threshold> 17.860775 </threshold>
						<split pos="left">
							<output> 0.087426215 </output>
						</split>
						<split pos="right">
							<output> 0.39424464 </output>
						</split>
					</split>
				</split>
			</split>
			<split pos="right">
				<feature> 14 </feature>
				<threshold> 4.0 </threshold>
				<split pos="left">
					<feature> 108 </feature>
					<threshold> 28.902603 </threshold>
					<split pos="left">
						<feature> 129 </feature>
						<threshold> 2.0 </threshold>
						<split pos="left">
							<output> 0.17644912 </output>
						</split>
						<split pos="right">
							<output> 0.45454052 </output>
						</split>
					</split>
					<split pos="right">
						<output> 0.9816409 </output>
					</split>
				</split>
				<split pos="right">
					<feature> 22 </feature>
					<threshold> 2.0 </threshold>
					<split pos="left">
						<output> 0.0070706937 </output>
					</split>
					<split pos="right">
						<output> 0.3520026 </output>
					</split>
				</split>
			</split>
		</split>
	</tree>
	<tree id="20" weight="0.1">
		<split>
			<feature> 134 </feature>
			<threshold> 0.0 </threshold>
			<split pos="left">
				<feature> 107 </feature>
				<threshold> 17.28462 </threshold>
				<split pos="left">
					<feature> 14 </feature>
					<threshold> 3.0 </threshold>
					<split pos="left">
						<output> 0.5657922 </output>
					</split>
					<split pos="right">
						<feature> 65 </feature>
						<threshold> 0.009386355 </threshold>
						<split pos="left">
							<output> -0.37017956 </output>
						</split>
						<split pos="right">
							<feature> 69 </feature>
							<threshold> 0.04710942 </threshold>
							<split pos="left">
								<feature> 127 </feature>
								<threshold> 34.17578 </threshold>
								<split pos="left">
									<output> 0.13711086 </output>
								</split>
								<split pos="right">
									<output> -0.110277474 </output>
								</split>
							</split>
							<split pos="right">
								<output> 1.2869279 </output>
							</split>
						</split>
					</split>
				</split>
				<split pos="right">
					<output> 0.37120688 </output>
				</split>
			</split>
			<split pos="right">
				<feature> 127 </feature>
				<threshold> 22.105469 </threshold>
				<split pos="left">
					<feature> 110 </feature>
					<threshold> 25.626888 </threshold>
					<split pos="left">
						<output> 0.18830189 </output>
					</split>
					<split pos="right">
						<output> 0.6845772 </output>
					</split>
				</split>
				<split pos="right">
					<feature> 3 </feature>
					<threshold> 2.0 </threshold>
					<split pos="left">
						<output> -0.013833942 </output>
					</split>
					<split pos="right">
						<output> 0.35622194 </output>
					</split>
				</split>
			</split>
		</split>
	</tree>
	<tree id="21" weight="0.1">
		<split>
			<feature> 134 </feature>
			<threshold> 52908.69 </threshold>
			<split pos="left">
				<feature> 134 </feature>
				<threshold> 0.0 </threshold>
				<split pos="left">
					<feature> 14 </feature>
					<threshold> 3.0 </threshold>
					<split pos="left">
						<output> 0.45848334 </output>
					</split>
					<split pos="right">
						<feature> 107 </feature>
						<threshold> 17.860775 </threshold>
						<split pos="left">
							<feature> 65 </feature>
							<threshold> 0.009386355 </threshold>
							<split pos="left">
								<output> -0.35218468 </output>
							</split>
							<split pos="right">
								<feature> 69 </feature>
								<threshold> 0.04710942 </threshold>
								<split pos="left">
									<feature> 14 </feature>
									<threshold> 4.0 </threshold>
									<split pos="left">
										<output> 0.2888645 </output>
									</split>
									<split pos="right">
										<output> -0.06148886 </output>
									</split>
								</split>
								<split pos="right">
									<output> 1.2361524 </output>
								</split>
							</split>
						</split>
						<split pos="right">
							<output> 0.34616035 </output>
						</split>
					</split>
				</split>
				<split pos="right">
					<feature> 14 </feature>
					<threshold> 4.0 </threshold>
					<split pos="left">
						<feature> 108 </feature>
						<threshold> 28.902603 </threshold>
						<split pos="left">
							<output> 0.2248958 </output>
						</split>
						<split pos="right">
							<output> 0.8876416 </output>
						</split>
					</split>
					<split pos="right">
						<output> 0.04325736 </output>
					</split>
				</split>
			</split>
			<split pos="right">
				<output> 0.6947727 </output>
			</split>
		</split>
	</tree>
	<tree id="22" weight="0.1">
		<split>
			<feature> 134 </feature>
			<threshold> 52908.69 </threshold>
			<split pos="left">
				<feature> 134 </feature>
				<threshold> 0.0 </threshold>
				<split pos="left">
					<feature> 14 </feature>
					<threshold> 3.0 </threshold>
					<split pos="left">
						<output> 0.4104416 </output>
					</split>
					<split pos="right">
						<feature> 107 </feature>
						<threshold> 17.860775 </threshold>
						<split pos="left">
							<feature> 55 </feature>
							<threshold> 0.0062575703 </threshold>
							<split pos="left">
								<output> -0.22299768 </output>
							</split>
							<split pos="right">
								<output> 0.028716438 </output>
							</split>
						</split>
						<split pos="right">
							<output> 0.31631267 </output>
						</split>
					</split>
				</split>
				<split pos="right">
					<feature> 136 </feature>
					<threshold> 0.0 </threshold>
					<split pos="left">
						<output> -0.29607862 </output>
					</split>
					<split pos="right">
						<feature> 110 </feature>
						<threshold> 25.626888 </threshold>
						<split pos="left">
							<feature> 54 </feature>
							<threshold> 0.222222 </threshold>
							<split pos="left">
								<feature> 3 </feature>
								<threshold> 1.0 </threshold>
								<split pos="left">
									<output> -0.10674644 </output>
								</split>
								<split pos="right">
									<output> 0.17076539 </output>
								</split>
							</split>
							<split pos="right">
								<output> 0.38791704 </output>
							</split>
						</split>
						<split pos="right">
							<output> 0.4033429 </output>
						</split>
					</split>
				</split>
			</split>
			<split pos="right">
				<output> 0.64800984 </output>
			</split>
		</split>
	</tree>
	<tree id="23" weight="0.1">
		<split>
			<feature> 134 </feature>
			<threshold> 52908.69 </threshold>
			<split pos="left">
				<feature> 134 </feature>
				<threshold> 0.0 </threshold>
				<split pos="left">
					<feature> 4 </feature>
					<threshold> 7.0 </threshold>
					<split pos="left">
						<feature> 14 </feature>
						<threshold> 3.0 </threshold>
						<split pos="left">
							<output> 0.3617511 </output>
						</split>
						<split pos="right">
							<feature> 107 </feature>
							<threshold> 15.556157 </threshold>
							<split pos="left">
								<feature> 55 </feature>
								<threshold> 0.0062575703 </threshold>
								<split pos="left">
									<output> -0.2260511 </output>
								</split>
								<split pos="right">
									<output> 0.025094552 </output>
								</split>
							</split>
							<split pos="right">
								<output> 0.28358528 </output>
							</split>
						</split>
					</split>
					<split pos="right">
						<output> 1.1700066 </output>
					</split>
				</split>
				<split pos="right">
					<feature> 127 </feature>
					<threshold> 16.070312 </threshold>
					<split pos="left">
						<output> 0.31876513 </output>
					</split>
					<split pos="right">
						<feature> 3 </feature>
						<threshold> 1.0 </threshold>
						<split pos="left">
							<output> -0.090183094 </output>
						</split>
						<split pos="right">
							<feature> 130 </feature>
							<threshold> 47131.406 </threshold>
							<split pos="left">
								<output> 0.09650774 </output>
							</split>
							<split pos="right">
								<output> 0.35356933 </output>
							</split>
						</split>
					</split>
				</split>
			</split>
			<split pos="right">
				<output> 0.6209976 </output>
			</split>
		</split>
	</tree>
	<tree id="24" weight="0.1">
		<split>
			<feature> 134 </feature>
			<threshold> 52908.69 </threshold>
			<split pos="left">
				<feature> 134 </feature>
				<threshold> 0.0 </threshold>
				<split pos="left">
					<feature> 4 </feature>
					<threshold> 7.0 </threshold>
					<split pos="left">
						<feature> 108 </feature>
						<threshold> 15.562936 </threshold>
						<split pos="left">
							<output> -0.15982163 </output>
						</split>
						<split pos="right">
							<feature> 135 </feature>
							<threshold> 21794.0 </threshold>
							<split pos="left">
								<feature> 14 </feature>
								<threshold> 3.0 </threshold>
								<split pos="left">
									<output> 0.47664803 </output>
								</split>
								<split pos="right">
									<output> 0.09916958 </output>
								</split>
							</split>
							<split pos="right">
								<output> 1.5523485 </output>
							</split>
						</split>
					</split>
					<split pos="right">
						<output> 1.082455 </output>
					</split>
				</split>
				<split pos="right">
					<feature> 108 </feature>
					<threshold> 22.232769 </threshold>
					<split pos="left">
						<feature> 109 </feature>
						<threshold> 15.681068 </threshold>
						<split pos="left">
							<feature> 130 </feature>
							<threshold> 65279.395 </threshold>
							<split pos="left">
								<output> -0.066658214 </output>
							</split>
							<split pos="right">
								<output> 0.18811066 </output>
							</split>
						</split>
						<split pos="right">
							<output> 0.36846617 </output>
						</split>
					</split>
					<split pos="right">
						<output> 0.36332658 </output>
					</split>
				</split>
			</split>
			<split pos="right">
				<output> 0.5801697 </output>
			</split>
		</split>
	</tree>
	<tree id="25" weight="0.1">
		<split>
			<feature> 134 </feature>
			<threshold> 52908.69 </threshold>
			<split pos="left">
				<feature> 14 </feature>
				<threshold> 4.0 </threshold>
				<split pos="left">
					<feature> 108 </feature>
					<threshold> 22.232769 </threshold>
					<split pos="left">
						<feature> 109 </feature>
						<threshold> 18.237125 </threshold>
						<split pos="left">
							<feature> 135 </feature>
							<threshold> 1732623.0 </threshold>
							<split pos="left">
								<feature> 133 </feature>
								<threshold> 5.0 </threshold>
								<split pos="left">
									<output> 0.277854 </output>
								</split>
								<split pos="right">
									<output> 0.021515045 </output>
								</split>
							</split>
							<split pos="right">
								<output> 1.1704004 </output>
							</split>
						</split>
						<split pos="right">
							<output> 0.7252038 </output>
						</split>
					</split>
					<split pos="right">
						<output> 0.6617859 </output>
					</split>
				</split>
				<split pos="right">
					<feature> 22 </feature>
					<threshold> 2.0 </threshold>
					<split pos="left">
						<feature> 4 </feature>
						<threshold> 7.0 </threshold>
						<split pos="left">
							<feature> 109 </feature>
							<threshold> 4.6047926 </threshold>
							<split pos="left">
								<output> -0.25300577 </output>
							</split>
							<split pos="right">
								<output> 0.014556868 </output>
							</split>
						</split>
						<split pos="right">
							<output> 1.0222464 </output>
						</split>
					</split>
					<split pos="right">
						<output> 0.31372768 </output>
					</split>
				</split>
			</split>
			<split pos="right">
				<output> 0.54121506 </output>
			</split>
		</split>
	</tree>
	<tree id="26" weight="0.1">
		<split>
			<feature> 134 </feature>
			<threshold> 52908.69 </threshold>
			<split pos="left">
				<feature> 108 </feature>
				<threshold> 20.009491 </threshold>
				<split pos="left">
					<feature> 64 </feature>
					<threshold> 0.24126805 </threshold>
					<split pos="left">
						<feature> 135 </feature>
						<threshold> 1732623.0 </threshold>
						<split pos="left">
							<feature> 72 </feature>
							<threshold> 17.873957 </threshold>
							<split pos="left">
								<feature> 55 </feature>
								<threshold> 0.018772712 </threshold>
								<split pos="left">
									<feature> 134 </feature>
									<threshold> 0.0 </threshold>
									<split pos="left">
										<feature> 15 </feature>
										<threshold> 54.9375 </threshold>
										<split pos="left">
											<output> 0.44394726 </output>
										</split>
										<split pos="right">
											<output> -0.22825532 </output>
										</split>
									</split>
									<split pos="right">
										<output> -0.13775472 </output>
									</split>
								</split>
								<split pos="right">
									<output> 0.054733668 </output>
								</split>
							</split>
							<split pos="right">
								<output> 0.28730556 </output>
							</split>
						</split>
						<split pos="right">
							<output> 1.1523337 </output>
						</split>
					</split>
					<split pos="right">
						<output> 0.34990433 </output>
					</split>
				</split>
				<split pos="right">
					<feature> 134 </feature>
					<threshold> 0.0 </threshold>
					<split pos="left">
						<output> 0.1589979 </output>
					</split>
					<split pos="right">
						<output> 0.27202365 </output>
					</split>
				</split>
			</split>
			<split pos="right">
				<output> 0.50218505 </output>
			</split>
		</split>
	</tree>
	<tree id="27" weight="0.1">
		<split>
			<feature> 134 </feature>
			<threshold> 52908.69 </threshold>
			<split pos="left">
				<feature> 14 </feature>
				<threshold> 4.0 </threshold>
				<split pos="left">
					<feature> 108 </feature>
					<threshold> 24.456047 </threshold>
					<split pos="left">
						<feature> 109 </feature>
						<threshold> 17.1011 </threshold>
						<split pos="left">
							<feature> 108 </feature>
							<threshold> 16.674574 </threshold>
							<split pos="left">
								<feature> 135 </feature>
								<threshold> 1732623.0 </threshold>
								<split pos="left">
									<output> 0.0582829 </output>
								</split>
								<split pos="right">
									<output> 1.1347001 </output>
								</split>
							</split>
							<split pos="right">
								<output> 0.31757116 </output>
							</split>
						</split>
						<split pos="right">
							<output> 0.5784086 </output>
						</split>
					</split>
					<split pos="right">
						<output> 0.6613213 </output>
					</split>
				</split>
				<split pos="right">
					<feature> 72 </feature>
					<threshold> 17.873957 </threshold>
					<split pos="left">
						<feature> 4 </feature>
						<threshold> 7.0 </threshold>
						<split pos="left">
							<feature> 109 </feature>
							<threshold> 4.6047926 </threshold>
							<split pos="left">
								<output> -0.24860764 </output>
							</split>
							<split pos="right">
								<output> 0.010475543 </output>
							</split>
						</split>
						<split pos="right">
							<output> 0.96918845 </output>
						</split>
					</split>
					<split pos="right">
						<output> 0.22935614 </output>
					</split>
				</split>
			</split>
			<split pos="right">
				<output> 0.47228426 </output>
			</split>
		</split>
	</tree>
	<tree id="28" weight="0.1">
		<split>
			<feature> 134 </feature>
			<threshold> 52908.69 </threshold>
			<split pos="left">
				<feature> 14 </feature>
				<threshold> 4.0 </threshold>
				<split pos="left">
					<feature> 108 </feature>
					<threshold> 24.456047 </threshold>
					<split pos="left">
						<feature> 109 </feature>
						<threshold> 18.237125 </threshold>
						<split pos="left">
							<feature> 3 </feature>
							<threshold> 1.0 </threshold>
							<split pos="left">
								<output> 0.013637001 </output>
							</split>
							<split pos="right">
								<output> 0.26614618 </output>
							</split>
						</split>
						<split pos="right">
							<output> 0.54910314 </output>
						</split>
					</split>
					<split pos="right">
						<output> 0.57720685 </output>
					</split>
				</split>
				<split pos="right">
					<feature> 72 </feature>
					<threshold> 26.810936 </threshold>
					<split pos="left">
						<feature> 4 </feature>
						<threshold> 7.0 </threshold>
						<split pos="left">
							<feature> 8 </feature>
							<threshold> 0.538462 </threshold>
							<split pos="left">
								<output> -0.23512524 </output>
							</split>
							<split pos="right">
								<feature> 3 </feature>
								<threshold> 3.0 </threshold>
								<split pos="left">
									<output> -0.0040021883 </output>
								</split>
								<split pos="right">
									<output> 0.31530583 </output>
								</split>
							</split>
						</split>
						<split pos="right">
							<output> 0.92365664 </output>
						</split>
					</split>
					<split pos="right">
						<output> 0.28837746 </output>
					</split>
				</split>
			</split>
			<split pos="right">
				<output> 0.4296207 </output>
			</split>
		</split>
	</tree>
	<tree id="29" weight="0.1">
		<split>
			<feature> 134 </feature>
			<threshold> 52908.69 </threshold>
			<split pos="left">
				<feature> 3 </feature>
				<threshold> 1.0 </threshold>
				<split pos="left">
					<feature> 64 </feature>
					<threshold> 0.24126805 </threshold>
					<split pos="left">
						<feature> 134 </feature>
						<threshold> 0.0 </threshold>
						<split pos="left">
							<output> -0.14606285 </output>
						</split>
						<split pos="right">
							<output> -0.12604482 </output>
						</split>
					</split>
					<split pos="right">
						<output> 0.24871285 </output>
					</split>
				</split>
				<split pos="right">
					<feature> 14 </feature>
					<threshold> 4.0 </threshold>
					<split pos="left">
						<output> 0.309483 </output>
					</split>
					<split pos="right">
						<feature> 37 </feature>
						<threshold> 55.4 </threshold>
						<split pos="left">
							<feature> 72 </feature>
							<threshold> 26.810936 </threshold>
							<split pos="left">
								<feature> 4 </feature>
								<threshold> 7.0 </threshold>
								<split pos="left">
									<feature> 117 </feature>
									<threshold> -7.0282564 </threshold>
									<split pos="left">
										<output> 0.02567077 </output>
									</split>
									<split pos="right">
										<output> 0.6563205 </output>
									</split>
								</split>
								<split pos="right">
									<output> 0.8969148 </output>
								</split>
							</split>
							<split pos="right">
								<output> 0.24617328 </output>
							</split>
						</split>
						<split pos="right">
							<output> -4.631017 </output>
						</split>
					</split>
				</split>
			</split>
			<split pos="right">
				<output> 0.39873576 </output>
			</split>
		</split>
	</tree>
	<tree id="30" weight="0.1">
		<split>
			<feature> 88 </feature>
			<threshold> 4.545681 </threshold>
			<split pos="left">
				<output> -0.1488789 </output>
			</split>
			<split pos="right">
				<feature> 135 </feature>
				<threshold> 10897.0 </threshold>
				<split pos="left">
					<feature> 130 </feature>
					<threshold> 59400.47 </threshold>
					<split pos="left">
						<feature> 14 </feature>
						<threshold> 3.0 </threshold>
						<split pos="left">
							<output> 0.32128868 </output>
						</split>
						<split pos="right">
							<feature> 4 </feature>
							<threshold> 7.0 </threshold>
							<split pos="left">
								<feature> 129 </feature>
								<threshold> 12.0 </threshold>
								<split pos="left">
									<feature> 3 </feature>
									<threshold> 3.0 </threshold>
									<split pos="left">
										<feature> 69 </feature>
										<threshold> 0.04710942 </threshold>
										<split pos="left">
											<feature> 133 </feature>
											<threshold> 116.0 </threshold>
											<split pos="left">
												<output> -0.0095608765 </output>
											</split>
											<split pos="right">
												<output> -0.30749375 </output>
											</split>
										</split>
										<split pos="right">
											<output> 1.3720285 </output>
										</split>
									</split>
									<split pos="right">
										<output> 0.28508607 </output>
									</split>
								</split>
								<split pos="right">
									<output> 0.30648133 </output>
								</split>
							</split>
							<split pos="right">
								<output> 0.93200594 </output>
							</split>
						</split>
					</split>
					<split pos="right">
						<output> 0.29275545 </output>
					</split>
				</split>
				<split pos="right">
					<output> 0.59127426 </output>
				</split>
			</split>
		</split>
	</tree>
	<tree id="31" weight="0.1">
		<split>
			<feature> 108 </feature>
			<threshold> 21.12113 </threshold>
			<split pos="left">
				<feature> 134 </feature>
				<threshold> 52908.69 </threshold>
				<split pos="left">
					<feature> 129 </feature>
					<threshold> 10.0 </threshold>
					<split pos="left">
						<feature> 11 </feature>
						<threshold> 740.46875 </threshold>
						<split pos="left">
							<feature> 130 </feature>
							<threshold> 57100.02 </threshold>
							<split pos="left">
								<feature> 134 </feature>
								<threshold> 0.0 </threshold>
								<split pos="left">
									<feature> 90 </feature>
									<threshold> -78.62988 </threshold>
									<split pos="left">
										<output> 1.4832944 </output>
									</split>
									<split pos="right">
										<output> -0.05655569 </output>
									</split>
								</split>
								<split pos="right">
									<output> -0.18033904 </output>
								</split>
							</split>
							<split pos="right">
								<output> 0.18152523 </output>
							</split>
						</split>
						<split pos="right">
							<output> -0.31143326 </output>
						</split>
					</split>
					<split pos="right">
						<output> 0.20893577 </output>
					</split>
				</split>
				<split pos="right">
					<output> 0.3198448 </output>
				</split>
			</split>
			<split pos="right">
				<feature> 130 </feature>
				<threshold> 60422.89 </threshold>
				<split pos="left">
					<feature> 14 </feature>
					<threshold> 3.0 </threshold>
					<split pos="left">
						<output> 0.35034022 </output>
					</split>
					<split pos="right">
						<output> 0.11127617 </output>
					</split>
				</split>
				<split pos="right">
					<output> 0.62939316 </output>
				</split>
			</split>
		</split>
	</tree>
	<tree id="32" weight="0.1">
		<split>
			<feature> 14 </feature>
			<threshold> 4.0 </threshold>
			<split pos="left">
				<feature> 108 </feature>
				<threshold> 24.456047 </threshold>
				<split pos="left">
					<feature> 90 </feature>
					<threshold> -78.62988 </threshold>
					<split pos="left">
						<output> 1.4091091 </output>
					</split>
					<split pos="right">
						<feature> 109 </feature>
						<threshold> 17.1011 </threshold>
						<split pos="left">
							<feature> 134 </feature>
							<threshold> 52908.69 </threshold>
							<split pos="left">
								<feature> 126 </feature>
								<threshold> 1.0 </threshold>
								<split pos="left">
									<feature> 135 </feature>
									<threshold> 1732623.0 </threshold>
									<split pos="left">
										<output> 0.005583515 </output>
									</split>
									<split pos="right">
										<output> 1.1177903 </output>
									</split>
								</split>
								<split pos="right">
									<output> 0.63017446 </output>
								</split>
							</split>
							<split pos="right">
								<output> 0.35480574 </output>
							</split>
						</split>
						<split pos="right">
							<output> 0.45160186 </output>
						</split>
					</split>
				</split>
				<split pos="right">
					<output> 0.48174313 </output>
				</split>
			</split>
			<split pos="right">
				<feature> 22 </feature>
				<threshold> 2.0 </threshold>
				<split pos="left">
					<feature> 109 </feature>
					<threshold> 4.6047926 </threshold>
					<split pos="left">
						<output> -0.21018447 </output>
					</split>
					<split pos="right">
						<output> 0.028269328 </output>
					</split>
				</split>
				<split pos="right">
					<output> 0.22598734 </output>
				</split>
			</split>
		</split>
	</tree>
	<tree id="33" weight="0.1">
		<split>
			<feature> 3 </feature>
			<threshold> 1.0 </threshold>
			<split pos="left">
				<feature> 9 </feature>
				<threshold> 0.5 </threshold>
				<split pos="left">
					<feature> 134 </feature>
					<threshold> 0.0 </threshold>
					<split pos="left">
						<output> -0.17594163 </output>
					</split>
					<split pos="right">
						<output> -0.15370916 </output>
					</split>
				</split>
				<split pos="right">
					<output> 0.122292265 </output>
				</split>
			</split>
			<split pos="right">
				<feature> 135 </feature>
				<threshold> 10897.0 </threshold>
				<split pos="left">
					<feature> 130 </feature>
					<threshold> 58378.047 </threshold>
					<split pos="left">
						<feature> 14 </feature>
						<threshold> 3.0 </threshold>
						<split pos="left">
							<output> 0.29399446 </output>
						</split>
						<split pos="right">
							<feature> 117 </feature>
							<threshold> -7.0282564 </threshold>
							<split pos="left">
								<feature> 3 </feature>
								<threshold> 3.0 </threshold>
								<split pos="left">
									<feature> 130 </feature>
									<threshold> 15947.539 </threshold>
									<split pos="left">
										<output> -0.027603133 </output>
									</split>
									<split pos="right">
										<output> 0.15438254 </output>
									</split>
								</split>
								<split pos="right">
									<output> 0.27317747 </output>
								</split>
							</split>
							<split pos="right">
								<output> 0.6294808 </output>
							</split>
						</split>
					</split>
					<split pos="right">
						<output> 0.34109735 </output>
					</split>
				</split>
				<split pos="right">
					<output> 0.60840213 </output>
				</split>
			</split>
		</split>
	</tree>
	<tree id="34" weight="0.1">
		<split>
			<feature> 130 </feature>
			<threshold> 53777.15 </threshold>
			<split pos="left">
				<feature> 3 </feature>
				<threshold> 2.0 </threshold>
				<split pos="left">
					<feature> 129 </feature>
					<threshold> 10.0 </threshold>
					<split pos="left">
						<feature> 134 </feature>
						<threshold> 0.0 </threshold>
						<split pos="left">
							<feature> 11 </feature>
							<threshold> 1269.375 </threshold>
							<split pos="left">
								<feature> 90 </feature>
								<threshold> -78.62988 </threshold>
								<split pos="left">
									<output> 1.0686665 </output>
								</split>
								<split pos="right">
									<output> -0.07873429 </output>
								</split>
							</split>
							<split pos="right">
								<output> -0.4748957 </output>
							</split>
						</split>
						<split pos="right">
							<output> -0.15236455 </output>
						</split>
					</split>
					<split pos="right">
						<output> 0.18199298 </output>
					</split>
				</split>
				<split pos="right">
					<output> 0.13692814 </output>
				</split>
			</split>
			<split pos="right">
				<feature> 109 </feature>
				<threshold> 18.805138 </threshold>
				<split pos="left">
					<feature> 72 </feature>
					<threshold> 723.8947 </threshold>
					<split pos="left">
						<feature> 108 </feature>
						<threshold> 16.674574 </threshold>
						<split pos="left">
							<output> 0.07835267 </output>
						</split>
						<split pos="right">
							<output> 0.36968258 </output>
						</split>
					</split>
					<split pos="right">
						<output> -3.6862192 </output>
					</split>
				</split>
				<split pos="right">
					<output> 0.77341676 </output>
				</split>
			</split>
		</split>
	</tree>
	<tree id="35" weight="0.1">
		<split>
			<feature> 14 </feature>
			<threshold> 4.0 </threshold>
			<split pos="left">
				<feature> 108 </feature>
				<threshold> 24.456047 </threshold>
				<split pos="left">
					<feature> 90 </feature>
					<threshold> -78.62988 </threshold>
					<split pos="left">
						<output> 1.0769013 </output>
					</split>
					<split pos="right">
						<feature> 109 </feature>
						<threshold> 17.1011 </threshold>
						<split pos="left">
							<feature> 126 </feature>
							<threshold> 1.0 </threshold>
							<split pos="left">
								<feature> 134 </feature>
								<threshold> 52908.69 </threshold>
								<split pos="left">
									<feature> 125 </feature>
									<threshold> -1.3715153 </threshold>
									<split pos="left">
										<output> 0.020981222 </output>
									</split>
									<split pos="right">
										<output> -0.45673087 </output>
									</split>
								</split>
								<split pos="right">
									<output> 0.3241198 </output>
								</split>
							</split>
							<split pos="right">
								<output> 0.54448885 </output>
							</split>
						</split>
						<split pos="right">
							<output> 0.39237952 </output>
						</split>
					</split>
				</split>
				<split pos="right">
					<output> 0.43341783 </output>
				</split>
			</split>
			<split pos="right">
				<feature> 107 </feature>
				<threshold> 13.251542 </threshold>
				<split pos="left">
					<feature> 109 </feature>
					<threshold> 4.6047926 </threshold>
					<split pos="left">
						<output> -0.19631924 </output>
					</split>
					<split pos="right">
						<output> 0.013572556 </output>
					</split>
				</split>
				<split pos="right">
					<output> 0.1769082 </output>
				</split>
			</split>
		</split>
	</tree>
	<tree id="36" weight="0.1">
		<split>
			<feature> 14 </feature>
			<threshold> 4.0 </threshold>
			<split pos="left">
				<feature> 108 </feature>
				<threshold> 24.456047 </threshold>
				<split pos="left">
					<feature> 84 </feature>
					<threshold> 11.923712 </threshold>
					<split pos="left">
						<feature> 90 </feature>
						<threshold> -78.62988 </threshold>
						<split pos="left">
							<output> 0.87434113 </output>
						</split>
						<split pos="right">
							<feature> 133 </feature>
							<threshold> 5.0 </threshold>
							<split pos="left">
								<output> 0.23698382 </output>
							</split>
							<split pos="right">
								<feature> 134 </feature>
								<threshold> 0.0 </threshold>
								<split pos="left">
									<output> 0.06653472 </output>
								</split>
								<split pos="right">
									<output> -0.14492828 </output>
								</split>
							</split>
						</split>
					</split>
					<split pos="right">
						<output> 0.40858874 </output>
					</split>
				</split>
				<split pos="right">
					<output> 0.4030884 </output>
				</split>
			</split>
			<split pos="right">
				<feature> 107 </feature>
				<threshold> 12.675388 </threshold>
				<split pos="left">
					<feature> 106 </feature>
					<threshold> 33.86572 </threshold>
					<split pos="left">
						<feature> 123 </feature>
						<threshold> -9.668865 </threshold>
						<split pos="left">
							<output> -0.26249808 </output>
						</split>
						<split pos="right">
							<output> -0.022690324 </output>
						</split>
					</split>
					<split pos="right">
						<output> 0.12614013 </output>
					</split>
				</split>
				<split pos="right">
					<output> 0.1578219 </output>
				</split>
			</split>
		</split>
	</tree>
	<tree id="37" weight="0.1">
		<split>
			<feature> 130 </feature>
			<threshold> 50454.277 </threshold>
			<split pos="left">
				<feature> 129 </feature>
				<threshold> 17.0 </threshold>
				<split pos="left">
					<feature> 3 </feature>
					<threshold> 2.0 </threshold>
					<split pos="left">
						<feature> 134 </feature>
						<threshold> 0.0 </threshold>
						<split pos="left">
							<feature> 15 </feature>
							<threshold> 2437.125 </threshold>
							<split pos="left">
								<feature> 69 </feature>
								<threshold> 0.04710942 </threshold>
								<split pos="left">
									<output> -0.084053 </output>
								</split>
								<split pos="right">
									<output> 1.0766815 </output>
								</split>
							</split>
							<split pos="right">
								<output> -0.6597443 </output>
							</split>
						</split>
						<split pos="right">
							<output> -0.13774143 </output>
						</split>
					</split>
					<split pos="right">
						<output> 0.09930753 </output>
					</split>
				</split>
				<split pos="right">
					<output> 0.28683537 </output>
				</split>
			</split>
			<split pos="right">
				<feature> 109 </feature>
				<threshold> 17.1011 </threshold>
				<split pos="left">
					<feature> 108 </feature>
					<threshold> 17.786213 </threshold>
					<split pos="left">
						<feature> 64 </feature>
						<threshold> 0.23161735 </threshold>
						<split pos="left">
							<output> 0.018700272 </output>
						</split>
						<split pos="right">
							<output> 0.37342635 </output>
						</split>
					</split>
					<split pos="right">
						<output> 0.35036227 </output>
					</split>
				</split>
				<split pos="right">
					<output> 0.6041696 </output>
				</split>
			</split>
		</split>
	</tree>
	<tree id="38" weight="0.1">
		<split>
			<feature> 55 </feature>
			<threshold> 0.0062575703 </threshold>
			<split pos="left">
				<feature> 15 </feature>
				<threshold> 54.9375 </threshold>
				<split pos="left">
					<output> 0.3952165 </output>
				</split>
				<split pos="right">
					<feature> 135 </feature>
					<threshold> 1427507.0 </threshold>
					<split pos="left">
						<feature> 108 </feature>
						<threshold> 5.5581923 </threshold>
						<split pos="left">
							<output> -0.32718194 </output>
						</split>
						<split pos="right">
							<output> -0.028186947 </output>
						</split>
					</split>
					<split pos="right">
						<output> 1.1034971 </output>
					</split>
				</split>
			</split>
			<split pos="right">
				<feature> 135 </feature>
				<threshold> 10897.0 </threshold>
				<split pos="left">
					<feature> 130 </feature>
					<threshold> 64768.184 </threshold>
					<split pos="left">
						<feature> 4 </feature>
						<threshold> 8.0 </threshold>
						<split pos="left">
							<feature> 133 </feature>
							<threshold> 10.0 </threshold>
							<split pos="left">
								<feature> 109 </feature>
								<threshold> 20.79318 </threshold>
								<split pos="left">
									<output> 0.11717238 </output>
								</split>
								<split pos="right">
									<output> 0.39623842 </output>
								</split>
							</split>
							<split pos="right">
								<output> -0.07049854 </output>
							</split>
						</split>
						<split pos="right">
							<output> 0.9051489 </output>
						</split>
					</split>
					<split pos="right">
						<output> 0.30136627 </output>
					</split>
				</split>
				<split pos="right">
					<output> 0.4839977 </output>
				</split>
			</split>
		</split>
	</tree>
	<tree id="39" weight="0.1">
		<split>
			<feature> 14 </feature>
			<threshold> 4.0 </threshold>
			<split pos="left">
				<feature> 90 </feature>
				<threshold> -78.62988 </threshold>
				<split pos="left">
					<output> 0.9793993 </output>
				</split>
				<split pos="right">
					<feature> 108 </feature>
					<threshold> 24.456047 </threshold>
					<split pos="left">
						<feature> 126 </feature>
						<threshold> 1.0 </threshold>
						<split pos="left">
							<feature> 94 </feature>
							<threshold> 52.907005 </threshold>
							<split pos="left">
								<feature> 129 </feature>
								<threshold> 0.0 </threshold>
								<split pos="left">
									<output> -0.08876318 </output>
								</split>
								<split pos="right">
									<output> 0.1630173 </output>
								</split>
							</split>
							<split pos="right">
								<output> 1.0608208 </output>
							</split>
						</split>
						<split pos="right">
							<output> 0.46982646 </output>
						</split>
					</split>
					<split pos="right">
						<output> 0.36756718 </output>
					</split>
				</split>
			</split>
			<split pos="right">
				<feature> 22 </feature>
				<threshold> 4.0 </threshold>
				<split pos="left">
					<feature> 129 </feature>
					<threshold> 10.0 </threshold>
					<split pos="left">
						<feature> 110 </feature>
						<threshold> 36.563915 </threshold>
						<split pos="left">
							<output> -0.12837572 </output>
						</split>
						<split pos="right">
							<output> 0.096883714 </output>
						</split>
					</split>
					<split pos="right">
						<output> 0.1363269 </output>
					</split>
				</split>
				<split pos="right">
					<output> 0.26060465 </output>
				</split>
			</split>
		</split>
	</tree>
	<tree id="40" weight="0.1">
		<split>
			<feature> 130 </feature>
			<threshold> 21059.648 </threshold>
			<split pos="left">
				<feature> 134 </feature>
				<threshold> 0.0 </threshold>
				<split pos="left">
					<feature> 129 </feature>
					<threshold> 16.0 </threshold>
					<split pos="left">
						<feature> 90 </feature>
						<threshold> -78.62988 </threshold>
						<split pos="left">
							<output> 0.88914776 </output>
						</split>
						<split pos="right">
							<output> -0.09073776 </output>
						</split>
					</split>
					<split pos="right">
						<output> 0.26468334 </output>
					</split>
				</split>
				<split pos="right">
					<output> -0.113382295 </output>
				</split>
			</split>
			<split pos="right">
				<feature> 109 </feature>
				<threshold> 19.657156 </threshold>
				<split pos="left">
					<feature> 108 </feature>
					<threshold> 25.567686 </threshold>
					<split pos="left">
						<feature> 109 </feature>
						<threshold> 11.9889765 </threshold>
						<split pos="left">
							<feature> 135 </feature>
							<threshold> 1732623.0 </threshold>
							<split pos="left">
								<feature> 15 </feature>
								<threshold> 54.9375 </threshold>
								<split pos="left">
									<output> 0.388516 </output>
								</split>
								<split pos="right">
									<output> -0.018026741 </output>
								</split>
							</split>
							<split pos="right">
								<output> 1.0870229 </output>
							</split>
						</split>
						<split pos="right">
							<output> 0.262231 </output>
						</split>
					</split>
					<split pos="right">
						<output> 0.46011215 </output>
					</split>
				</split>
				<split pos="right">
					<output> 0.48836172 </output>
				</split>
			</split>
		</split>
	</tree>
	<tree id="41" weight="0.1">
		<split>
			<feature> 55 </feature>
			<threshold> 0.0062575703 </threshold>
			<split pos="left">
				<feature> 134 </feature>
				<threshold> 52908.69 </threshold>
				<split pos="left">
					<feature> 15 </feature>
					<threshold> 54.9375 </threshold>
					<split pos="left">
						<output> 0.28607234 </output>
					</split>
					<split pos="right">
						<feature> 110 </feature>
						<threshold> 28.361145 </threshold>
						<split pos="left">
							<feature> 135 </feature>
							<threshold> 1427507.0 </threshold>
							<split pos="left">
								<output> -0.1977566 </output>
							</split>
							<split pos="right">
								<output> 1.0749055 </output>
							</split>
						</split>
						<split pos="right">
							<output> 0.07158168 </output>
						</split>
					</split>
				</split>
				<split pos="right">
					<output> 0.546286 </output>
				</split>
			</split>
			<split pos="right">
				<feature> 135 </feature>
				<threshold> 108970.0 </threshold>
				<split pos="left">
					<feature> 130 </feature>
					<threshold> 64768.184 </threshold>
					<split pos="left">
						<feature> 133 </feature>
						<threshold> 10.0 </threshold>
						<split pos="left">
							<feature> 109 </feature>
							<threshold> 21.645199 </threshold>
							<split pos="left">
								<output> 0.1142542 </output>
							</split>
							<split pos="right">
								<output> 0.38882828 </output>
							</split>
						</split>
						<split pos="right">
							<output> -0.062348302 </output>
						</split>
					</split>
					<split pos="right">
						<output> 0.28243703 </output>
					</split>
				</split>
				<split pos="right">
					<output> 0.9939958 </output>
				</split>
			</split>
		</split>
	</tree>
	<tree id="42" weight="0.1">
		<split>
			<feature> 127 </feature>
			<threshold> 28.140625 </threshold>
			<split pos="left">
				<feature> 108 </feature>
				<threshold> 22.232769 </threshold>
				<split pos="left">
					<feature> 109 </feature>
					<threshold> 15.681068 </threshold>
					<split pos="left">
						<feature> 134 </feature>
						<threshold> 0.0 </threshold>
						<split pos="left">
							<output> 0.123631984 </output>
						</split>
						<split pos="right">
							<feature> 18 </feature>
							<threshold> 10.861764 </threshold>
							<split pos="left">
								<output> -0.23744571 </output>
							</split>
							<split pos="right">
								<output> 0.049234 </output>
							</split>
						</split>
					</split>
					<split pos="right">
						<output> 0.31692597 </output>
					</split>
				</split>
				<split pos="right">
					<output> 0.3004265 </output>
				</split>
			</split>
			<split pos="right">
				<feature> 72 </feature>
				<threshold> 62.558846 </threshold>
				<split pos="left">
					<feature> 3 </feature>
					<threshold> 3.0 </threshold>
					<split pos="left">
						<feature> 134 </feature>
						<threshold> 0.0 </threshold>
						<split pos="left">
							<feature> 129 </feature>
							<threshold> 11.0 </threshold>
							<split pos="left">
								<output> -0.11304765 </output>
							</split>
							<split pos="right">
								<output> 0.1667167 </output>
							</split>
						</split>
						<split pos="right">
							<output> -0.1145397 </output>
						</split>
					</split>
					<split pos="right">
						<output> 0.24473421 </output>
					</split>
				</split>
				<split pos="right">
					<output> 0.36857387 </output>
				</split>
			</split>
		</split>
	</tree>
	<tree id="43" weight="0.1">
		<split>
			<feature> 60 </feature>
			<threshold> 0.015643926 </threshold>
			<split pos="left">
				<output> -0.16519615 </output>
			</split>
			<split pos="right">
				<feature> 14 </feature>
				<threshold> 4.0 </threshold>
				<split pos="left">
					<feature> 90 </feature>
					<threshold> -78.62988 </threshold>
					<split pos="left">
						<output> 0.8651476 </output>
					</split>
					<split pos="right">
						<feature> 133 </feature>
						<threshold> 7.0 </threshold>
						<split pos="left">
							<output> 0.2799512 </output>
						</split>
						<split pos="right">
							<output> 0.022535255 </output>
						</split>
					</split>
				</split>
				<split pos="right">
					<feature> 129 </feature>
					<threshold> 28.0 </threshold>
					<split pos="left">
						<feature> 72 </feature>
						<threshold> 62.558846 </threshold>
						<split pos="left">
							<feature> 133 </feature>
							<threshold> 49.0 </threshold>
							<split pos="left">
								<feature> 47 </feature>
								<threshold> 0.57421875 </threshold>
								<split pos="left">
									<feature> 49 </feature>
									<threshold> 0.14701708 </threshold>
									<split pos="left">
										<output> -0.06330099 </output>
									</split>
									<split pos="right">
										<output> 0.094457835 </output>
									</split>
								</split>
								<split pos="right">
									<output> 0.20167045 </output>
								</split>
							</split>
							<split pos="right">
								<output> -0.17472191 </output>
							</split>
						</split>
						<split pos="right">
							<output> 0.33143967 </output>
						</split>
					</split>
					<split pos="right">
						<output> 0.36177173 </output>
					</split>
				</split>
			</split>
		</split>
	</tree>
	<tree id="44" weight="0.1">
		<split>
			<feature> 3 </feature>
			<threshold> 1.0 </threshold>
			<split pos="left">
				<feature> 134 </feature>
				<threshold> 0.0 </threshold>
				<split pos="left">
					<output> -0.070918635 </output>
				</split>
				<split pos="right">
					<output> -0.081078246 </output>
				</split>
			</split>
			<split pos="right">
				<feature> 135 </feature>
				<threshold> 10897.0 </threshold>
				<split pos="left">
					<feature> 127 </feature>
					<threshold> 28.140625 </threshold>
					<split pos="left">
						<output> 0.20250602 </output>
					</split>
					<split pos="right">
						<feature> 117 </feature>
						<threshold> -7.0282564 </threshold>
						<split pos="left">
							<feature> 131 </feature>
							<threshold> 65279.008 </threshold>
							<split pos="left">
								<feature> 27 </feature>
								<threshold> 11.0 </threshold>
								<split pos="left">
									<feature> 77 </feature>
									<threshold> 58.82417 </threshold>
									<split pos="left">
										<feature> 3 </feature>
										<threshold> 3.0 </threshold>
										<split pos="left">
											<output> -0.029856151 </output>
										</split>
										<split pos="right">
											<output> 0.21098389 </output>
										</split>
									</split>
									<split pos="right">
										<output> -2.5008726 </output>
									</split>
								</split>
								<split pos="right">
									<output> 1.1381279 </output>
								</split>
							</split>
							<split pos="right">
								<output> 0.2982419 </output>
							</split>
						</split>
						<split pos="right">
							<output> 0.6220161 </output>
						</split>
					</split>
				</split>
				<split pos="right">
					<output> 0.5347806 </output>
				</split>
			</split>
		</split>
	</tree>
	<tree id="45" weight="0.1">
		<split>
			<feature> 130 </feature>
			<threshold> 21059.648 </threshold>
			<split pos="left">
				<feature> 134 </feature>
				<threshold> 0.0 </threshold>
				<split pos="left">
					<feature> 129 </feature>
					<threshold> 16.0 </threshold>
					<split pos="left">
						<feature> 54 </feature>
						<threshold> 0.307692 </threshold>
						<split pos="left">
							<feature> 14 </feature>
							<threshold> 3.0 </threshold>
							<split pos="left">
								<output> 0.18005303 </output>
							</split>
							<split pos="right">
								<feature> 69 </feature>
								<threshold> 0.04710942 </threshold>
								<split pos="left">
									<output> -0.092530206 </output>
								</split>
								<split pos="right">
									<output> 1.0003695 </output>
								</split>
							</split>
						</split>
						<split pos="right">
							<output> -0.8790985 </output>
						</split>
					</split>
					<split pos="right">
						<output> 0.23324026 </output>
					</split>
				</split>
				<split pos="right">
					<output> -0.1127566 </output>
				</split>
			</split>
			<split pos="right">
				<feature> 109 </feature>
				<threshold> 19.657156 </threshold>
				<split pos="left">
					<feature> 110 </feature>
					<threshold> 22.892632 </threshold>
					<split pos="left">
						<feature> 134 </feature>
						<threshold> 0.0 </threshold>
						<split pos="left">
							<output> 0.05145653 </output>
						</split>
						<split pos="right">
							<output> -0.078073375 </output>
						</split>
					</split>
					<split pos="right">
						<output> 0.25579605 </output>
					</split>
				</split>
				<split pos="right">
					<output> 0.4244106 </output>
				</split>
			</split>
		</split>
	</tree>
	<tree id="46" weight="0.1">
		<split>
			<feature> 55 </feature>
			<threshold> 0.0062575703 </threshold>
			<split pos="left">
				<feature> 134 </feature>
				<threshold> 52908.69 </threshold>
				<split pos="left">
					<feature> 15 </feature>
					<threshold> 319.625 </threshold>
					<split pos="left">
						<output> 0.0692399 </output>
					</split>
					<split pos="right">
						<feature> 27 </feature>
						<threshold> 1.0 </threshold>
						<split pos="left">
							<output> -0.16649501 </output>
						</split>
						<split pos="right">
							<output> 0.7512074 </output>
						</split>
					</split>
				</split>
				<split pos="right">
					<output> 0.52174443 </output>
				</split>
			</split>
			<split pos="right">
				<feature> 135 </feature>
				<threshold> 108970.0 </threshold>
				<split pos="left">
					<feature> 130 </feature>
					<threshold> 64768.184 </threshold>
					<split pos="left">
						<feature> 134 </feature>
						<threshold> 0.0 </threshold>
						<split pos="left">
							<feature> 72 </feature>
							<threshold> 26.810936 </threshold>
							<split pos="left">
								<output> 0.07684249 </output>
							</split>
							<split pos="right">
								<output> 0.37492913 </output>
							</split>
						</split>
						<split pos="right">
							<feature> 136 </feature>
							<threshold> 0.0 </threshold>
							<split pos="left">
								<output> -0.3836604 </output>
							</split>
							<split pos="right">
								<output> 0.0033251278 </output>
							</split>
						</split>
					</split>
					<split pos="right">
						<output> 0.25693417 </output>
					</split>
				</split>
				<split pos="right">
					<output> 0.9188446 </output>
				</split>
			</split>
		</split>
	</tree>
	<tree id="47" weight="0.1">
		<split>
			<feature> 129 </feature>
			<threshold> 9.0 </threshold>
			<split pos="left">
				<feature> 135 </feature>
				<threshold> 10897.0 </threshold>
				<split pos="left">
					<feature> 11 </feature>
					<threshold> 1480.9375 </threshold>
					<split pos="left">
						<feature> 134 </feature>
						<threshold> 0.0 </threshold>
						<split pos="left">
							<feature> 14 </feature>
							<threshold> 4.0 </threshold>
							<split pos="left">
								<feature> 90 </feature>
								<threshold> -78.62988 </threshold>
								<split pos="left">
									<output> 0.96114504 </output>
								</split>
								<split pos="right">
									<output> 0.16998611 </output>
								</split>
							</split>
							<split pos="right">
								<feature> 130 </feature>
								<threshold> 27705.39 </threshold>
								<split pos="left">
									<output> -0.08668641 </output>
								</split>
								<split pos="right">
									<output> 0.11307538 </output>
								</split>
							</split>
						</split>
						<split pos="right">
							<feature> 17 </feature>
							<threshold> 7.759387 </threshold>
							<split pos="left">
								<output> -0.6614895 </output>
							</split>
							<split pos="right">
								<feature> 18 </feature>
								<threshold> 16.653086 </threshold>
								<split pos="left">
									<output> -0.122006886 </output>
								</split>
								<split pos="right">
									<output> 0.11822192 </output>
								</split>
							</split>
						</split>
					</split>
					<split pos="right">
						<output> -0.36133507 </output>
					</split>
				</split>
				<split pos="right">
					<output> 0.34019455 </output>
				</split>
			</split>
			<split pos="right">
				<output> 0.15157561 </output>
			</split>
		</split>
	</tree>
	<tree id="48" weight="0.1">
		<split>
			<feature> 3 </feature>
			<threshold> 1.0 </threshold>
			<split pos="left">
				<feature> 49 </feature>
				<threshold> 0.14701708 </threshold>
				<split pos="left">
					<feature> 134 </feature>
					<threshold> 0.0 </threshold>
					<split pos="left">
						<output> -0.12884295 </output>
					</split>
					<split pos="right">
						<output> -0.11917223 </output>
					</split>
				</split>
				<split pos="right">
					<output> 0.12019966 </output>
				</split>
			</split>
			<split pos="right">
				<feature> 135 </feature>
				<threshold> 10897.0 </threshold>
				<split pos="left">
					<feature> 130 </feature>
					<threshold> 45597.773 </threshold>
					<split pos="left">
						<feature> 117 </feature>
						<threshold> -7.0282564 </threshold>
						<split pos="left">
							<feature> 129 </feature>
							<threshold> 29.0 </threshold>
							<split pos="left">
								<feature> 132 </feature>
								<threshold> 62.0 </threshold>
								<split pos="left">
									<feature> 14 </feature>
									<threshold> 3.0 </threshold>
									<split pos="left">
										<output> 0.1970762 </output>
									</split>
									<split pos="right">
										<output> 0.024956336 </output>
									</split>
								</split>
								<split pos="right">
									<output> -0.21918027 </output>
								</split>
							</split>
							<split pos="right">
								<output> 0.33090997 </output>
							</split>
						</split>
						<split pos="right">
							<output> 0.52273905 </output>
						</split>
					</split>
					<split pos="right">
						<output> 0.21869953 </output>
					</split>
				</split>
				<split pos="right">
					<output> 0.47174844 </output>
				</split>
			</split>
		</split>
	</tree>
	<tree id="49" weight="0.1">
		<split>
			<feature> 129 </feature>
			<threshold> 0.0 </threshold>
			<split pos="left">
				<feature> 134 </feature>
				<threshold> 158726.08 </threshold>
				<split pos="left">
					<feature> 134 </feature>
					<threshold> 0.0 </threshold>
					<split pos="left">
						<feature> 11 </feature>
						<threshold> 0.0 </threshold>
						<split pos="left">
							<output> 0.6852586 </output>
						</split>
						<split pos="right">
							<feature> 54 </feature>
							<threshold> 0.307692 </threshold>
							<split pos="left">
								<output> -0.09688111 </output>
							</split>
							<split pos="right">
								<output> -0.71620613 </output>
							</split>
						</split>
					</split>
					<split pos="right">
						<output> -0.120553076 </output>
					</split>
				</split>
				<split pos="right">
					<output> 0.83008415 </output>
				</split>
			</split>
			<split pos="right">
				<feature> 54 </feature>
				<threshold> 0.230769 </threshold>
				<split pos="left">
					<feature> 127 </feature>
					<threshold> 28.140625 </threshold>
					<split pos="left">
						<output> 0.17414945 </output>
					</split>
					<split pos="right">
						<feature> 72 </feature>
						<threshold> 62.558846 </threshold>
						<split pos="left">
							<feature> 129 </feature>
							<threshold> 31.0 </threshold>
							<split pos="left">
								<output> -0.024539696 </output>
							</split>
							<split pos="right">
								<output> 0.2909889 </output>
							</split>
						</split>
						<split pos="right">
							<output> 0.30462134 </output>
						</split>
					</split>
				</split>
				<split pos="right">
					<output> 0.3729256 </output>
				</split>
			</split>
		</split>
	</tree>
	<tree id="50" weight="0.1">
		<split>
			<feature> 55 </feature>
			<threshold> 0.0062575703 </threshold>
			<split pos="left">
				<feature> 15 </feature>
				<threshold> 54.9375 </threshold>
				<split pos="left">
					<output> 0.26055855 </output>
				</split>
				<split pos="right">
					<feature> 110 </feature>
					<threshold> 28.361145 </threshold>
					<split pos="left">
						<output> -0.1742615 </output>
					</split>
					<split pos="right">
						<output> 0.07028943 </output>
					</split>
				</split>
			</split>
			<split pos="right">
				<feature> 135 </feature>
				<threshold> 108970.0 </threshold>
				<split pos="left">
					<feature> 133 </feature>
					<threshold> 10.0 </threshold>
					<split pos="left">
						<feature> 127 </feature>
						<threshold> 16.070312 </threshold>
						<split pos="left">
							<output> 0.32443938 </output>
						</split>
						<split pos="right">
							<feature> 72 </feature>
							<threshold> 26.810936 </threshold>
							<split pos="left">
								<feature> 134 </feature>
								<threshold> 211634.77 </threshold>
								<split pos="left">
									<feature> 134 </feature>
									<threshold> 158726.08 </threshold>
									<split pos="left">
										<output> 0.0848297 </output>
									</split>
									<split pos="right">
										<output> 1.0261433 </output>
									</split>
								</split>
								<split pos="right">
									<output> -1.6450031 </output>
								</split>
							</split>
							<split pos="right">
								<output> 0.36740494 </output>
							</split>
						</split>
					</split>
					<split pos="right">
						<output> -0.05820862 </output>
					</split>
				</split>
				<split pos="right">
					<output> 0.8815233 </output>
				</split>
			</split>
		</split>
	</tree>
	<tree id="51" weight="0.1">
		<split>
			<feature> 130 </feature>
			<threshold> 21059.648 </threshold>
			<split pos="left">
				<feature> 54 </feature>
				<threshold> 0.214286 </threshold>
				<split pos="left">
					<feature> 129 </feature>
					<threshold> 32.0 </threshold>
					<split pos="left">
						<feature> 69 </feature>
						<threshold> 0.04710942 </threshold>
						<split pos="left">
							<feature> 3 </feature>
							<threshold> 3.0 </threshold>
							<split pos="left">
								<output> -0.07176836 </output>
							</split>
							<split pos="right">
								<output> 0.18353198 </output>
							</split>
						</split>
						<split pos="right">
							<output> 1.0304469 </output>
						</split>
					</split>
					<split pos="right">
						<output> 0.31498924 </output>
					</split>
				</split>
				<split pos="right">
					<output> -0.49188745 </output>
				</split>
			</split>
			<split pos="right">
				<feature> 109 </feature>
				<threshold> 20.79318 </threshold>
				<split pos="left">
					<feature> 108 </feature>
					<threshold> 30.014242 </threshold>
					<split pos="left">
						<feature> 64 </feature>
						<threshold> 0.23885538 </threshold>
						<split pos="left">
							<feature> 110 </feature>
							<threshold> 20.158375 </threshold>
							<split pos="left">
								<output> -0.040348545 </output>
							</split>
							<split pos="right">
								<output> 0.16352184 </output>
							</split>
						</split>
						<split pos="right">
							<output> 0.23397869 </output>
						</split>
					</split>
					<split pos="right">
						<output> 0.5620972 </output>
					</split>
				</split>
				<split pos="right">
					<output> 0.4494336 </output>
				</split>
			</split>
		</split>
	</tree>
	<tree id="52" weight="0.1">
		<split>
			<feature> 55 </feature>
			<threshold> 0.012515141 </threshold>
			<split pos="left">
				<feature> 27 </feature>
				<threshold> 1.0 </threshold>
				<split pos="left">
					<feature> 110 </feature>
					<threshold> 33.82966 </threshold>
					<split pos="left">
						<feature> 11 </feature>
						<threshold> 0.0 </threshold>
						<split pos="left">
							<output> 0.60297614 </output>
						</split>
						<split pos="right">
							<feature> 115 </feature>
							<threshold> -30.789825 </threshold>
							<split pos="left">
								<output> -0.56721246 </output>
							</split>
							<split pos="right">
								<output> -0.089453526 </output>
							</split>
						</split>
					</split>
					<split pos="right">
						<output> 0.13049656 </output>
					</split>
				</split>
				<split pos="right">
					<output> 0.5956386 </output>
				</split>
			</split>
			<split pos="right">
				<feature> 135 </feature>
				<threshold> 108970.0 </threshold>
				<split pos="left">
					<feature> 130 </feature>
					<threshold> 64768.184 </threshold>
					<split pos="left">
						<feature> 134 </feature>
						<threshold> 52908.69 </threshold>
						<split pos="left">
							<feature> 129 </feature>
							<threshold> 25.0 </threshold>
							<split pos="left">
								<output> 0.037547395 </output>
							</split>
							<split pos="right">
								<output> 0.3892294 </output>
							</split>
						</split>
						<split pos="right">
							<output> -1.1429125 </output>
						</split>
					</split>
					<split pos="right">
						<output> 0.24632029 </output>
					</split>
				</split>
				<split pos="right">
					<output> 0.8808843 </output>
				</split>
			</split>
		</split>
	</tree>
	<tree id="53" weight="0.1">
		<split>
			<feature> 127 </feature>
			<threshold> 34.17578 </threshold>
			<split pos="left">
				<feature> 129 </feature>
				<threshold> 3.0 </threshold>
				<split pos="left">
					<feature> 134 </feature>
					<threshold> 0.0 </threshold>
					<split pos="left">
						<feature> 69 </feature>
						<threshold> 0.04710942 </threshold>
						<split pos="left">
							<feature> 11 </feature>
							<threshold> 528.90625 </threshold>
							<split pos="left">
								<feature> 90 </feature>
								<threshold> -78.62988 </threshold>
								<split pos="left">
									<output> 0.97962147 </output>
								</split>
								<split pos="right">
									<output> 0.1339019 </output>
								</split>
							</split>
							<split pos="right">
								<output> -0.17172115 </output>
							</split>
						</split>
						<split pos="right">
							<output> 1.1879843 </output>
						</split>
					</split>
					<split pos="right">
						<output> -0.10038119 </output>
					</split>
				</split>
				<split pos="right">
					<output> 0.23123994 </output>
				</split>
			</split>
			<split pos="right">
				<feature> 47 </feature>
				<threshold> 0.703125 </threshold>
				<split pos="left">
					<feature> 134 </feature>
					<threshold> 0.0 </threshold>
					<split pos="left">
						<feature> 135 </feature>
						<threshold> 21794.0 </threshold>
						<split pos="left">
							<output> -0.08062337 </output>
						</split>
						<split pos="right">
							<output> 1.1831646 </output>
						</split>
					</split>
					<split pos="right">
						<output> -0.10329965 </output>
					</split>
				</split>
				<split pos="right">
					<output> 0.15630634 </output>
				</split>
			</split>
		</split>
	</tree>
	<tree id="54" weight="0.1">
		<split>
			<feature> 133 </feature>
			<threshold> 10.0 </threshold>
			<split pos="left">
				<feature> 109 </feature>
				<threshold> 22.213211 </threshold>
				<split pos="left">
					<feature> 87 </feature>
					<threshold> 30.812656 </threshold>
					<split pos="left">
						<feature> 14 </feature>
						<threshold> 4.0 </threshold>
						<split pos="left">
							<feature> 108 </feature>
							<threshold> 25.567686 </threshold>
							<split pos="left">
								<feature> 90 </feature>
								<threshold> -78.62988 </threshold>
								<split pos="left">
									<output> 0.86479753 </output>
								</split>
								<split pos="right">
									<feature> 110 </feature>
									<threshold> 25.626888 </threshold>
									<split pos="left">
										<output> 0.05454625 </output>
									</split>
									<split pos="right">
										<output> 0.39491355 </output>
									</split>
								</split>
							</split>
							<split pos="right">
								<output> 0.57685876 </output>
							</split>
						</split>
						<split pos="right">
							<output> -0.0071376055 </output>
						</split>
					</split>
					<split pos="right">
						<output> 0.5059868 </output>
					</split>
				</split>
				<split pos="right">
					<output> 0.36225003 </output>
				</split>
			</split>
			<split pos="right">
				<feature> 135 </feature>
				<threshold> 98073.0 </threshold>
				<split pos="left">
					<feature> 134 </feature>
					<threshold> 0.0 </threshold>
					<split pos="left">
						<output> -0.07415836 </output>
					</split>
					<split pos="right">
						<output> -0.141614 </output>
					</split>
				</split>
				<split pos="right">
					<output> 1.1439024 </output>
				</split>
			</split>
		</split>
	</tree>
	<tree id="55" weight="0.1">
		<split>
			<feature> 87 </feature>
			<threshold> 30.812656 </threshold>
			<split pos="left">
				<feature> 3 </feature>
				<threshold> 1.0 </threshold>
				<split pos="left">
					<feature> 134 </feature>
					<threshold> 0.0 </threshold>
					<split pos="left">
						<feature> 49 </feature>
						<threshold> 0.14701708 </threshold>
						<split pos="left">
							<output> -0.11761969 </output>
						</split>
						<split pos="right">
							<output> 0.18784674 </output>
						</split>
					</split>
					<split pos="right">
						<output> -0.077574514 </output>
					</split>
				</split>
				<split pos="right">
					<feature> 134 </feature>
					<threshold> 52908.69 </threshold>
					<split pos="left">
						<feature> 127 </feature>
						<threshold> 28.140625 </threshold>
						<split pos="left">
							<output> 0.16250502 </output>
						</split>
						<split pos="right">
							<feature> 135 </feature>
							<threshold> 21794.0 </threshold>
							<split pos="left">
								<feature> 117 </feature>
								<threshold> -7.0282564 </threshold>
								<split pos="left">
									<feature> 131 </feature>
									<threshold> 65279.008 </threshold>
									<split pos="left">
										<output> -0.010829354 </output>
									</split>
									<split pos="right">
										<output> 0.24314387 </output>
									</split>
								</split>
								<split pos="right">
									<output> 0.53271204 </output>
								</split>
							</split>
							<split pos="right">
								<output> 1.2064826 </output>
							</split>
						</split>
					</split>
					<split pos="right">
						<output> 0.68540335 </output>
					</split>
				</split>
			</split>
			<split pos="right">
				<output> 0.34998173 </output>
			</split>
		</split>
	</tree>
	<tree id="56" weight="0.1">
		<split>
			<feature> 129 </feature>
			<threshold> 21.0 </threshold>
			<split pos="left">
				<feature> 22 </feature>
				<threshold> 150.0 </threshold>
				<split pos="left">
					<feature> 130 </feature>
					<threshold> 36395.977 </threshold>
					<split pos="left">
						<feature> 54 </feature>
						<threshold> 0.307692 </threshold>
						<split pos="left">
							<feature> 134 </feature>
							<threshold> 317452.16 </threshold>
							<split pos="left">
								<feature> 134 </feature>
								<threshold> 0.0 </threshold>
								<split pos="left">
									<feature> 15 </feature>
									<threshold> 2278.3125 </threshold>
									<split pos="left">
										<output> -0.037111443 </output>
									</split>
									<split pos="right">
										<output> -0.48084173 </output>
									</split>
								</split>
								<split pos="right">
									<output> -0.06897175 </output>
								</split>
							</split>
							<split pos="right">
								<output> 0.88918024 </output>
							</split>
						</split>
						<split pos="right">
							<output> -0.7953353 </output>
						</split>
					</split>
					<split pos="right">
						<feature> 109 </feature>
						<threshold> 17.1011 </threshold>
						<split pos="left">
							<feature> 108 </feature>
							<threshold> 18.897852 </threshold>
							<split pos="left">
								<output> -8.76645E-4 </output>
							</split>
							<split pos="right">
								<output> 0.27740055 </output>
							</split>
						</split>
						<split pos="right">
							<output> 0.3869635 </output>
						</split>
					</split>
				</split>
				<split pos="right">
					<output> -3.6763473 </output>
				</split>
			</split>
			<split pos="right">
				<output> 0.20168145 </output>
			</split>
		</split>
	</tree>
	<tree id="57" weight="0.1">
		<split>
			<feature> 87 </feature>
			<threshold> 30.812656 </threshold>
			<split pos="left">
				<feature> 110 </feature>
				<threshold> 33.82966 </threshold>
				<split pos="left">
					<feature> 134 </feature>
					<threshold> 0.0 </threshold>
					<split pos="left">
						<feature> 123 </feature>
						<threshold> -8.186691 </threshold>
						<split pos="left">
							<output> -0.14714865 </output>
						</split>
						<split pos="right">
							<feature> 129 </feature>
							<threshold> 21.0 </threshold>
							<split pos="left">
								<output> 0.048512477 </output>
							</split>
							<split pos="right">
								<output> 0.35270277 </output>
							</split>
						</split>
					</split>
					<split pos="right">
						<feature> 18 </feature>
						<threshold> 22.444408 </threshold>
						<split pos="left">
							<feature> 136 </feature>
							<threshold> 0.0 </threshold>
							<split pos="left">
								<output> -0.42130026 </output>
							</split>
							<split pos="right">
								<feature> 120 </feature>
								<threshold> -4.3564167 </threshold>
								<split pos="left">
									<feature> 18 </feature>
									<threshold> 5.0704417 </threshold>
									<split pos="left">
										<output> -0.95301574 </output>
									</split>
									<split pos="right">
										<output> -0.04354811 </output>
									</split>
								</split>
								<split pos="right">
									<output> 0.29087043 </output>
								</split>
							</split>
						</split>
						<split pos="right">
							<output> 0.38624465 </output>
						</split>
					</split>
				</split>
				<split pos="right">
					<output> 0.121314794 </output>
