## LambdaMART
## No. of trees = 1000
## No. of leaves = 10
## No. of threshold candidates = 256
## Learning rate = 0.1
## Stop early = 100

<ensemble>
	<tree id="1" weight="0.1">
		<split>
			<feature> 134 </feature>
			<threshold> 0.0 </threshold>
			<split pos="left">
				<feature> 108 </feature>
				<threshold> 13.33966 </threshold>
				<split pos="left">
					<feature> 130 </feature>
					<threshold> 355.60547 </threshold>
					<split pos="left">
						<feature> 18 </feature>
						<threshold> 17.124624 </threshold>
						<split pos="left">
							<feature> 129 </feature>
							<threshold> 2.0 </threshold>
							<split pos="left">
								<output> -0.5532202 </output>
							</split>
							<split pos="right">
								<output> -0.14200334 </output>
							</split>
						</split>
						<split pos="right">
							<output> -0.27021614 </output>
						</split>
					</split>
					<split pos="right">
						<output> -0.14362344 </output>
					</split>
				</split>
				<split pos="right">
					<feature> 109 </feature>
					<threshold> 19.084442 </threshold>
					<split pos="left">
						<feature> 18 </feature>
						<threshold> 7.0371227 </threshold>
						<split pos="left">
							<output> 1.4711542 </output>
						</split>
						<split pos="right">
							<feature> 108 </feature>
							<threshold> 21.12113 </threshold>
							<split pos="left">
								<feature> 14 </feature>
								<threshold> 2.0 </threshold>
								<split pos="left">
									<output> 1.9828966 </output>
								</split>
								<split pos="right">
									<output> 0.095282964 </output>
								</split>
							</split>
							<split pos="right">
								<output> 0.29288355 </output>
							</split>
						</split>
					</split>
					<split pos="right">
						<output> 0.5264157 </output>
					</split>
				</split>
			</split>
			<split pos="right">
				<output> 1.2064222 </output>
			</split>
		</split>
	</tree>
	<tree id="2" weight="0.1">
		<split>
			<feature> 134 </feature>
			<threshold> 0.0 </threshold>
			<split pos="left">
				<feature> 109 </feature>
				<threshold> 19.309635 </threshold>
				<split pos="left">
					<feature> 108 </feature>
					<threshold> 21.12113 </threshold>
					<split pos="left">
						<output> -0.7901822 </output>
					</split>
					<split pos="right">
						<output> 0.13666259 </output>
					</split>
				</split>
				<split pos="right">
					<output> 0.5561973 </output>
				</split>
			</split>
			<split pos="right">
				<feature> 130 </feature>
				<threshold> 62723.34 </threshold>
				<split pos="left">
					<feature> 136 </feature>
					<threshold> 0.0 </threshold>
					<split pos="left">
						<output> 0.78434944 </output>
					</split>
					<split pos="right">
						<feature> 18 </feature>
						<threshold> 17.124624 </threshold>
						<split pos="left">
							<feature> 30 </feature>
							<threshold> 30.839844 </threshold>
							<split pos="left">
								<output> 0.94711554 </output>
							</split>
							<split pos="right">
								<output> 1.1839614 </output>
							</split>
						</split>
						<split pos="right">
							<output> 1.2577752 </output>
						</split>
					</split>
				</split>
				<split pos="right">
					<feature> 132 </feature>
					<threshold> 126.0 </threshold>
					<split pos="left">
						<feature> 14 </feature>
						<threshold> 4.0 </threshold>
						<split pos="left">
							<output> 1.4602306 </output>
						</split>
						<split pos="right">
							<output> 1.1846367 </output>
						</split>
					</split>
					<split pos="right">
						<output> 1.8313228 </output>
					</split>
				</split>
			</split>
		</split>
	</tree>
	<tree id="3" weight="0.1">
		<split>
			<feature> 134 </feature>
			<threshold> 0.0 </threshold>
			<split pos="left">
				<feature> 109 </feature>
				<threshold> 19.309635 </threshold>
				<split pos="left">
					<output> -0.6582923 </output>
				</split>
				<split pos="right">
					<output> 0.46107355 </output>
				</split>
			</split>
			<split pos="right">
				<feature> 130 </feature>
				<threshold> 62723.34 </threshold>
				<split pos="left">
					<feature> 136 </feature>
					<threshold> 0.0 </threshold>
					<split pos="left">
						<output> 0.70731425 </output>
					</split>
					<split pos="right">
						<feature> 18 </feature>
						<threshold> 17.124624 </threshold>
						<split pos="left">
							<output> 0.8873592 </output>
						</split>
						<split pos="right">
							<output> 1.1255374 </output>
						</split>
					</split>
				</split>
				<split pos="right">
					<feature> 14 </feature>
					<threshold> 4.0 </threshold>
					<split pos="left">
						<feature> 109 </feature>
						<threshold> 12.779038 </threshold>
						<split pos="left">
							<feature> 132 </feature>
							<threshold> 126.0 </threshold>
							<split pos="left">
								<feature> 108 </feature>
								<threshold> 21.12113 </threshold>
								<split pos="left">
									<output> 1.1677905 </output>
								</split>
								<split pos="right">
									<output> 1.5704883 </output>
								</split>
							</split>
							<split pos="right">
								<output> 1.6220324 </output>
							</split>
						</split>
						<split pos="right">
							<output> 1.5415325 </output>
						</split>
					</split>
					<split pos="right">
						<output> 1.0404845 </output>
					</split>
				</split>
			</split>
		</split>
	</tree>
	<tree id="4" weight="0.1">
		<split>
			<feature> 134 </feature>
			<threshold> 0.0 </threshold>
			<split pos="left">
				<feature> 109 </feature>
				<threshold> 19.309635 </threshold>
				<split pos="left">
					<output> -0.57721114 </output>
				</split>
				<split pos="right">
					<output> 0.39325866 </output>
				</split>
			</split>
			<split pos="right">
				<feature> 130 </feature>
				<threshold> 62723.34 </threshold>
				<split pos="left">
					<feature> 136 </feature>
					<threshold> 0.0 </threshold>
					<split pos="left">
						<output> 0.6005563 </output>
					</split>
					<split pos="right">
						<feature> 18 </feature>
						<threshold> 17.124624 </threshold>
						<split pos="left">
							<output> 0.7644623 </output>
						</split>
						<split pos="right">
							<output> 0.99489737 </output>
						</split>
					</split>
				</split>
				<split pos="right">
					<feature> 14 </feature>
					<threshold> 4.0 </threshold>
					<split pos="left">
						<feature> 109 </feature>
						<threshold> 12.779038 </threshold>
						<split pos="left">
							<feature> 132 </feature>
							<threshold> 126.0 </threshold>
							<split pos="left">
								<feature> 108 </feature>
								<threshold> 21.12113 </threshold>
								<split pos="left">
									<output> 1.0380951 </output>
								</split>
								<split pos="right">
									<output> 1.4028797 </output>
								</split>
							</split>
							<split pos="right">
								<output> 1.4827977 </output>
							</split>
						</split>
						<split pos="right">
							<output> 1.3936521 </output>
						</split>
					</split>
					<split pos="right">
						<output> 0.91072744 </output>
					</split>
				</split>
			</split>
		</split>
	</tree>
	<tree id="5" weight="0.1">
		<split>
			<feature> 134 </feature>
			<threshold> 0.0 </threshold>
			<split pos="left">
				<feature> 109 </feature>
				<threshold> 19.309635 </threshold>
				<split pos="left">
					<feature> 108 </feature>
					<threshold> 13.33966 </threshold>
					<split pos="left">
						<output> -0.749007 </output>
					</split>
					<split pos="right">
						<output> -0.10844083 </output>
					</split>
				</split>
				<split pos="right">
					<output> 0.32794574 </output>
				</split>
			</split>
			<split pos="right">
				<feature> 130 </feature>
				<threshold> 62723.34 </threshold>
				<split pos="left">
					<feature> 136 </feature>
					<threshold> 0.0 </threshold>
					<split pos="left">
						<output> 0.51103383 </output>
					</split>
					<split pos="right">
						<feature> 18 </feature>
						<threshold> 17.124624 </threshold>
						<split pos="left">
							<output> 0.6615506 </output>
						</split>
						<split pos="right">
							<output> 0.8873221 </output>
						</split>
					</split>
				</split>
				<split pos="right">
					<feature> 14 </feature>
					<threshold> 4.0 </threshold>
					<split pos="left">
						<feature> 109 </feature>
						<threshold> 12.779038 </threshold>
						<split pos="left">
							<feature> 132 </feature>
							<threshold> 126.0 </threshold>
							<split pos="left">
								<output> 0.96080905 </output>
							</split>
							<split pos="right">
								<output> 1.3796532 </output>
							</split>
						</split>
						<split pos="right">
							<output> 1.2837229 </output>
						</split>
					</split>
					<split pos="right">
						<output> 0.8026603 </output>
					</split>
				</split>
			</split>
		</split>
	</tree>
	<tree id="6" weight="0.1">
		<split>
			<feature> 134 </feature>
			<threshold> 0.0 </threshold>
			<split pos="left">
				<feature> 108 </feature>
				<threshold> 21.12113 </threshold>
				<split pos="left">
					<feature> 108 </feature>
					<threshold> 13.33966 </threshold>
					<split pos="left">
						<output> -0.6434812 </output>
					</split>
					<split pos="right">
						<output> -0.1574644 </output>
					</split>
				</split>
				<split pos="right">
					<output> 0.23076214 </output>
				</split>
			</split>
			<split pos="right">
				<feature> 130 </feature>
				<threshold> 62723.34 </threshold>
				<split pos="left">
					<feature> 136 </feature>
					<threshold> 0.0 </threshold>
					<split pos="left">
						<output> 0.43369874 </output>
					</split>
					<split pos="right">
						<feature> 18 </feature>
						<threshold> 17.124624 </threshold>
						<split pos="left">
							<output> 0.570749 </output>
						</split>
						<split pos="right">
							<output> 0.80013865 </output>
						</split>
					</split>
				</split>
				<split pos="right">
					<feature> 14 </feature>
					<threshold> 4.0 </threshold>
					<split pos="left">
						<feature> 109 </feature>
						<threshold> 12.779038 </threshold>
						<split pos="left">
							<feature> 132 </feature>
							<threshold> 126.0 </threshold>
							<split pos="left">
								<output> 0.864157 </output>
							</split>
							<split pos="right">
								<output> 1.2928754 </output>
							</split>
						</split>
						<split pos="right">
							<output> 1.1963252 </output>
						</split>
					</split>
					<split pos="right">
						<output> 0.70650744 </output>
					</split>
				</split>
			</split>
		</split>
	</tree>
	<tree id="7" weight="0.1">
		<split>
			<feature> 134 </feature>
			<threshold> 0.0 </threshold>
			<split pos="left">
				<feature> 109 </feature>
				<threshold> 20.4356 </threshold>
				<split pos="left">
					<feature> 108 </feature>
					<threshold> 13.33966 </threshold>
					<split pos="left">
						<output> -0.58705825 </output>
					</split>
					<split pos="right">
						<output> -0.06303213 </output>
					</split>
				</split>
				<split pos="right">
					<output> 0.34496802 </output>
				</split>
			</split>
			<split pos="right">
				<feature> 130 </feature>
				<threshold> 62723.34 </threshold>
				<split pos="left">
					<feature> 136 </feature>
					<threshold> 0.0 </threshold>
					<split pos="left">
						<output> 0.36907262 </output>
					</split>
					<split pos="right">
						<feature> 18 </feature>
						<threshold> 18.385563 </threshold>
						<split pos="left">
							<output> 0.5035562 </output>
						</split>
						<split pos="right">
							<output> 0.7513869 </output>
						</split>
					</split>
				</split>
				<split pos="right">
					<feature> 14 </feature>
					<threshold> 4.0 </threshold>
					<split pos="left">
						<feature> 109 </feature>
						<threshold> 12.779038 </threshold>
						<split pos="left">
							<feature> 132 </feature>
							<threshold> 126.0 </threshold>
							<split pos="left">
								<output> 0.7803775 </output>
							</split>
							<split pos="right">
								<output> 1.2261117 </output>
							</split>
						</split>
						<split pos="right">
							<output> 1.123719 </output>
						</split>
					</split>
					<split pos="right">
						<output> 0.6232496 </output>
					</split>
				</split>
			</split>
		</split>
	</tree>
	<tree id="8" weight="0.1">
		<split>
			<feature> 134 </feature>
			<threshold> 0.0 </threshold>
			<split pos="left">
				<feature> 109 </feature>
				<threshold> 20.4356 </threshold>
				<split pos="left">
					<feature> 108 </feature>
					<threshold> 21.12113 </threshold>
					<split pos="left">
						<feature> 60 </feature>
						<threshold> 0.014792521 </threshold>
						<split pos="left">
							<output> -0.64656734 </output>
						</split>
						<split pos="right">
							<output> -0.29321122 </output>
						</split>
					</split>
					<split pos="right">
						<output> 0.14932877 </output>
					</split>
				</split>
				<split pos="right">
					<output> 0.29947203 </output>
				</split>
			</split>
			<split pos="right">
				<feature> 130 </feature>
				<threshold> 62723.34 </threshold>
				<split pos="left">
					<feature> 18 </feature>
					<threshold> 18.385563 </threshold>
					<split pos="left">
						<output> 0.4012574 </output>
					</split>
					<split pos="right">
						<output> 0.6603286 </output>
					</split>
				</split>
				<split pos="right">
					<feature> 14 </feature>
					<threshold> 4.0 </threshold>
					<split pos="left">
						<feature> 110 </feature>
						<threshold> 22.892632 </threshold>
						<split pos="left">
							<feature> 132 </feature>
							<threshold> 126.0 </threshold>
							<split pos="left">
								<output> 0.68979865 </output>
							</split>
							<split pos="right">
								<output> 1.1553854 </output>
							</split>
						</split>
						<split pos="right">
							<output> 1.1065276 </output>
						</split>
					</split>
					<split pos="right">
						<output> 0.5495244 </output>
					</split>
				</split>
			</split>
		</split>
	</tree>
	<tree id="9" weight="0.1">
		<split>
			<feature> 134 </feature>
			<threshold> 0.0 </threshold>
			<split pos="left">
				<feature> 3 </feature>
				<threshold> 2.0 </threshold>
				<split pos="left">
					<feature> 65 </feature>
					<threshold> 0.005917008 </threshold>
					<split pos="left">
						<output> -0.7009875 </output>
					</split>
					<split pos="right">
						<feature> 16 </feature>
						<threshold> 18.049637 </threshold>
						<split pos="left">
							<output> -0.26383987 </output>
						</split>
						<split pos="right">
							<output> 0.20470148 </output>
						</split>
					</split>
				</split>
				<split pos="right">
					<output> 0.2737009 </output>
				</split>
			</split>
			<split pos="right">
				<feature> 130 </feature>
				<threshold> 62723.34 </threshold>
				<split pos="left">
					<feature> 108 </feature>
					<threshold> 27.790964 </threshold>
					<split pos="left">
						<feature> 136 </feature>
						<threshold> 0.0 </threshold>
						<split pos="left">
							<output> 0.18484429 </output>
						</split>
						<split pos="right">
							<output> 0.4204735 </output>
						</split>
					</split>
					<split pos="right">
						<output> 0.78325284 </output>
					</split>
				</split>
				<split pos="right">
					<feature> 14 </feature>
					<threshold> 4.0 </threshold>
					<split pos="left">
						<feature> 110 </feature>
						<threshold> 22.892632 </threshold>
						<split pos="left">
							<output> 0.6327195 </output>
						</split>
						<split pos="right">
							<output> 1.0460153 </output>
						</split>
					</split>
					<split pos="right">
						<output> 0.4871147 </output>
					</split>
				</split>
			</split>
		</split>
	</tree>
	<tree id="10" weight="0.1">
		<split>
			<feature> 134 </feature>
			<threshold> 0.0 </threshold>
			<split pos="left">
				<feature> 3 </feature>
				<threshold> 2.0 </threshold>
				<split pos="left">
					<feature> 65 </feature>
					<threshold> 0.005917008 </threshold>
					<split pos="left">
						<output> -0.6748713 </output>
					</split>
					<split pos="right">
						<feature> 16 </feature>
						<threshold> 18.947119 </threshold>
						<split pos="left">
							<output> -0.24471396 </output>
						</split>
						<split pos="right">
							<output> 0.20678793 </output>
						</split>
					</split>
				</split>
				<split pos="right">
					<output> 0.30421638 </output>
				</split>
			</split>
			<split pos="right">
				<feature> 130 </feature>
				<threshold> 62723.34 </threshold>
				<split pos="left">
					<feature> 108 </feature>
					<threshold> 27.790964 </threshold>
					<split pos="left">
						<feature> 129 </feature>
						<threshold> 1.0 </threshold>
						<split pos="left">
							<output> 0.2079075 </output>
						</split>
						<split pos="right">
							<output> 0.459672 </output>
						</split>
					</split>
					<split pos="right">
						<output> 0.69532233 </output>
					</split>
				</split>
				<split pos="right">
					<feature> 14 </feature>
					<threshold> 4.0 </threshold>
					<split pos="left">
						<feature> 109 </feature>
						<threshold> 11.878266 </threshold>
						<split pos="left">
							<output> 0.57425076 </output>
						</split>
						<split pos="right">
							<output> 0.963536 </output>
						</split>
					</split>
					<split pos="right">
						<output> 0.42947572 </output>
					</split>
				</split>
			</split>
		</split>
	</tree>
	<tree id="11" weight="0.1">
		<split>
			<feature> 134 </feature>
			<threshold> 0.0 </threshold>
			<split pos="left">
				<feature> 3 </feature>
				<threshold> 2.0 </threshold>
				<split pos="left">
					<feature> 65 </feature>
					<threshold> 0.005917008 </threshold>
					<split pos="left">
						<output> -0.62944174 </output>
					</split>
					<split pos="right">
						<feature> 16 </feature>
						<threshold> 18.947119 </threshold>
						<split pos="left">
							<output> -0.21501397 </output>
						</split>
						<split pos="right">
							<output> 0.17800654 </output>
						</split>
					</split>
				</split>
				<split pos="right">
					<output> 0.27956316 </output>
				</split>
			</split>
			<split pos="right">
				<feature> 130 </feature>
				<threshold> 62723.34 </threshold>
				<split pos="left">
					<feature> 108 </feature>
					<threshold> 27.790964 </threshold>
					<split pos="left">
						<feature> 129 </feature>
						<threshold> 1.0 </threshold>
						<split pos="left">
							<output> 0.15500727 </output>
						</split>
						<split pos="right">
							<output> 0.39728326 </output>
						</split>
					</split>
					<split pos="right">
						<output> 0.6406763 </output>
					</split>
				</split>
				<split pos="right">
					<feature> 14 </feature>
					<threshold> 4.0 </threshold>
					<split pos="left">
						<feature> 110 </feature>
						<threshold> 22.892632 </threshold>
						<split pos="left">
							<output> 0.5140379 </output>
						</split>
						<split pos="right">
							<output> 0.95290667 </output>
						</split>
					</split>
					<split pos="right">
						<output> 0.37843606 </output>
					</split>
				</split>
			</split>
		</split>
	</tree>
	<tree id="12" weight="0.1">
		<split>
			<feature> 134 </feature>
			<threshold> 0.0 </threshold>
			<split pos="left">
				<feature> 3 </feature>
				<threshold> 2.0 </threshold>
				<split pos="left">
					<feature> 65 </feature>
					<threshold> 0.008875512 </threshold>
					<split pos="left">
						<output> -0.51311946 </output>
					</split>
					<split pos="right">
						<feature> 49 </feature>
						<threshold> 0.227273 </threshold>
						<split pos="left">
							<output> -0.17586732 </output>
						</split>
						<split pos="right">
							<output> 0.15252978 </output>
						</split>
					</split>
				</split>
				<split pos="right">
					<output> 0.25866747 </output>
				</split>
			</split>
			<split pos="right">
				<feature> 130 </feature>
				<threshold> 64512.58 </threshold>
				<split pos="left">
					<feature> 108 </feature>
					<threshold> 27.790964 </threshold>
					<split pos="left">
						<feature> 129 </feature>
						<threshold> 1.0 </threshold>
						<split pos="left">
							<output> 0.140189 </output>
						</split>
						<split pos="right">
							<feature> 126 </feature>
							<threshold> 1.0 </threshold>
							<split pos="left">
								<output> 0.6106495 </output>
							</split>
							<split pos="right">
								<output> 0.2347159 </output>
							</split>
						</split>
					</split>
					<split pos="right">
						<output> 0.6035809 </output>
					</split>
				</split>
				<split pos="right">
					<feature> 64 </feature>
					<threshold> 0.22437932 </threshold>
					<split pos="left">
						<output> 0.46392432 </output>
					</split>
					<split pos="right">
						<output> 0.8515326 </output>
					</split>
				</split>
			</split>
		</split>
	</tree>
	<tree id="13" weight="0.1">
		<split>
			<feature> 134 </feature>
			<threshold> 0.0 </threshold>
			<split pos="left">
				<feature> 3 </feature>
				<threshold> 2.0 </threshold>
				<split pos="left">
					<feature> 65 </feature>
					<threshold> 0.008875512 </threshold>
					<split pos="left">
						<output> -0.5161975 </output>
					</split>
					<split pos="right">
						<feature> 49 </feature>
						<threshold> 0.227273 </threshold>
						<split pos="left">
							<output> -0.16885068 </output>
						</split>
						<split pos="right">
							<output> 0.16545069 </output>
						</split>
					</split>
				</split>
				<split pos="right">
					<feature> 129 </feature>
					<threshold> 88.0 </threshold>
					<split pos="left">
						<output> 0.24095474 </output>
					</split>
					<split pos="right">
						<output> 1.6688029 </output>
					</split>
				</split>
			</split>
			<split pos="right">
				<feature> 130 </feature>
				<threshold> 65023.79 </threshold>
				<split pos="left">
					<feature> 127 </feature>
					<threshold> 18.964844 </threshold>
					<split pos="left">
						<output> 0.50179034 </output>
					</split>
					<split pos="right">
						<feature> 18 </feature>
						<threshold> 17.124624 </threshold>
						<split pos="left">
							<feature> 129 </feature>
							<threshold> 1.0 </threshold>
							<split pos="left">
								<output> -0.033638947 </output>
							</split>
							<split pos="right">
								<output> 0.20964064 </output>
							</split>
						</split>
						<split pos="right">
							<output> 0.43078586 </output>
						</split>
					</split>
				</split>
				<split pos="right">
					<output> 0.56423646 </output>
				</split>
			</split>
		</split>
	</tree>
	<tree id="14" weight="0.1">
		<split>
			<feature> 134 </feature>
			<threshold> 0.0 </threshold>
			<split pos="left">
				<feature> 3 </feature>
				<threshold> 2.0 </threshold>
				<split pos="left">
					<feature> 65 </feature>
					<threshold> 0.008875512 </threshold>
					<split pos="left">
						<output> -0.4807534 </output>
					</split>
					<split pos="right">
						<feature> 49 </feature>
						<threshold> 0.227273 </threshold>
						<split pos="left">
							<output> -0.1507544 </output>
						</split>
						<split pos="right">
							<output> 0.14397079 </output>
						</split>
					</split>
				</split>
				<split pos="right">
					<feature> 129 </feature>
					<threshold> 88.0 </threshold>
					<split pos="left">
						<output> 0.22037755 </output>
					</split>
					<split pos="right">
						<output> 1.5317458 </output>
					</split>
				</split>
			</split>
			<split pos="right">
				<feature> 130 </feature>
				<threshold> 64512.58 </threshold>
				<split pos="left">
					<feature> 127 </feature>
					<threshold> 18.964844 </threshold>
					<split pos="left">
						<output> 0.4595633 </output>
					</split>
					<split pos="right">
						<feature> 19 </feature>
						<threshold> 17.354837 </threshold>
						<split pos="left">
							<output> 0.06334061 </output>
						</split>
						<split pos="right">
							<output> 0.36551523 </output>
						</split>
					</split>
				</split>
				<split pos="right">
					<feature> 64 </feature>
					<threshold> 0.22437932 </threshold>
					<split pos="left">
						<output> 0.41224247 </output>
					</split>
					<split pos="right">
						<output> 0.77655727 </output>
					</split>
				</split>
			</split>
		</split>
	</tree>
	<tree id="15" weight="0.1">
		<split>
			<feature> 134 </feature>
			<threshold> 0.0 </threshold>
			<split pos="left">
				<feature> 4 </feature>
				<threshold> 3.0 </threshold>
				<split pos="left">
					<feature> 108 </feature>
					<threshold> 11.116384 </threshold>
					<split pos="left">
						<output> -0.32433453 </output>
					</split>
					<split pos="right">
						<feature> 14 </feature>
						<threshold> 4.0 </threshold>
						<split pos="left">
							<output> 0.4555666 </output>
						</split>
						<split pos="right">
							<feature> 117 </feature>
							<threshold> -2.8111572 </threshold>
							<split pos="left">
								<feature> 107 </feature>
								<threshold> 17.860775 </threshold>
								<split pos="left">
									<output> -0.056379735 </output>
								</split>
								<split pos="right">
									<output> 0.35629198 </output>
								</split>
							</split>
							<split pos="right">
								<output> 0.56751263 </output>
							</split>
						</split>
					</split>
				</split>
				<split pos="right">
					<output> 0.5183087 </output>
				</split>
			</split>
			<split pos="right">
				<feature> 130 </feature>
				<threshold> 64512.58 </threshold>
				<split pos="left">
					<feature> 127 </feature>
					<threshold> 18.964844 </threshold>
					<split pos="left">
						<output> 0.3975321 </output>
					</split>
					<split pos="right">
						<feature> 108 </feature>
						<threshold> 27.790964 </threshold>
						<split pos="left">
							<output> 0.13875604 </output>
						</split>
						<split pos="right">
							<output> 0.4486057 </output>
						</split>
					</split>
				</split>
				<split pos="right">
					<output> 0.45640734 </output>
				</split>
			</split>
		</split>
	</tree>
	<tree id="16" weight="0.1">
		<split>
			<feature> 134 </feature>
			<threshold> 0.0 </threshold>
			<split pos="left">
				<feature> 4 </feature>
				<threshold> 3.0 </threshold>
				<split pos="left">
					<feature> 8 </feature>
					<threshold> 0.5 </threshold>
					<split pos="left">
						<output> -0.29828593 </output>
					</split>
					<split pos="right">
						<feature> 14 </feature>
						<threshold> 3.0 </threshold>
						<split pos="left">
							<output> 0.8638412 </output>
						</split>
						<split pos="right">
							<feature> 107 </feature>
							<threshold> 17.860775 </threshold>
							<split pos="left">
								<feature> 14 </feature>
								<threshold> 4.0 </threshold>
								<split pos="left">
									<output> 0.34025067 </output>
								</split>
								<split pos="right">
									<output> -0.050520767 </output>
								</split>
							</split>
							<split pos="right">
								<output> 0.36618638 </output>
							</split>
						</split>
					</split>
				</split>
				<split pos="right">
					<output> 0.47629318 </output>
				</split>
			</split>
			<split pos="right">
				<feature> 135 </feature>
				<threshold> 9175.684 </threshold>
				<split pos="left">
					<feature> 127 </feature>
					<threshold> 18.964844 </threshold>
					<split pos="left">
						<output> 0.37263873 </output>
					</split>
					<split pos="right">
						<feature> 116 </feature>
						<threshold> -13.054282 </threshold>
						<split pos="left">
							<output> 0.34931266 </output>
						</split>
						<split pos="right">
							<output> 0.06450577 </output>
						</split>
					</split>
				</split>
				<split pos="right">
					<output> 0.7086961 </output>
				</split>
			</split>
		</split>
	</tree>
	<tree id="17" weight="0.1">
		<split>
			<feature> 134 </feature>
			<threshold> 0.0 </threshold>
			<split pos="left">
				<feature> 3 </feature>
				<threshold> 1.0 </threshold>
				<split pos="left">
					<output> -0.26432875 </output>
				</split>
				<split pos="right">
					<feature> 14 </feature>
					<threshold> 3.0 </threshold>
					<split pos="left">
						<output> 0.85201323 </output>
					</split>
					<split pos="right">
						<feature> 4 </feature>
						<threshold> 3.0 </threshold>
						<split pos="left">
							<feature> 117 </feature>
							<threshold> -7.0282564 </threshold>
							<split pos="left">
								<feature> 107 </feature>
								<threshold> 17.860775 </threshold>
								<split pos="left">
									<output> 0.026734803 </output>
								</split>
								<split pos="right">
									<output> 0.3470659 </output>
								</split>
							</split>
							<split pos="right">
								<output> 0.7466121 </output>
							</split>
						</split>
						<split pos="right">
							<output> 0.43811417 </output>
						</split>
					</split>
				</split>
			</split>
			<split pos="right">
				<feature> 135 </feature>
				<threshold> 9175.684 </threshold>
				<split pos="left">
					<feature> 127 </feature>
					<threshold> 18.964844 </threshold>
					<split pos="left">
						<output> 0.33496416 </output>
					</split>
					<split pos="right">
						<feature> 116 </feature>
						<threshold> -13.054282 </threshold>
						<split pos="left">
							<output> 0.31137446 </output>
						</split>
						<split pos="right">
							<output> 0.046766784 </output>
						</split>
					</split>
				</split>
				<split pos="right">
					<output> 0.65679395 </output>
				</split>
			</split>
		</split>
	</tree>
	<tree id="18" weight="0.1">
		<split>
			<feature> 134 </feature>
			<threshold> 0.0 </threshold>
			<split pos="left">
				<feature> 108 </feature>
				<threshold> 11.116384 </threshold>
				<split pos="left">
					<output> -0.28438976 </output>
				</split>
				<split pos="right">
					<feature> 14 </feature>
					<threshold> 3.0 </threshold>
					<split pos="left">
						<output> 0.71060395 </output>
					</split>
					<split pos="right">
						<feature> 4 </feature>
						<threshold> 3.0 </threshold>
						<split pos="left">
							<feature> 107 </feature>
							<threshold> 19.013084 </threshold>
							<split pos="left">
								<feature> 14 </feature>
								<threshold> 4.0 </threshold>
								<split pos="left">
									<output> 0.39365146 </output>
								</split>
								<split pos="right">
									<output> -0.030995704 </output>
								</split>
							</split>
							<split pos="right">
								<output> 0.36065432 </output>
							</split>
						</split>
						<split pos="right">
							<output> 0.40050122 </output>
						</split>
					</split>
				</split>
			</split>
			<split pos="right">
				<feature> 135 </feature>
				<threshold> 9175.684 </threshold>
				<split pos="left">
					<feature> 130 </feature>
					<threshold> 47131.406 </threshold>
					<split pos="left">
						<output> 0.0774252 </output>
					</split>
					<split pos="right">
						<feature> 110 </feature>
						<threshold> 28.361145 </threshold>
						<split pos="left">
							<output> 0.17245609 </output>
						</split>
						<split pos="right">
							<output> 0.7731787 </output>
						</split>
					</split>
				</split>
				<split pos="right">
					<output> 0.6151037 </output>
				</split>
			</split>
		</split>
	</tree>
	<tree id="19" weight="0.1">
		<split>
			<feature> 134 </feature>
			<threshold> 0.0 </threshold>
			<split pos="left">
				<feature> 8 </feature>
				<threshold> 0.5 </threshold>
				<split pos="left">
					<output> -0.24980853 </output>
				</split>
				<split pos="right">
					<feature> 14 </feature>
					<threshold> 3.0 </threshold>
					<split pos="left">
						<output> 0.60797244 </output>
					</split>
					<split pos="right">
						<feature> 4 </feature>
						<threshold> 3.0 </threshold>
						<split pos="left">
							<feature> 107 </feature>
							<threshold> 17.860775 </threshold>
							<split pos="left">
								<feature> 124 </feature>
								<threshold> -125.342545 </threshold>
								<split pos="left">
									<output> 1.3299493 </output>
								</split>
								<split pos="right">
									<output> 0.022446379 </output>
								</split>
							</split>
							<split pos="right">
								<output> 0.30924842 </output>
							</split>
						</split>
						<split pos="right">
							<output> 0.37048113 </output>
						</split>
					</split>
				</split>
			</split>
			<split pos="right">
				<feature> 135 </feature>
				<threshold> 9175.684 </threshold>
				<split pos="left">
					<feature> 18 </feature>
					<threshold> 10.819936 </threshold>
					<split pos="left">
						<output> -0.17250904 </output>
					</split>
					<split pos="right">
						<feature> 127 </feature>
						<threshold> 23.953125 </threshold>
						<split pos="left">
							<output> 0.42920303 </output>
						</split>
						<split pos="right">
							<output> 0.104964145 </output>
						</split>
					</split>
				</split>
				<split pos="right">
					<output> 0.54721636 </output>
				</split>
			</split>
		</split>
	</tree>
	<tree id="20" weight="0.1">
		<split>
			<feature> 134 </feature>
			<threshold> 0.0 </threshold>
			<split pos="left">
				<feature> 50 </feature>
				<threshold> 0.033592988 </threshold>
				<split pos="left">
					<output> -0.2695057 </output>
				</split>
				<split pos="right">
					<feature> 14 </feature>
					<threshold> 3.0 </threshold>
					<split pos="left">
						<output> 0.56072706 </output>
					</split>
					<split pos="right">
						<feature> 4 </feature>
						<threshold> 3.0 </threshold>
						<split pos="left">
							<feature> 107 </feature>
							<threshold> 19.013084 </threshold>
							<split pos="left">
								<feature> 14 </feature>
								<threshold> 4.0 </threshold>
								<split pos="left">
									<output> 0.3103754 </output>
								</split>
								<split pos="right">
									<output> -0.040173803 </output>
								</split>
							</split>
							<split pos="right">
								<output> 0.3149366 </output>
							</split>
						</split>
						<split pos="right">
							<output> 0.33644688 </output>
						</split>
					</split>
				</split>
			</split>
			<split pos="right">
				<feature> 135 </feature>
				<threshold> 9175.684 </threshold>
				<split pos="left">
					<feature> 108 </feature>
					<threshold> 13.33966 </threshold>
					<split pos="left">
						<output> -0.033660106 </output>
					</split>
					<split pos="right">
						<feature> 130 </feature>
						<threshold> 65279.395 </threshold>
						<split pos="left">
							<output> 0.23396997 </output>
						</split>
						<split pos="right">
							<output> 0.7717462 </output>
						</split>
					</split>
				</split>
				<split pos="right">
					<output> 0.5119582 </output>
				</split>
			</split>
		</split>
	</tree>
	<tree id="21" weight="0.1">
		<split>
			<feature> 134 </feature>
			<threshold> 0.0 </threshold>
			<split pos="left">
				<feature> 14 </feature>
				<threshold> 3.0 </threshold>
				<split pos="left">
					<output> 0.48230755 </output>
				</split>
				<split pos="right">
					<feature> 65 </feature>
					<threshold> 0.008875512 </threshold>
					<split pos="left">
						<output> -0.35485306 </output>
					</split>
					<split pos="right">
						<feature> 4 </feature>
						<threshold> 3.0 </threshold>
						<split pos="left">
							<feature> 107 </feature>
							<threshold> 15.556157 </threshold>
							<split pos="left">
								<feature> 14 </feature>
								<threshold> 4.0 </threshold>
								<split pos="left">
									<output> 0.2623811 </output>
								</split>
								<split pos="right">
									<output> -0.07761859 </output>
								</split>
							</split>
							<split pos="right">
								<output> 0.29350817 </output>
							</split>
						</split>
						<split pos="right">
							<output> 0.3121776 </output>
						</split>
					</split>
				</split>
			</split>
			<split pos="right">
				<feature> 130 </feature>
				<threshold> 65279.395 </threshold>
				<split pos="left">
					<feature> 18 </feature>
					<threshold> 17.124624 </threshold>
					<split pos="left">
						<feature> 109 </feature>
						<threshold> 15.706548 </threshold>
						<split pos="left">
							<output> -0.07268221 </output>
						</split>
						<split pos="right">
							<output> 0.35167432 </output>
						</split>
					</split>
					<split pos="right">
						<output> 0.31838277 </output>
					</split>
				</split>
				<split pos="right">
					<output> 0.36411926 </output>
				</split>
			</split>
		</split>
	</tree>
	<tree id="22" weight="0.1">
		<split>
			<feature> 134 </feature>
			<threshold> 0.0 </threshold>
			<split pos="left">
				<feature> 14 </feature>
				<threshold> 3.0 </threshold>
				<split pos="left">
					<output> 0.39173168 </output>
				</split>
				<split pos="right">
					<feature> 50 </feature>
					<threshold> 0.026874391 </threshold>
					<split pos="left">
						<output> -0.30402106 </output>
					</split>
					<split pos="right">
						<feature> 107 </feature>
						<threshold> 15.556157 </threshold>
						<split pos="left">
							<feature> 14 </feature>
							<threshold> 4.0 </threshold>
							<split pos="left">
								<output> 0.28262433 </output>
							</split>
							<split pos="right">
								<feature> 4 </feature>
								<threshold> 7.0 </threshold>
								<split pos="left">
									<output> -0.050203152 </output>
								</split>
								<split pos="right">
									<output> 1.0551077 </output>
								</split>
							</split>
						</split>
						<split pos="right">
							<output> 0.27308568 </output>
						</split>
					</split>
				</split>
			</split>
			<split pos="right">
				<feature> 130 </feature>
				<threshold> 57100.02 </threshold>
				<split pos="left">
					<feature> 108 </feature>
					<threshold> 31.125881 </threshold>
					<split pos="left">
						<output> 0.011593195 </output>
					</split>
					<split pos="right">
						<output> 0.45388705 </output>
					</split>
				</split>
				<split pos="right">
					<feature> 110 </feature>
					<threshold> 22.892632 </threshold>
					<split pos="left">
						<output> 0.1170546 </output>
					</split>
					<split pos="right">
						<output> 0.6433971 </output>
					</split>
				</split>
			</split>
		</split>
	</tree>
	<tree id="23" weight="0.1">
		<split>
			<feature> 134 </feature>
			<threshold> 52908.69 </threshold>
			<split pos="left">
				<feature> 4 </feature>
				<threshold> 7.0 </threshold>
				<split pos="left">
					<feature> 134 </feature>
					<threshold> 0.0 </threshold>
					<split pos="left">
						<feature> 14 </feature>
						<threshold> 3.0 </threshold>
						<split pos="left">
							<output> 0.3555716 </output>
						</split>
						<split pos="right">
							<feature> 55 </feature>
							<threshold> 0.005917008 </threshold>
							<split pos="left">
								<feature> 11 </feature>
								<threshold> 370.23438 </threshold>
								<split pos="left">
									<output> -0.0075754356 </output>
								</split>
								<split pos="right">
									<output> -0.29374364 </output>
								</split>
							</split>
							<split pos="right">
								<output> 0.062026363 </output>
							</split>
						</split>
					</split>
					<split pos="right">
						<feature> 130 </feature>
						<threshold> 47131.406 </threshold>
						<split pos="left">
							<output> 0.010678856 </output>
						</split>
						<split pos="right">
							<feature> 110 </feature>
							<threshold> 25.626888 </threshold>
							<split pos="left">
								<feature> 18 </feature>
								<threshold> 10.819936 </threshold>
								<split pos="left">
									<output> -0.1543258 </output>
								</split>
								<split pos="right">
									<output> 0.23887315 </output>
								</split>
							</split>
							<split pos="right">
								<output> 0.5948577 </output>
							</split>
						</split>
					</split>
				</split>
				<split pos="right">
					<output> 1.1801773 </output>
				</split>
			</split>
			<split pos="right">
				<output> 0.63128185 </output>
			</split>
		</split>
	</tree>
	<tree id="24" weight="0.1">
		<split>
			<feature> 134 </feature>
			<threshold> 0.0 </threshold>
			<split pos="left">
				<feature> 4 </feature>
				<threshold> 7.0 </threshold>
				<split pos="left">
					<feature> 14 </feature>
					<threshold> 3.0 </threshold>
					<split pos="left">
						<output> 0.32221928 </output>
					</split>
					<split pos="right">
						<feature> 55 </feature>
						<threshold> 0.005917008 </threshold>
						<split pos="left">
							<output> -0.19190025 </output>
						</split>
						<split pos="right">
							<output> 0.06381905 </output>
						</split>
					</split>
				</split>
				<split pos="right">
					<output> 1.1158514 </output>
				</split>
			</split>
			<split pos="right">
				<feature> 135 </feature>
				<threshold> 9175.684 </threshold>
				<split pos="left">
					<feature> 108 </feature>
					<threshold> 20.009491 </threshold>
					<split pos="left">
						<feature> 109 </feature>
						<threshold> 15.706548 </threshold>
						<split pos="left">
							<feature> 46 </feature>
							<threshold> 0.0078125 </threshold>
							<split pos="left">
								<output> -0.46842337 </output>
							</split>
							<split pos="right">
								<feature> 127 </feature>
								<threshold> 13.9765625 </threshold>
								<split pos="left">
									<output> 0.330452 </output>
								</split>
								<split pos="right">
									<output> -0.026319332 </output>
								</split>
							</split>
						</split>
						<split pos="right">
							<output> 0.34765613 </output>
						</split>
					</split>
					<split pos="right">
						<output> 0.30247718 </output>
					</split>
				</split>
				<split pos="right">
					<output> 0.4379135 </output>
				</split>
			</split>
		</split>
	</tree>
	<tree id="25" weight="0.1">
		<split>
			<feature> 134 </feature>
			<threshold> 52908.69 </threshold>
			<split pos="left">
				<feature> 14 </feature>
				<threshold> 4.0 </threshold>
				<split pos="left">
					<feature> 134 </feature>
					<threshold> 0.0 </threshold>
					<split pos="left">
						<feature> 86 </feature>
						<threshold> -62.649963 </threshold>
						<split pos="left">
							<output> 1.424147 </output>
						</split>
						<split pos="right">
							<output> 0.20796573 </output>
						</split>
					</split>
					<split pos="right">
						<feature> 110 </feature>
						<threshold> 22.892632 </threshold>
						<split pos="left">
							<output> 0.050825894 </output>
						</split>
						<split pos="right">
							<output> 0.49668196 </output>
						</split>
					</split>
				</split>
				<split pos="right">
					<feature> 4 </feature>
					<threshold> 7.0 </threshold>
					<split pos="left">
						<feature> 107 </feature>
						<threshold> 13.251542 </threshold>
						<split pos="left">
							<feature> 8 </feature>
							<threshold> 0.555556 </threshold>
							<split pos="left">
								<output> -0.27544364 </output>
							</split>
							<split pos="right">
								<feature> 17 </feature>
								<threshold> 30.941442 </threshold>
								<split pos="left">
									<output> -0.0394017 </output>
								</split>
								<split pos="right">
									<output> 0.2067589 </output>
								</split>
							</split>
						</split>
						<split pos="right">
							<output> 0.24335575 </output>
						</split>
					</split>
					<split pos="right">
						<output> 1.0575265 </output>
					</split>
				</split>
			</split>
			<split pos="right">
				<output> 0.5398754 </output>
			</split>
		</split>
	</tree>
	<tree id="26" weight="0.1">
		<split>
			<feature> 134 </feature>
			<threshold> 105817.38 </threshold>
			<split pos="left">
				<feature> 134 </feature>
				<threshold> 0.0 </threshold>
				<split pos="left">
					<feature> 4 </feature>
					<threshold> 7.0 </threshold>
					<split pos="left">
						<feature> 65 </feature>
						<threshold> 0.005917008 </threshold>
						<split pos="left">
							<output> -0.35842466 </output>
						</split>
						<split pos="right">
							<feature> 14 </feature>
							<threshold> 3.0 </threshold>
							<split pos="left">
								<output> 0.3477618 </output>
							</split>
							<split pos="right">
								<feature> 72 </feature>
								<threshold> 26.810936 </threshold>
								<split pos="left">
									<feature> 14 </feature>
									<threshold> 4.0 </threshold>
									<split pos="left">
										<output> 0.21903452 </output>
									</split>
									<split pos="right">
										<feature> 3 </feature>
										<threshold> 2.0 </threshold>
										<split pos="left">
											<output> -0.09614338 </output>
										</split>
										<split pos="right">
											<output> 0.103313096 </output>
										</split>
									</split>
								</split>
								<split pos="right">
									<output> 0.4574628 </output>
								</split>
							</split>
						</split>
					</split>
					<split pos="right">
						<output> 1.015037 </output>
					</split>
				</split>
				<split pos="right">
					<feature> 130 </feature>
					<threshold> 57100.02 </threshold>
					<split pos="left">
						<output> 0.017237319 </output>
					</split>
					<split pos="right">
						<output> 0.21280949 </output>
					</split>
				</split>
			</split>
			<split pos="right">
				<output> 0.621338 </output>
			</split>
		</split>
	</tree>
	<tree id="27" weight="0.1">
		<split>
			<feature> 134 </feature>
			<threshold> 105817.38 </threshold>
			<split pos="left">
				<feature> 14 </feature>
				<threshold> 4.0 </threshold>
				<split pos="left">
					<feature> 108 </feature>
					<threshold> 21.12113 </threshold>
					<split pos="left">
						<feature> 86 </feature>
						<threshold> -62.649963 </threshold>
						<split pos="left">
							<output> 1.2948334 </output>
						</split>
						<split pos="right">
							<feature> 74 </feature>
							<threshold> 12.665738 </threshold>
							<split pos="left">
								<feature> 49 </feature>
								<threshold> 0.25 </threshold>
								<split pos="left">
									<output> 0.068805836 </output>
								</split>
								<split pos="right">
									<output> 0.8551794 </output>
								</split>
							</split>
							<split pos="right">
								<output> 0.6382212 </output>
							</split>
						</split>
					</split>
					<split pos="right">
						<output> 0.5245039 </output>
					</split>
				</split>
				<split pos="right">
					<feature> 72 </feature>
					<threshold> 26.810936 </threshold>
					<split pos="left">
						<feature> 4 </feature>
						<threshold> 7.0 </threshold>
						<split pos="left">
							<feature> 74 </feature>
							<threshold> 8.696509 </threshold>
							<split pos="left">
								<output> -0.19037452 </output>
							</split>
							<split pos="right">
								<output> 0.04683892 </output>
							</split>
						</split>
						<split pos="right">
							<output> 0.97041065 </output>
						</split>
					</split>
					<split pos="right">
						<output> 0.36085668 </output>
					</split>
				</split>
			</split>
			<split pos="right">
				<output> 0.5742147 </output>
			</split>
		</split>
	</tree>
	<tree id="28" weight="0.1">
		<split>
			<feature> 134 </feature>
			<threshold> 52908.69 </threshold>
			<split pos="left">
				<feature> 108 </feature>
				<threshold> 18.897852 </threshold>
				<split pos="left">
					<feature> 54 </feature>
					<threshold> 0.24 </threshold>
					<split pos="left">
						<feature> 7 </feature>
						<threshold> 0.571429 </threshold>
						<split pos="left">
							<feature> 134 </feature>
							<threshold> 0.0 </threshold>
							<split pos="left">
								<feature> 15 </feature>
								<threshold> 2119.5 </threshold>
								<split pos="left">
									<feature> 123 </feature>
									<threshold> -8.186691 </threshold>
									<split pos="left">
										<output> -0.19686478 </output>
									</split>
									<split pos="right">
										<output> 0.019969864 </output>
									</split>
								</split>
								<split pos="right">
									<output> -0.6660114 </output>
								</split>
							</split>
							<split pos="right">
								<output> -0.09682382 </output>
							</split>
						</split>
						<split pos="right">
							<output> 0.22605956 </output>
						</split>
					</split>
					<split pos="right">
						<output> 0.32937068 </output>
					</split>
				</split>
				<split pos="right">
					<feature> 130 </feature>
					<threshold> 57100.02 </threshold>
					<split pos="left">
						<feature> 4 </feature>
						<threshold> 7.0 </threshold>
						<split pos="left">
							<output> 0.107311934 </output>
						</split>
						<split pos="right">
							<output> 0.9308576 </output>
						</split>
					</split>
					<split pos="right">
						<output> 0.5988847 </output>
					</split>
				</split>
			</split>
			<split pos="right">
				<output> 0.44800553 </output>
			</split>
		</split>
	</tree>
	<tree id="29" weight="0.1">
		<split>
			<feature> 134 </feature>
			<threshold> 105817.38 </threshold>
			<split pos="left">
				<feature> 3 </feature>
				<threshold> 1.0 </threshold>
				<split pos="left">
					<feature> 64 </feature>
					<threshold> 0.24126805 </threshold>
					<split pos="left">
						<feature> 134 </feature>
						<threshold> 0.0 </threshold>
						<split pos="left">
							<output> -0.14584403 </output>
						</split>
						<split pos="right">
							<output> -0.13620394 </output>
						</split>
					</split>
					<split pos="right">
						<output> 0.2368621 </output>
					</split>
				</split>
				<split pos="right">
					<feature> 134 </feature>
					<threshold> 0.0 </threshold>
					<split pos="left">
						<feature> 14 </feature>
						<threshold> 3.0 </threshold>
						<split pos="left">
							<output> 0.34747133 </output>
						</split>
						<split pos="right">
							<feature> 4 </feature>
							<threshold> 7.0 </threshold>
							<split pos="left">
								<feature> 117 </feature>
								<threshold> -7.0282564 </threshold>
								<split pos="left">
									<feature> 72 </feature>
									<threshold> 26.810936 </threshold>
									<split pos="left">
										<output> 0.04287535 </output>
									</split>
									<split pos="right">
										<output> 0.36084467 </output>
									</split>
								</split>
								<split pos="right">
									<output> 0.62739867 </output>
								</split>
							</split>
							<split pos="right">
								<output> 0.88281924 </output>
							</split>
						</split>
					</split>
					<split pos="right">
						<output> 0.16660482 </output>
					</split>
				</split>
			</split>
			<split pos="right">
				<output> 0.51615596 </output>
			</split>
		</split>
	</tree>
	<tree id="30" weight="0.1">
		<split>
			<feature> 134 </feature>
			<threshold> 105817.38 </threshold>
			<split pos="left">
				<feature> 3 </feature>
				<threshold> 1.0 </threshold>
				<split pos="left">
					<feature> 39 </feature>
					<threshold> 0.5 </threshold>
					<split pos="left">
						<feature> 134 </feature>
						<threshold> 0.0 </threshold>
						<split pos="left">
							<output> -0.19384374 </output>
						</split>
						<split pos="right">
							<output> -0.1815285 </output>
						</split>
					</split>
					<split pos="right">
						<output> 0.12813649 </output>
					</split>
				</split>
				<split pos="right">
					<feature> 134 </feature>
					<threshold> 0.0 </threshold>
					<split pos="left">
						<feature> 4 </feature>
						<threshold> 7.0 </threshold>
						<split pos="left">
							<feature> 14 </feature>
							<threshold> 3.0 </threshold>
							<split pos="left">
								<output> 0.29772952 </output>
							</split>
							<split pos="right">
								<feature> 117 </feature>
								<threshold> -7.0282564 </threshold>
								<split pos="left">
									<feature> 72 </feature>
									<threshold> 26.810936 </threshold>
									<split pos="left">
										<output> 0.044514637 </output>
									</split>
									<split pos="right">
										<output> 0.31999522 </output>
									</split>
								</split>
								<split pos="right">
									<output> 0.617045 </output>
								</split>
							</split>
						</split>
						<split pos="right">
							<output> 0.8427624 </output>
						</split>
					</split>
					<split pos="right">
						<output> 0.149145 </output>
					</split>
				</split>
			</split>
			<split pos="right">
				<output> 0.4834926 </output>
			</split>
		</split>
	</tree>
	<tree id="31" weight="0.1">
		<split>
			<feature> 130 </feature>
			<threshold> 57100.02 </threshold>
			<split pos="left">
				<feature> 129 </feature>
				<threshold> 10.0 </threshold>
				<split pos="left">
					<feature> 3 </feature>
					<threshold> 2.0 </threshold>
					<split pos="left">
						<feature> 134 </feature>
						<threshold> 0.0 </threshold>
						<split pos="left">
							<feature> 14 </feature>
							<threshold> 2.0 </threshold>
							<split pos="left">
								<output> 1.3086919 </output>
							</split>
							<split pos="right">
								<feature> 11 </feature>
								<threshold> 1269.375 </threshold>
								<split pos="left">
									<feature> 86 </feature>
									<threshold> -62.649963 </threshold>
									<split pos="left">
										<output> 1.0803542 </output>
									</split>
									<split pos="right">
										<output> -0.08387988 </output>
									</split>
								</split>
								<split pos="right">
									<output> -0.47502473 </output>
								</split>
							</split>
						</split>
						<split pos="right">
							<output> -0.13643593 </output>
						</split>
					</split>
					<split pos="right">
						<output> 0.110168025 </output>
					</split>
				</split>
				<split pos="right">
					<output> 0.2347945 </output>
				</split>
			</split>
			<split pos="right">
				<feature> 109 </feature>
				<threshold> 17.057705 </threshold>
				<split pos="left">
					<feature> 108 </feature>
					<threshold> 18.897852 </threshold>
					<split pos="left">
						<output> 0.095807016 </output>
					</split>
					<split pos="right">
						<output> 0.51560295 </output>
					</split>
				</split>
				<split pos="right">
					<output> 0.7498977 </output>
				</split>
			</split>
		</split>
	</tree>
	<tree id="32" weight="0.1">
		<split>
			<feature> 14 </feature>
			<threshold> 4.0 </threshold>
			<split pos="left">
				<feature> 108 </feature>
				<threshold> 24.456047 </threshold>
				<split pos="left">
					<feature> 86 </feature>
					<threshold> -62.649963 </threshold>
					<split pos="left">
						<output> 1.1118466 </output>
					</split>
					<split pos="right">
						<feature> 134 </feature>
						<threshold> 158726.08 </threshold>
						<split pos="left">
							<feature> 129 </feature>
							<threshold> 0.0 </threshold>
							<split pos="left">
								<output> -0.018482627 </output>
							</split>
							<split pos="right">
								<feature> 109 </feature>
								<threshold> 17.282898 </threshold>
								<split pos="left">
									<output> 0.22446497 </output>
								</split>
								<split pos="right">
									<output> 0.7977144 </output>
								</split>
							</split>
						</split>
						<split pos="right">
							<output> 0.6683993 </output>
						</split>
					</split>
				</split>
				<split pos="right">
					<output> 0.55123645 </output>
				</split>
			</split>
			<split pos="right">
				<feature> 72 </feature>
				<threshold> 26.810936 </threshold>
				<split pos="left">
					<feature> 4 </feature>
					<threshold> 7.0 </threshold>
					<split pos="left">
						<feature> 74 </feature>
						<threshold> 8.696509 </threshold>
						<split pos="left">
							<output> -0.17077011 </output>
						</split>
						<split pos="right">
							<output> 0.047482207 </output>
						</split>
					</split>
					<split pos="right">
						<output> 0.79997486 </output>
					</split>
				</split>
				<split pos="right">
					<output> 0.28364396 </output>
				</split>
			</split>
		</split>
	</tree>
	<tree id="33" weight="0.1">
		<split>
			<feature> 134 </feature>
			<threshold> 105817.38 </threshold>
			<split pos="left">
				<feature> 50 </feature>
				<threshold> 0.026874391 </threshold>
				<split pos="left">
					<output> -0.18445805 </output>
				</split>
				<split pos="right">
					<feature> 14 </feature>
					<threshold> 4.0 </threshold>
					<split pos="left">
						<feature> 105 </feature>
						<threshold> 0.015625 </threshold>
						<split pos="left">
							<output> 1.6109798 </output>
						</split>
						<split pos="right">
							<feature> 86 </feature>
							<threshold> -62.649963 </threshold>
							<split pos="left">
								<output> 1.0934302 </output>
							</split>
							<split pos="right">
								<feature> 129 </feature>
								<threshold> 0.0 </threshold>
								<split pos="left">
									<output> 0.048988458 </output>
								</split>
								<split pos="right">
									<output> 0.36286968 </output>
								</split>
							</split>
						</split>
					</split>
					<split pos="right">
						<feature> 72 </feature>
						<threshold> 26.810936 </threshold>
						<split pos="left">
							<feature> 4 </feature>
							<threshold> 7.0 </threshold>
							<split pos="left">
								<feature> 133 </feature>
								<threshold> 44.0 </threshold>
								<split pos="left">
									<output> 0.028072136 </output>
								</split>
								<split pos="right">
									<output> -0.17315517 </output>
								</split>
							</split>
							<split pos="right">
								<output> 0.761353 </output>
							</split>
						</split>
						<split pos="right">
							<output> 0.24262917 </output>
						</split>
					</split>
				</split>
			</split>
			<split pos="right">
				<output> 0.440937 </output>
			</split>
		</split>
	</tree>
	<tree id="34" weight="0.1">
		<split>
			<feature> 130 </feature>
			<threshold> 35373.555 </threshold>
			<split pos="left">
				<feature> 129 </feature>
				<threshold> 10.0 </threshold>
				<split pos="left">
					<feature> 134 </feature>
					<threshold> 0.0 </threshold>
					<split pos="left">
						<feature> 14 </feature>
						<threshold> 2.0 </threshold>
						<split pos="left">
							<output> 1.2449651 </output>
						</split>
						<split pos="right">
							<feature> 15 </feature>
							<threshold> 1643.0625 </threshold>
							<split pos="left">
								<feature> 86 </feature>
								<threshold> -62.649963 </threshold>
								<split pos="left">
									<output> 0.8028122 </output>
								</split>
								<split pos="right">
									<feature> 2 </feature>
									<threshold> 5.0 </threshold>
									<split pos="left">
										<output> -0.06373576 </output>
									</split>
									<split pos="right">
										<output> 1.3626143 </output>
									</split>
								</split>
							</split>
							<split pos="right">
								<output> -0.48110545 </output>
							</split>
						</split>
					</split>
					<split pos="right">
						<output> -0.14235897 </output>
					</split>
				</split>
				<split pos="right">
					<output> 0.1988409 </output>
				</split>
			</split>
			<split pos="right">
				<feature> 109 </feature>
				<threshold> 17.057705 </threshold>
				<split pos="left">
					<feature> 108 </feature>
					<threshold> 18.897852 </threshold>
					<split pos="left">
						<output> 0.041891746 </output>
					</split>
					<split pos="right">
						<output> 0.38769603 </output>
					</split>
				</split>
				<split pos="right">
					<output> 0.5429625 </output>
				</split>
			</split>
		</split>
	</tree>
	<tree id="35" weight="0.1">
		<split>
			<feature> 3 </feature>
			<threshold> 2.0 </threshold>
			<split pos="left">
				<feature> 135 </feature>
				<threshold> 9175.684 </threshold>
				<split pos="left">
					<feature> 127 </feature>
					<threshold> 23.953125 </threshold>
					<split pos="left">
						<feature> 129 </feature>
						<threshold> 2.0 </threshold>
						<split pos="left">
							<feature> 86 </feature>
							<threshold> -62.649963 </threshold>
							<split pos="left">
								<output> 1.0221494 </output>
							</split>
							<split pos="right">
								<feature> 4 </feature>
								<threshold> 3.0 </threshold>
								<split pos="left">
									<feature> 133 </feature>
									<threshold> 5.0 </threshold>
									<split pos="left">
										<output> 0.20995806 </output>
									</split>
									<split pos="right">
										<output> -0.104214735 </output>
									</split>
								</split>
								<split pos="right">
									<output> 1.3069868 </output>
								</split>
							</split>
						</split>
						<split pos="right">
							<output> 0.3259972 </output>
						</split>
					</split>
					<split pos="right">
						<feature> 134 </feature>
						<threshold> 0.0 </threshold>
						<split pos="left">
							<feature> 120 </feature>
							<threshold> -11.616275 </threshold>
							<split pos="left">
								<output> -0.19633803 </output>
							</split>
							<split pos="right">
								<output> 0.034471545 </output>
							</split>
						</split>
						<split pos="right">
							<output> -0.11665756 </output>
						</split>
					</split>
				</split>
				<split pos="right">
					<output> 0.3049666 </output>
				</split>
			</split>
			<split pos="right">
				<output> 0.16295443 </output>
			</split>
		</split>
	</tree>
	<tree id="36" weight="0.1">
		<split>
			<feature> 72 </feature>
			<threshold> 44.68489 </threshold>
			<split pos="left">
				<feature> 2 </feature>
				<threshold> 5.0 </threshold>
				<split pos="left">
					<feature> 14 </feature>
					<threshold> 4.0 </threshold>
					<split pos="left">
						<feature> 48 </feature>
						<threshold> 0.7421875 </threshold>
						<split pos="left">
							<feature> 110 </feature>
							<threshold> 22.892632 </threshold>
							<split pos="left">
								<feature> 134 </feature>
								<threshold> 158726.08 </threshold>
								<split pos="left">
									<feature> 126 </feature>
									<threshold> 1.0 </threshold>
									<split pos="left">
										<feature> 15 </feature>
										<threshold> 690.1875 </threshold>
										<split pos="left">
											<output> 0.0012791542 </output>
										</split>
										<split pos="right">
											<output> -0.5019734 </output>
										</split>
									</split>
									<split pos="right">
										<output> 0.5495084 </output>
									</split>
								</split>
								<split pos="right">
									<output> 0.6122132 </output>
								</split>
							</split>
							<split pos="right">
								<output> 0.28266647 </output>
							</split>
						</split>
						<split pos="right">
							<output> 0.49905396 </output>
						</split>
					</split>
					<split pos="right">
						<feature> 49 </feature>
						<threshold> 0.130435 </threshold>
						<split pos="left">
							<output> -0.14419861 </output>
						</split>
						<split pos="right">
							<output> 0.06853179 </output>
						</split>
					</split>
				</split>
				<split pos="right">
					<output> 1.3872801 </output>
				</split>
			</split>
			<split pos="right">
				<output> 0.36097538 </output>
			</split>
		</split>
	</tree>
	<tree id="37" weight="0.1">
		<split>
			<feature> 3 </feature>
			<threshold> 1.0 </threshold>
			<split pos="left">
				<feature> 39 </feature>
				<threshold> 0.5 </threshold>
				<split pos="left">
					<feature> 134 </feature>
					<threshold> 0.0 </threshold>
					<split pos="left">
						<output> -0.15660465 </output>
					</split>
					<split pos="right">
						<output> -0.18834856 </output>
					</split>
				</split>
				<split pos="right">
					<output> 0.109219454 </output>
				</split>
			</split>
			<split pos="right">
				<feature> 130 </feature>
				<threshold> 65279.395 </threshold>
				<split pos="left">
					<feature> 127 </feature>
					<threshold> 23.953125 </threshold>
					<split pos="left">
						<output> 0.22743434 </output>
					</split>
					<split pos="right">
						<feature> 135 </feature>
						<threshold> 9175.684 </threshold>
						<split pos="left">
							<feature> 72 </feature>
							<threshold> 44.68489 </threshold>
							<split pos="left">
								<feature> 2 </feature>
								<threshold> 5.0 </threshold>
								<split pos="left">
									<feature> 117 </feature>
									<threshold> -7.0282564 </threshold>
									<split pos="left">
										<output> 0.020144861 </output>
									</split>
									<split pos="right">
										<output> 0.59214634 </output>
									</split>
								</split>
								<split pos="right">
									<output> 1.345417 </output>
								</split>
							</split>
							<split pos="right">
								<output> 0.29351783 </output>
							</split>
						</split>
						<split pos="right">
							<output> 0.8107604 </output>
						</split>
					</split>
				</split>
				<split pos="right">
					<output> 0.5270649 </output>
				</split>
			</split>
		</split>
	</tree>
	<tree id="38" weight="0.1">
		<split>
			<feature> 130 </feature>
			<threshold> 35373.555 </threshold>
			<split pos="left">
				<feature> 129 </feature>
				<threshold> 10.0 </threshold>
				<split pos="left">
					<feature> 134 </feature>
					<threshold> 0.0 </threshold>
					<split pos="left">
						<feature> 14 </feature>
						<threshold> 2.0 </threshold>
						<split pos="left">
							<output> 1.141686 </output>
						</split>
						<split pos="right">
							<feature> 15 </feature>
							<threshold> 2119.5 </threshold>
							<split pos="left">
								<feature> 4 </feature>
								<threshold> 8.0 </threshold>
								<split pos="left">
									<feature> 106 </feature>
									<threshold> 36.597164 </threshold>
									<split pos="left">
										<output> -0.09312779 </output>
									</split>
									<split pos="right">
										<output> 0.10645578 </output>
									</split>
								</split>
								<split pos="right">
									<output> 0.6629567 </output>
								</split>
							</split>
							<split pos="right">
								<output> -0.534847 </output>
							</split>
						</split>
					</split>
					<split pos="right">
						<output> -0.14538184 </output>
					</split>
				</split>
				<split pos="right">
					<output> 0.17908663 </output>
				</split>
			</split>
			<split pos="right">
				<feature> 109 </feature>
				<threshold> 17.057705 </threshold>
				<split pos="left">
					<feature> 108 </feature>
					<threshold> 18.897852 </threshold>
					<split pos="left">
						<output> 0.040674366 </output>
					</split>
					<split pos="right">
						<output> 0.34874213 </output>
					</split>
				</split>
				<split pos="right">
					<output> 0.49171 </output>
				</split>
			</split>
		</split>
	</tree>
	<tree id="39" weight="0.1">
		<split>
			<feature> 50 </feature>
			<threshold> 0.026874391 </threshold>
			<split pos="left">
				<output> -0.15851921 </output>
			</split>
			<split pos="right">
				<feature> 135 </feature>
				<threshold> 9175.684 </threshold>
				<split pos="left">
					<feature> 133 </feature>
					<threshold> 16.0 </threshold>
					<split pos="left">
						<feature> 14 </feature>
						<threshold> 4.0 </threshold>
						<split pos="left">
							<feature> 105 </feature>
							<threshold> 0.015625 </threshold>
							<split pos="left">
								<output> 1.5145922 </output>
							</split>
							<split pos="right">
								<feature> 108 </feature>
								<threshold> 28.902603 </threshold>
								<split pos="left">
									<feature> 94 </feature>
									<threshold> 55.883846 </threshold>
									<split pos="left">
										<output> 0.23858494 </output>
									</split>
									<split pos="right">
										<output> 1.1623834 </output>
									</split>
								</split>
								<split pos="right">
									<output> 0.7837285 </output>
								</split>
							</split>
						</split>
						<split pos="right">
							<feature> 72 </feature>
							<threshold> 44.68489 </threshold>
							<split pos="left">
								<output> 0.05210883 </output>
							</split>
							<split pos="right">
								<output> 0.4219411 </output>
							</split>
						</split>
					</split>
					<split pos="right">
						<feature> 134 </feature>
						<threshold> 0.0 </threshold>
						<split pos="left">
							<output> -0.07421265 </output>
						</split>
						<split pos="right">
							<output> -0.11938941 </output>
						</split>
					</split>
				</split>
				<split pos="right">
					<output> 0.38171917 </output>
				</split>
			</split>
		</split>
	</tree>
	<tree id="40" weight="0.1">
		<split>
			<feature> 108 </feature>
			<threshold> 6.669831 </threshold>
			<split pos="left">
				<output> -0.15883926 </output>
			</split>
			<split pos="right">
				<feature> 135 </feature>
				<threshold> 9175.684 </threshold>
				<split pos="left">
					<feature> 130 </feature>
					<threshold> 64512.58 </threshold>
					<split pos="left">
						<feature> 3 </feature>
						<threshold> 3.0 </threshold>
						<split pos="left">
							<feature> 133 </feature>
							<threshold> 10.0 </threshold>
							<split pos="left">
								<feature> 14 </feature>
								<threshold> 3.0 </threshold>
								<split pos="left">
									<output> 0.36602777 </output>
								</split>
								<split pos="right">
									<feature> 22 </feature>
									<threshold> 4.0 </threshold>
									<split pos="left">
										<feature> 127 </feature>
										<threshold> 28.941406 </threshold>
										<split pos="left">
											<output> 0.21809152 </output>
										</split>
										<split pos="right">
											<output> 0.005907363 </output>
										</split>
									</split>
									<split pos="right">
										<output> 0.4222696 </output>
									</split>
								</split>
							</split>
							<split pos="right">
								<feature> 134 </feature>
								<threshold> 0.0 </threshold>
								<split pos="left">
									<output> -0.07036329 </output>
								</split>
								<split pos="right">
									<output> -0.1303585 </output>
								</split>
							</split>
						</split>
						<split pos="right">
							<output> 0.2987031 </output>
						</split>
					</split>
					<split pos="right">
						<output> 0.29666328 </output>
					</split>
				</split>
				<split pos="right">
					<output> 0.4387617 </output>
				</split>
			</split>
		</split>
	</tree>
	<tree id="41" weight="0.1">
		<split>
			<feature> 130 </feature>
			<threshold> 30517.05 </threshold>
			<split pos="left">
				<feature> 129 </feature>
				<threshold> 10.0 </threshold>
				<split pos="left">
					<feature> 134 </feature>
					<threshold> 0.0 </threshold>
					<split pos="left">
						<feature> 14 </feature>
						<threshold> 2.0 </threshold>
						<split pos="left">
							<output> 0.98167807 </output>
						</split>
						<split pos="right">
							<feature> 115 </feature>
							<threshold> -30.038849 </threshold>
							<split pos="left">
								<output> -0.43719098 </output>
							</split>
							<split pos="right">
								<feature> 2 </feature>
								<threshold> 5.0 </threshold>
								<split pos="left">
									<output> -0.06599187 </output>
								</split>
								<split pos="right">
									<output> 1.1945611 </output>
								</split>
							</split>
						</split>
					</split>
					<split pos="right">
						<output> -0.13772422 </output>
					</split>
				</split>
				<split pos="right">
					<output> 0.16104333 </output>
				</split>
			</split>
			<split pos="right">
				<feature> 109 </feature>
				<threshold> 17.057705 </threshold>
				<split pos="left">
					<feature> 108 </feature>
					<threshold> 28.902603 </threshold>
					<split pos="left">
						<feature> 3 </feature>
						<threshold> 1.0 </threshold>
						<split pos="left">
							<output> -0.013198457 </output>
						</split>
						<split pos="right">
							<output> 0.1912999 </output>
						</split>
					</split>
					<split pos="right">
						<output> 0.6239827 </output>
					</split>
				</split>
				<split pos="right">
					<output> 0.43732843 </output>
				</split>
			</split>
		</split>
	</tree>
	<tree id="42" weight="0.1">
		<split>
			<feature> 108 </feature>
			<threshold> 26.679325 </threshold>
			<split pos="left">
				<feature> 127 </feature>
				<threshold> 33.929688 </threshold>
				<split pos="left">
					<feature> 129 </feature>
					<threshold> 0.0 </threshold>
					<split pos="left">
						<feature> 134 </feature>
						<threshold> 0.0 </threshold>
						<split pos="left">
							<output> 0.011717984 </output>
						</split>
						<split pos="right">
							<output> -0.17198212 </output>
						</split>
					</split>
					<split pos="right">
						<feature> 54 </feature>
						<threshold> 0.222222 </threshold>
						<split pos="left">
							<feature> 108 </feature>
							<threshold> 16.674574 </threshold>
							<split pos="left">
								<feature> 109 </feature>
								<threshold> 29.668514 </threshold>
								<split pos="left">
									<output> 0.08520208 </output>
								</split>
								<split pos="right">
									<output> 1.2236062 </output>
								</split>
							</split>
							<split pos="right">
								<output> 0.30885392 </output>
							</split>
						</split>
						<split pos="right">
							<output> 0.409173 </output>
						</split>
					</split>
				</split>
				<split pos="right">
					<feature> 134 </feature>
					<threshold> 0.0 </threshold>
					<split pos="left">
						<feature> 84 </feature>
						<threshold> 4.615319 </threshold>
						<split pos="left">
							<output> -0.20112783 </output>
						</split>
						<split pos="right">
							<output> 0.02051707 </output>
						</split>
					</split>
					<split pos="right">
						<output> -0.11580515 </output>
					</split>
				</split>
			</split>
			<split pos="right">
				<output> 0.19806124 </output>
			</split>
		</split>
	</tree>
	<tree id="43" weight="0.1">
		<split>
			<feature> 107 </feature>
			<threshold> 12.675388 </threshold>
			<split pos="left">
				<feature> 14 </feature>
				<threshold> 4.0 </threshold>
				<split pos="left">
					<feature> 108 </feature>
					<threshold> 28.902603 </threshold>
					<split pos="left">
						<feature> 86 </feature>
						<threshold> -62.649963 </threshold>
						<split pos="left">
							<output> 0.886049 </output>
						</split>
						<split pos="right">
							<feature> 126 </feature>
							<threshold> 1.0 </threshold>
							<split pos="left">
								<feature> 94 </feature>
								<threshold> 44.707077 </threshold>
								<split pos="left">
									<feature> 133 </feature>
									<threshold> 5.0 </threshold>
									<split pos="left">
										<output> 0.16573745 </output>
									</split>
									<split pos="right">
										<feature> 64 </feature>
										<threshold> 0.25091878 </threshold>
										<split pos="left">
											<output> -0.08445613 </output>
										</split>
										<split pos="right">
											<output> -0.805405 </output>
										</split>
									</split>
								</split>
								<split pos="right">
									<output> 1.0019753 </output>
								</split>
							</split>
							<split pos="right">
								<output> 0.51992637 </output>
							</split>
						</split>
					</split>
					<split pos="right">
						<output> 0.5620256 </output>
					</split>
				</split>
				<split pos="right">
					<feature> 134 </feature>
					<threshold> 0.0 </threshold>
					<split pos="left">
						<output> -0.07264543 </output>
					</split>
					<split pos="right">
						<output> -0.10914922 </output>
					</split>
				</split>
			</split>
			<split pos="right">
				<output> 0.15945671 </output>
			</split>
		</split>
	</tree>
	<tree id="44" weight="0.1">
		<split>
			<feature> 3 </feature>
			<threshold> 2.0 </threshold>
			<split pos="left">
				<feature> 127 </feature>
				<threshold> 33.929688 </threshold>
				<split pos="left">
					<feature> 129 </feature>
					<threshold> 3.0 </threshold>
					<split pos="left">
						<feature> 134 </feature>
						<threshold> 0.0 </threshold>
						<split pos="left">
							<feature> 86 </feature>
							<threshold> -62.649963 </threshold>
							<split pos="left">
								<output> 0.79134 </output>
							</split>
							<split pos="right">
								<feature> 11 </feature>
								<threshold> 52.890625 </threshold>
								<split pos="left">
									<output> 0.42160028 </output>
								</split>
								<split pos="right">
									<output> -0.021544848 </output>
								</split>
							</split>
						</split>
						<split pos="right">
							<feature> 19 </feature>
							<threshold> 11.597238 </threshold>
							<split pos="left">
								<output> -0.39275873 </output>
							</split>
							<split pos="right">
								<output> 0.03540598 </output>
							</split>
						</split>
					</split>
					<split pos="right">
						<output> 0.23195672 </output>
					</split>
				</split>
				<split pos="right">
					<feature> 134 </feature>
					<threshold> 0.0 </threshold>
					<split pos="left">
						<output> -0.107047714 </output>
					</split>
					<split pos="right">
						<output> -0.13763142 </output>
					</split>
				</split>
			</split>
			<split pos="right">
				<feature> 130 </feature>
				<threshold> 42530.508 </threshold>
				<split pos="left">
					<output> 0.08778687 </output>
				</split>
				<split pos="right">
					<output> 0.35854855 </output>
				</split>
			</split>
		</split>
	</tree>
	<tree id="45" weight="0.1">
		<split>
			<feature> 55 </feature>
			<threshold> 0.005917008 </threshold>
			<split pos="left">
				<feature> 15 </feature>
				<threshold> 54.9375 </threshold>
				<split pos="left">
					<output> 0.39316693 </output>
				</split>
				<split pos="right">
					<feature> 48 </feature>
					<threshold> 0.09277344 </threshold>
					<split pos="left">
						<output> -0.30692977 </output>
					</split>
					<split pos="right">
						<feature> 134 </feature>
						<threshold> 52908.69 </threshold>
						<split pos="left">
							<output> -0.01835796 </output>
						</split>
						<split pos="right">
							<output> 0.9535585 </output>
						</split>
					</split>
				</split>
			</split>
			<split pos="right">
				<feature> 135 </feature>
				<threshold> 9175.684 </threshold>
				<split pos="left">
					<feature> 129 </feature>
					<threshold> 10.0 </threshold>
					<split pos="left">
						<feature> 130 </feature>
						<threshold> 65279.395 </threshold>
						<split pos="left">
							<feature> 119 </feature>
							<threshold> -23.318222 </threshold>
							<split pos="left">
								<output> 0.1747653 </output>
							</split>
							<split pos="right">
								<feature> 134 </feature>
								<threshold> 0.0 </threshold>
								<split pos="left">
									<output> -0.011199542 </output>
								</split>
								<split pos="right">
									<output> -0.0991583 </output>
								</split>
							</split>
						</split>
						<split pos="right">
							<output> 0.3408967 </output>
						</split>
					</split>
					<split pos="right">
						<output> 0.2681318 </output>
					</split>
				</split>
				<split pos="right">
					<output> 0.42301786 </output>
				</split>
			</split>
		</split>
	</tree>
	<tree id="46" weight="0.1">
		<split>
			<feature> 130 </feature>
			<threshold> 30517.05 </threshold>
			<split pos="left">
				<feature> 129 </feature>
				<threshold> 18.0 </threshold>
				<split pos="left">
					<feature> 134 </feature>
					<threshold> 0.0 </threshold>
					<split pos="left">
						<feature> 14 </feature>
						<threshold> 2.0 </threshold>
						<split pos="left">
							<output> 0.9102903 </output>
						</split>
						<split pos="right">
							<feature> 115 </feature>
							<threshold> -30.038849 </threshold>
							<split pos="left">
								<output> -0.40223232 </output>
							</split>
							<split pos="right">
								<output> -0.05303012 </output>
							</split>
						</split>
					</split>
					<split pos="right">
						<output> -0.09961061 </output>
					</split>
				</split>
				<split pos="right">
					<output> 0.2369686 </output>
				</split>
			</split>
			<split pos="right">
				<feature> 109 </feature>
				<threshold> 20.660793 </threshold>
				<split pos="left">
					<feature> 108 </feature>
					<threshold> 28.902603 </threshold>
					<split pos="left">
						<feature> 64 </feature>
						<threshold> 0.23161735 </threshold>
						<split pos="left">
							<feature> 110 </feature>
							<threshold> 20.158375 </threshold>
							<split pos="left">
								<output> -0.03607068 </output>
							</split>
							<split pos="right">
								<output> 0.1905343 </output>
							</split>
						</split>
						<split pos="right">
							<output> 0.30337974 </output>
						</split>
					</split>
					<split pos="right">
						<output> 0.56566024 </output>
					</split>
				</split>
				<split pos="right">
					<output> 0.48831627 </output>
				</split>
			</split>
		</split>
	</tree>
	<tree id="47" weight="0.1">
		<split>
			<feature> 55 </feature>
			<threshold> 0.005917008 </threshold>
			<split pos="left">
				<feature> 15 </feature>
				<threshold> 372.5625 </threshold>
				<split pos="left">
					<feature> 134 </feature>
					<threshold> 476178.22 </threshold>
					<split pos="left">
						<output> 0.06399866 </output>
					</split>
					<split pos="right">
						<output> 1.1290554 </output>
					</split>
				</split>
				<split pos="right">
					<feature> 110 </feature>
					<threshold> 36.563915 </threshold>
					<split pos="left">
						<output> -0.21162793 </output>
					</split>
					<split pos="right">
						<output> 0.14678742 </output>
					</split>
				</split>
			</split>
			<split pos="right">
				<feature> 135 </feature>
				<threshold> 9175.684 </threshold>
				<split pos="left">
					<feature> 129 </feature>
					<threshold> 3.0 </threshold>
					<split pos="left">
						<feature> 130 </feature>
						<threshold> 65279.395 </threshold>
						<split pos="left">
							<feature> 134 </feature>
							<threshold> 0.0 </threshold>
							<split pos="left">
								<output> 0.01996487 </output>
							</split>
							<split pos="right">
								<output> -0.1114456 </output>
							</split>
						</split>
						<split pos="right">
							<output> 0.41538993 </output>
						</split>
					</split>
					<split pos="right">
						<feature> 126 </feature>
						<threshold> 1.0 </threshold>
						<split pos="left">
							<output> 0.34571618 </output>
						</split>
						<split pos="right">
							<output> 0.13898213 </output>
						</split>
					</split>
				</split>
				<split pos="right">
					<output> 0.38929525 </output>
				</split>
			</split>
		</split>
	</tree>
	<tree id="48" weight="0.1">
		<split>
			<feature> 3 </feature>
			<threshold> 3.0 </threshold>
			<split pos="left">
				<feature> 127 </feature>
				<threshold> 28.941406 </threshold>
				<split pos="left">
					<feature> 108 </feature>
					<threshold> 24.456047 </threshold>
					<split pos="left">
						<feature> 4 </feature>
						<threshold> 3.0 </threshold>
						<split pos="left">
							<feature> 129 </feature>
							<threshold> 0.0 </threshold>
							<split pos="left">
								<output> -0.040782087 </output>
							</split>
							<split pos="right">
								<feature> 109 </feature>
								<threshold> 17.282898 </threshold>
								<split pos="left">
									<feature> 108 </feature>
									<threshold> 6.669831 </threshold>
									<split pos="left">
										<output> -0.06348792 </output>
									</split>
									<split pos="right">
										<output> 0.20047642 </output>
									</split>
								</split>
								<split pos="right">
									<output> 0.5575122 </output>
								</split>
							</split>
						</split>
						<split pos="right">
							<output> 1.1492947 </output>
						</split>
					</split>
					<split pos="right">
						<output> 0.33528188 </output>
					</split>
				</split>
				<split pos="right">
					<feature> 14 </feature>
					<threshold> 3.0 </threshold>
					<split pos="left">
						<output> 0.68390304 </output>
					</split>
					<split pos="right">
						<feature> 7 </feature>
						<threshold> 0.571429 </threshold>
						<split pos="left">
							<output> -0.10509429 </output>
						</split>
						<split pos="right">
							<output> 0.11544123 </output>
						</split>
					</split>
				</split>
			</split>
			<split pos="right">
				<output> 0.26941994 </output>
			</split>
		</split>
	</tree>
	<tree id="49" weight="0.1">
		<split>
			<feature> 50 </feature>
			<threshold> 0.053748783 </threshold>
			<split pos="left">
				<feature> 109 </feature>
				<threshold> 23.137917 </threshold>
				<split pos="left">
					<feature> 134 </feature>
					<threshold> 0.0 </threshold>
					<split pos="left">
						<feature> 15 </feature>
						<threshold> 54.9375 </threshold>
						<split pos="left">
							<output> 0.5548561 </output>
						</split>
						<split pos="right">
							<feature> 123 </feature>
							<threshold> -9.668865 </threshold>
							<split pos="left">
								<output> -0.24702506 </output>
							</split>
							<split pos="right">
								<output> 0.025947792 </output>
							</split>
						</split>
					</split>
					<split pos="right">
						<output> -0.07564858 </output>
					</split>
				</split>
				<split pos="right">
					<output> 0.40802574 </output>
				</split>
			</split>
			<split pos="right">
				<feature> 105 </feature>
				<threshold> 0.015625 </threshold>
				<split pos="left">
					<output> 1.3696818 </output>
				</split>
				<split pos="right">
					<feature> 135 </feature>
					<threshold> 578068.25 </threshold>
					<split pos="left">
						<feature> 133 </feature>
						<threshold> 15.0 </threshold>
						<split pos="left">
							<feature> 127 </feature>
							<threshold> 23.953125 </threshold>
							<split pos="left">
								<output> 0.25830898 </output>
							</split>
							<split pos="right">
								<output> 0.10052619 </output>
							</split>
						</split>
						<split pos="right">
							<output> -0.056606494 </output>
						</split>
					</split>
					<split pos="right">
						<output> 1.0054156 </output>
					</split>
				</split>
			</split>
		</split>
	</tree>
	<tree id="50" weight="0.1">
		<split>
			<feature> 129 </feature>
			<threshold> 0.0 </threshold>
			<split pos="left">
				<feature> 134 </feature>
				<threshold> 476178.22 </threshold>
				<split pos="left">
					<feature> 134 </feature>
					<threshold> 0.0 </threshold>
					<split pos="left">
						<feature> 11 </feature>
						<threshold> 0.0 </threshold>
						<split pos="left">
							<output> 0.7768467 </output>
						</split>
						<split pos="right">
							<output> -0.1017161 </output>
						</split>
					</split>
					<split pos="right">
						<output> -0.10545031 </output>
					</split>
				</split>
				<split pos="right">
					<output> 1.1418401 </output>
				</split>
			</split>
			<split pos="right">
				<feature> 54 </feature>
				<threshold> 0.230769 </threshold>
				<split pos="left">
					<feature> 4 </feature>
					<threshold> 7.0 </threshold>
					<split pos="left">
						<feature> 133 </feature>
						<threshold> 10.0 </threshold>
						<split pos="left">
							<feature> 107 </feature>
							<threshold> 14.980003 </threshold>
							<split pos="left">
								<feature> 126 </feature>
								<threshold> 1.0 </threshold>
								<split pos="left">
									<output> 0.224687 </output>
								</split>
								<split pos="right">
									<output> 0.053046748 </output>
								</split>
							</split>
							<split pos="right">
								<output> 0.29622066 </output>
							</split>
						</split>
						<split pos="right">
							<output> -0.064770505 </output>
						</split>
					</split>
					<split pos="right">
						<output> 0.848817 </output>
					</split>
				</split>
				<split pos="right">
					<output> 0.33615744 </output>
				</split>
			</split>
		</split>
	</tree>
	<tree id="51" weight="0.1">
		<split>
			<feature> 110 </feature>
			<threshold> 28.361145 </threshold>
			<split pos="left">
				<feature> 113 </feature>
				<threshold> -22.917555 </threshold>
				<split pos="left">
					<output> -0.3726997 </output>
				</split>
				<split pos="right">
					<feature> 134 </feature>
					<threshold> 0.0 </threshold>
					<split pos="left">
						<feature> 130 </feature>
						<threshold> 60422.89 </threshold>
						<split pos="left">
							<feature> 14 </feature>
							<threshold> 2.0 </threshold>
							<split pos="left">
								<output> 0.89940447 </output>
							</split>
							<split pos="right">
								<output> -0.020169415 </output>
							</split>
						</split>
						<split pos="right">
							<output> 0.24554066 </output>
						</split>
					</split>
					<split pos="right">
						<feature> 16 </feature>
						<threshold> 1.8949642 </threshold>
						<split pos="left">
							<output> -0.520377 </output>
						</split>
						<split pos="right">
							<feature> 18 </feature>
							<threshold> 4.5152473 </threshold>
							<split pos="left">
								<output> 0.9035057 </output>
							</split>
							<split pos="right">
								<feature> 136 </feature>
								<threshold> 0.0 </threshold>
								<split pos="left">
									<output> -0.4401032 </output>
								</split>
								<split pos="right">
									<feature> 132 </feature>
									<threshold> 19.0 </threshold>
									<split pos="left">
										<output> 0.05210681 </output>
									</split>
									<split pos="right">
										<output> -0.2053357 </output>
									</split>
								</split>
							</split>
						</split>
					</split>
				</split>
			</split>
			<split pos="right">
				<output> 0.101752795 </output>
			</split>
		</split>
	</tree>
	<tree id="52" weight="0.1">
		<split>
			<feature> 130 </feature>
			<threshold> 30005.84 </threshold>
			<split pos="left">
				<feature> 47 </feature>
				<threshold> 0.70833313 </threshold>
				<split pos="left">
					<feature> 134 </feature>
					<threshold> 423269.53 </threshold>
					<split pos="left">
						<feature> 134 </feature>
						<threshold> 0.0 </threshold>
						<split pos="left">
							<feature> 4 </feature>
							<threshold> 7.0 </threshold>
							<split pos="left">
								<output> -0.059302095 </output>
							</split>
							<split pos="right">
								<output> 0.6198555 </output>
							</split>
						</split>
						<split pos="right">
							<output> -0.1058682 </output>
						</split>
					</split>
					<split pos="right">
						<output> 1.1593469 </output>
					</split>
				</split>
				<split pos="right">
					<output> 0.17924802 </output>
				</split>
			</split>
			<split pos="right">
				<feature> 54 </feature>
				<threshold> 0.230769 </threshold>
				<split pos="left">
					<feature> 108 </feature>
					<threshold> 26.679325 </threshold>
					<split pos="left">
						<feature> 109 </feature>
						<threshold> 22.011951 </threshold>
						<split pos="left">
							<feature> 134 </feature>
							<threshold> 0.0 </threshold>
							<split pos="left">
								<output> 0.09011443 </output>
							</split>
							<split pos="right">
								<output> -0.054176833 </output>
							</split>
						</split>
						<split pos="right">
							<output> 0.48497584 </output>
						</split>
					</split>
					<split pos="right">
						<output> 0.4173163 </output>
					</split>
				</split>
				<split pos="right">
					<output> 0.33785325 </output>
				</split>
			</split>
		</split>
	</tree>
	<tree id="53" weight="0.1">
		<split>
			<feature> 30 </feature>
			<threshold> 6.1679688 </threshold>
			<split pos="left">
				<feature> 134 </feature>
				<threshold> 105817.38 </threshold>
				<split pos="left">
					<feature> 15 </feature>
					<threshold> 901.9375 </threshold>
					<split pos="left">
						<feature> 22 </feature>
						<threshold> 11.0 </threshold>
						<split pos="left">
							<feature> 14 </feature>
							<threshold> 4.0 </threshold>
							<split pos="left">
								<feature> 108 </feature>
								<threshold> 28.902603 </threshold>
								<split pos="left">
									<output> 0.07705014 </output>
								</split>
								<split pos="right">
									<output> 0.5525347 </output>
								</split>
							</split>
							<split pos="right">
								<output> -0.056507923 </output>
							</split>
						</split>
						<split pos="right">
							<output> 0.8057933 </output>
						</split>
					</split>
					<split pos="right">
						<output> -0.2631393 </output>
					</split>
				</split>
				<split pos="right">
					<output> 0.4713329 </output>
				</split>
			</split>
			<split pos="right">
				<feature> 135 </feature>
				<threshold> 266094.9 </threshold>
				<split pos="left">
					<feature> 135 </feature>
					<threshold> 9175.684 </threshold>
					<split pos="left">
						<feature> 129 </feature>
						<threshold> 20.0 </threshold>
						<split pos="left">
							<output> 0.046869203 </output>
						</split>
						<split pos="right">
							<output> 0.43015772 </output>
						</split>
					</split>
					<split pos="right">
						<output> 0.34020615 </output>
					</split>
				</split>
				<split pos="right">
					<output> 1.1129345 </output>
				</split>
			</split>
		</split>
	</tree>
	<tree id="54" weight="0.1">
		<split>
			<feature> 129 </feature>
			<threshold> 12.0 </threshold>
			<split pos="left">
				<feature> 130 </feature>
				<threshold> 60422.89 </threshold>
				<split pos="left">
					<feature> 134 </feature>
					<threshold> 0.0 </threshold>
					<split pos="left">
						<feature> 14 </feature>
						<threshold> 2.0 </threshold>
						<split pos="left">
							<output> 0.7779275 </output>
						</split>
						<split pos="right">
							<feature> 50 </feature>
							<threshold> 0.053748783 </threshold>
							<split pos="left">
								<output> -0.113164656 </output>
							</split>
							<split pos="right">
								<feature> 105 </feature>
								<threshold> 0.015625 </threshold>
								<split pos="left">
									<output> 1.305969 </output>
								</split>
								<split pos="right">
									<feature> 132 </feature>
									<threshold> 72.0 </threshold>
									<split pos="left">
										<output> 0.06098032 </output>
									</split>
									<split pos="right">
										<output> -0.2803194 </output>
									</split>
								</split>
							</split>
						</split>
					</split>
					<split pos="right">
						<output> -0.07164432 </output>
					</split>
				</split>
				<split pos="right">
					<feature> 4 </feature>
					<threshold> 3.0 </threshold>
					<split pos="left">
						<feature> 54 </feature>
						<threshold> 0.230769 </threshold>
						<split pos="left">
							<output> 0.07148921 </output>
						</split>
						<split pos="right">
							<output> 0.41275477 </output>
						</split>
					</split>
					<split pos="right">
						<output> 1.1790006 </output>
					</split>
				</split>
			</split>
			<split pos="right">
				<output> 0.153304 </output>
			</split>
		</split>
	</tree>
	<tree id="55" weight="0.1">
		<split>
			<feature> 55 </feature>
			<threshold> 0.005917008 </threshold>
			<split pos="left">
				<feature> 11 </feature>
				<threshold> 0.0 </threshold>
				<split pos="left">
					<output> 0.6290794 </output>
				</split>
				<split pos="right">
					<feature> 135 </feature>
					<threshold> 1064379.6 </threshold>
					<split pos="left">
						<feature> 70 </feature>
						<threshold> 0.050048828 </threshold>
						<split pos="left">
							<feature> 110 </feature>
							<threshold> 36.563915 </threshold>
							<split pos="left">
								<output> -0.116918676 </output>
							</split>
							<split pos="right">
								<output> 0.14352043 </output>
							</split>
						</split>
						<split pos="right">
							<output> -4.169101 </output>
						</split>
					</split>
					<split pos="right">
						<output> -3.8623648 </output>
					</split>
				</split>
			</split>
			<split pos="right">
				<feature> 135 </feature>
				<threshold> 91756.84 </threshold>
				<split pos="left">
					<feature> 135 </feature>
					<threshold> 9175.684 </threshold>
					<split pos="left">
						<feature> 129 </feature>
						<threshold> 20.0 </threshold>
						<split pos="left">
							<feature> 119 </feature>
							<threshold> -21.427567 </threshold>
							<split pos="left">
								<output> 0.13783532 </output>
							</split>
							<split pos="right">
								<output> -0.014436062 </output>
							</split>
						</split>
						<split pos="right">
							<output> 0.315469 </output>
						</split>
					</split>
					<split pos="right">
						<output> 0.25769725 </output>
					</split>
				</split>
				<split pos="right">
					<output> 0.8172969 </output>
				</split>
			</split>
		</split>
	</tree>
	<tree id="56" weight="0.1">
		<split>
			<feature> 127 </feature>
			<threshold> 33.929688 </threshold>
			<split pos="left">
				<feature> 108 </feature>
				<threshold> 24.456047 </threshold>
				<split pos="left">
					<feature> 109 </feature>
					<threshold> 12.103459 </threshold>
					<split pos="left">
						<feature> 74 </feature>
						<threshold> 14.6503525 </threshold>
						<split pos="left">
							<feature> 134 </feature>
							<threshold> 0.0 </threshold>
							<split pos="left">
								<output> 0.054416593 </output>
							</split>
							<split pos="right">
								<output> -0.08095916 </output>
							</split>
						</split>
						<split pos="right">
							<output> 1.5398555 </output>
						</split>
					</split>
					<split pos="right">
						<output> 0.19687589 </output>
					</split>
				</split>
				<split pos="right">
					<output> 0.29121122 </output>
				</split>
			</split>
			<split pos="right">
				<feature> 72 </feature>
				<threshold> 62.558846 </threshold>
				<split pos="left">
					<feature> 134 </feature>
					<threshold> 0.0 </threshold>
					<split pos="left">
						<feature> 2 </feature>
						<threshold> 5.0 </threshold>
						<split pos="left">
							<feature> 30 </feature>
							<threshold> 6.1679688 </threshold>
							<split pos="left">
								<output> -0.10826119 </output>
							</split>
							<split pos="right">
								<output> 0.06349539 </output>
							</split>
						</split>
						<split pos="right">
							<output> 1.1484417 </output>
						</split>
					</split>
					<split pos="right">
						<output> -0.085260704 </output>
					</split>
				</split>
				<split pos="right">
					<output> 0.23070809 </output>
				</split>
			</split>
		</split>
	</tree>
	<tree id="57" weight="0.1">
		<split>
			<feature> 130 </feature>
			<threshold> 16714.355 </threshold>
			<split pos="left">
				<feature> 134 </feature>
				<threshold> 423269.53 </threshold>
				<split pos="left">
					<feature> 64 </feature>
					<threshold> 0.22437932 </threshold>
					<split pos="left">
						<feature> 14 </feature>
						<threshold> 3.0 </threshold>
						<split pos="left">
							<output> 0.18285167 </output>
						</split>
						<split pos="right">
							<feature> 129 </feature>
							<threshold> 31.0 </threshold>
							<split pos="left">
								<output> -0.071297646 </output>
							</split>
							<split pos="right">
								<output> 0.3200614 </output>
							</split>
						</split>
					</split>
					<split pos="right">
						<output> -0.45786047 </output>
					</split>
				</split>
				<split pos="right">
					<output> 1.1408751 </output>
				</split>
			</split>
			<split pos="right">
				<feature> 109 </feature>
				<threshold> 22.011951 </threshold>
				<split pos="left">
					<feature> 108 </feature>
					<threshold> 31.125881 </threshold>
					<split pos="left">
						<feature> 110 </feature>
						<threshold> 22.892632 </threshold>
						<split pos="left">
							<feature> 134 </feature>
							<threshold> 0.0 </threshold>
							<split pos="left">
								<output> 0.032211408 </output>
							</split>
							<split pos="right">
								<output> -0.06576998 </output>
							</split>
						</split>
						<split pos="right">
							<output> 0.17733844 </output>
						</split>
					</split>
					<split pos="right">
						<output> 0.54882765 </output>
					</split>
				</split>
				<split pos="right">
					<output> 0.4310287 </output>
				</split>
			</split>
		</split>
	</tree>
	<tree id="58" weight="0.1">
		<split>
			<feature> 133 </feature>
